tree
version=v4
num_class=1
num_tree_per_iteration=1
label_index=0
max_feature_idx=2047
objective=regression
feature_names=Column_0 Column_1 Column_2 Column_3 Column_4 Column_5 Column_6 Column_7 Column_8 Column_9 Column_10 Column_11 Column_12 Column_13 Column_14 Column_15 Column_16 Column_17 Column_18 Column_19 Column_20 Column_21 Column_22 Column_23 Column_24 Column_25 Column_26 Column_27 Column_28 Column_29 Column_30 Column_31 Column_32 Column_33 Column_34 Column_35 Column_36 Column_37 Column_38 Column_39 Column_40 Column_41 Column_42 Column_43 Column_44 Column_45 Column_46 Column_47 Column_48 Column_49 Column_50 Column_51 Column_52 Column_53 Column_54 Column_55 Column_56 Column_57 Column_58 Column_59 Column_60 Column_61 Column_62 Column_63 Column_64 Column_65 Column_66 Column_67 Column_68 Column_69 Column_70 Column_71 Column_72 Column_73 Column_74 Column_75 Column_76 Column_77 Column_78 Column_79 Column_80 Column_81 Column_82 Column_83 Column_84 Column_85 Column_86 Column_87 Column_88 Column_89 Column_90 Column_91 Column_92 Column_93 Column_94 Column_95 Column_96 Column_97 Column_98 Column_99 Column_100 Column_101 Column_102 Column_103 Column_104 Column_105 Column_106 Column_107 Column_108 Column_109 Column_110 Column_111 Column_112 Column_113 Column_114 Column_115 Column_116 Column_117 Column_118 Column_119 Column_120 Column_121 Column_122 Column_123 Column_124 Column_125 Column_126 Column_127 Column_128 Column_129 Column_130 Column_131 Column_132 Column_133 Column_134 Column_135 Column_136 Column_137 Column_138 Column_139 Column_140 Column_141 Column_142 Column_143 Column_144 Column_145 Column_146 Column_147 Column_148 Column_149 Column_150 Column_151 Column_152 Column_153 Column_154 Column_155 Column_156 Column_157 Column_158 Column_159 Column_160 Column_161 Column_162 Column_163 Column_164 Column_165 Column_166 Column_167 Column_168 Column_169 Column_170 Column_171 Column_172 Column_173 Column_174 Column_175 Column_176 Column_177 Column_178 Column_179 Column_180 Column_181 Column_182 Column_183 Column_184 Column_185 Column_186 Column_187 Column_188 Column_189 Column_190 Column_191 Column_192 Column_193 Column_194 Column_195 Column_196 Column_197 Column_198 Column_199 Column_200 Column_201 Column_202 Column_203 Column_204 Column_205 Column_206 Column_207 Column_208 Column_209 Column_210 Column_211 Column_212 Column_213 Column_214 Column_215 Column_216 Column_217 Column_218 Column_219 Column_220 Column_221 Column_222 Column_223 Column_224 Column_225 Column_226 Column_227 Column_228 Column_229 Column_230 Column_231 Column_232 Column_233 Column_234 Column_235 Column_236 Column_237 Column_238 Column_239 Column_240 Column_241 Column_242 Column_243 Column_244 Column_245 Column_246 Column_247 Column_248 Column_249 Column_250 Column_251 Column_252 Column_253 Column_254 Column_255 Column_256 Column_257 Column_258 Column_259 Column_260 Column_261 Column_262 Column_263 Column_264 Column_265 Column_266 Column_267 Column_268 Column_269 Column_270 Column_271 Column_272 Column_273 Column_274 Column_275 Column_276 Column_277 Column_278 Column_279 Column_280 Column_281 Column_282 Column_283 Column_284 Column_285 Column_286 Column_287 Column_288 Column_289 Column_290 Column_291 Column_292 Column_293 Column_294 Column_295 Column_296 Column_297 Column_298 Column_299 Column_300 Column_301 Column_302 Column_303 Column_304 Column_305 Column_306 Column_307 Column_308 Column_309 Column_310 Column_311 Column_312 Column_313 Column_314 Column_315 Column_316 Column_317 Column_318 Column_319 Column_320 Column_321 Column_322 Column_323 Column_324 Column_325 Column_326 Column_327 Column_328 Column_329 Column_330 Column_331 Column_332 Column_333 Column_334 Column_335 Column_336 Column_337 Column_338 Column_339 Column_340 Column_341 Column_342 Column_343 Column_344 Column_345 Column_346 Column_347 Column_348 Column_349 Column_350 Column_351 Column_352 Column_353 Column_354 Column_355 Column_356 Column_357 Column_358 Column_359 Column_360 Column_361 Column_362 Column_363 Column_364 Column_365 Column_366 Column_367 Column_368 Column_369 Column_370 Column_371 Column_372 Column_373 Column_374 Column_375 Column_376 Column_377 Column_378 Column_379 Column_380 Column_381 Column_382 Column_383 Column_384 Column_385 Column_386 Column_387 Column_388 Column_389 Column_390 Column_391 Column_392 Column_393 Column_394 Column_395 Column_396 Column_397 Column_398 Column_399 Column_400 Column_401 Column_402 Column_403 Column_404 Column_405 Column_406 Column_407 Column_408 Column_409 Column_410 Column_411 Column_412 Column_413 Column_414 Column_415 Column_416 Column_417 Column_418 Column_419 Column_420 Column_421 Column_422 Column_423 Column_424 Column_425 Column_426 Column_427 Column_428 Column_429 Column_430 Column_431 Column_432 Column_433 Column_434 Column_435 Column_436 Column_437 Column_438 Column_439 Column_440 Column_441 Column_442 Column_443 Column_444 Column_445 Column_446 Column_447 Column_448 Column_449 Column_450 Column_451 Column_452 Column_453 Column_454 Column_455 Column_456 Column_457 Column_458 Column_459 Column_460 Column_461 Column_462 Column_463 Column_464 Column_465 Column_466 Column_467 Column_468 Column_469 Column_470 Column_471 Column_472 Column_473 Column_474 Column_475 Column_476 Column_477 Column_478 Column_479 Column_480 Column_481 Column_482 Column_483 Column_484 Column_485 Column_486 Column_487 Column_488 Column_489 Column_490 Column_491 Column_492 Column_493 Column_494 Column_495 Column_496 Column_497 Column_498 Column_499 Column_500 Column_501 Column_502 Column_503 Column_504 Column_505 Column_506 Column_507 Column_508 Column_509 Column_510 Column_511 Column_512 Column_513 Column_514 Column_515 Column_516 Column_517 Column_518 Column_519 Column_520 Column_521 Column_522 Column_523 Column_524 Column_525 Column_526 Column_527 Column_528 Column_529 Column_530 Column_531 Column_532 Column_533 Column_534 Column_535 Column_536 Column_537 Column_538 Column_539 Column_540 Column_541 Column_542 Column_543 Column_544 Column_545 Column_546 Column_547 Column_548 Column_549 Column_550 Column_551 Column_552 Column_553 Column_554 Column_555 Column_556 Column_557 Column_558 Column_559 Column_560 Column_561 Column_562 Column_563 Column_564 Column_565 Column_566 Column_567 Column_568 Column_569 Column_570 Column_571 Column_572 Column_573 Column_574 Column_575 Column_576 Column_577 Column_578 Column_579 Column_580 Column_581 Column_582 Column_583 Column_584 Column_585 Column_586 Column_587 Column_588 Column_589 Column_590 Column_591 Column_592 Column_593 Column_594 Column_595 Column_596 Column_597 Column_598 Column_599 Column_600 Column_601 Column_602 Column_603 Column_604 Column_605 Column_606 Column_607 Column_608 Column_609 Column_610 Column_611 Column_612 Column_613 Column_614 Column_615 Column_616 Column_617 Column_618 Column_619 Column_620 Column_621 Column_622 Column_623 Column_624 Column_625 Column_626 Column_627 Column_628 Column_629 Column_630 Column_631 Column_632 Column_633 Column_634 Column_635 Column_636 Column_637 Column_638 Column_639 Column_640 Column_641 Column_642 Column_643 Column_644 Column_645 Column_646 Column_647 Column_648 Column_649 Column_650 Column_651 Column_652 Column_653 Column_654 Column_655 Column_656 Column_657 Column_658 Column_659 Column_660 Column_661 Column_662 Column_663 Column_664 Column_665 Column_666 Column_667 Column_668 Column_669 Column_670 Column_671 Column_672 Column_673 Column_674 Column_675 Column_676 Column_677 Column_678 Column_679 Column_680 Column_681 Column_682 Column_683 Column_684 Column_685 Column_686 Column_687 Column_688 Column_689 Column_690 Column_691 Column_692 Column_693 Column_694 Column_695 Column_696 Column_697 Column_698 Column_699 Column_700 Column_701 Column_702 Column_703 Column_704 Column_705 Column_706 Column_707 Column_708 Column_709 Column_710 Column_711 Column_712 Column_713 Column_714 Column_715 Column_716 Column_717 Column_718 Column_719 Column_720 Column_721 Column_722 Column_723 Column_724 Column_725 Column_726 Column_727 Column_728 Column_729 Column_730 Column_731 Column_732 Column_733 Column_734 Column_735 Column_736 Column_737 Column_738 Column_739 Column_740 Column_741 Column_742 Column_743 Column_744 Column_745 Column_746 Column_747 Column_748 Column_749 Column_750 Column_751 Column_752 Column_753 Column_754 Column_755 Column_756 Column_757 Column_758 Column_759 Column_760 Column_761 Column_762 Column_763 Column_764 Column_765 Column_766 Column_767 Column_768 Column_769 Column_770 Column_771 Column_772 Column_773 Column_774 Column_775 Column_776 Column_777 Column_778 Column_779 Column_780 Column_781 Column_782 Column_783 Column_784 Column_785 Column_786 Column_787 Column_788 Column_789 Column_790 Column_791 Column_792 Column_793 Column_794 Column_795 Column_796 Column_797 Column_798 Column_799 Column_800 Column_801 Column_802 Column_803 Column_804 Column_805 Column_806 Column_807 Column_808 Column_809 Column_810 Column_811 Column_812 Column_813 Column_814 Column_815 Column_816 Column_817 Column_818 Column_819 Column_820 Column_821 Column_822 Column_823 Column_824 Column_825 Column_826 Column_827 Column_828 Column_829 Column_830 Column_831 Column_832 Column_833 Column_834 Column_835 Column_836 Column_837 Column_838 Column_839 Column_840 Column_841 Column_842 Column_843 Column_844 Column_845 Column_846 Column_847 Column_848 Column_849 Column_850 Column_851 Column_852 Column_853 Column_854 Column_855 Column_856 Column_857 Column_858 Column_859 Column_860 Column_861 Column_862 Column_863 Column_864 Column_865 Column_866 Column_867 Column_868 Column_869 Column_870 Column_871 Column_872 Column_873 Column_874 Column_875 Column_876 Column_877 Column_878 Column_879 Column_880 Column_881 Column_882 Column_883 Column_884 Column_885 Column_886 Column_887 Column_888 Column_889 Column_890 Column_891 Column_892 Column_893 Column_894 Column_895 Column_896 Column_897 Column_898 Column_899 Column_900 Column_901 Column_902 Column_903 Column_904 Column_905 Column_906 Column_907 Column_908 Column_909 Column_910 Column_911 Column_912 Column_913 Column_914 Column_915 Column_916 Column_917 Column_918 Column_919 Column_920 Column_921 Column_922 Column_923 Column_924 Column_925 Column_926 Column_927 Column_928 Column_929 Column_930 Column_931 Column_932 Column_933 Column_934 Column_935 Column_936 Column_937 Column_938 Column_939 Column_940 Column_941 Column_942 Column_943 Column_944 Column_945 Column_946 Column_947 Column_948 Column_949 Column_950 Column_951 Column_952 Column_953 Column_954 Column_955 Column_956 Column_957 Column_958 Column_959 Column_960 Column_961 Column_962 Column_963 Column_964 Column_965 Column_966 Column_967 Column_968 Column_969 Column_970 Column_971 Column_972 Column_973 Column_974 Column_975 Column_976 Column_977 Column_978 Column_979 Column_980 Column_981 Column_982 Column_983 Column_984 Column_985 Column_986 Column_987 Column_988 Column_989 Column_990 Column_991 Column_992 Column_993 Column_994 Column_995 Column_996 Column_997 Column_998 Column_999 Column_1000 Column_1001 Column_1002 Column_1003 Column_1004 Column_1005 Column_1006 Column_1007 Column_1008 Column_1009 Column_1010 Column_1011 Column_1012 Column_1013 Column_1014 Column_1015 Column_1016 Column_1017 Column_1018 Column_1019 Column_1020 Column_1021 Column_1022 Column_1023 Column_1024 Column_1025 Column_1026 Column_1027 Column_1028 Column_1029 Column_1030 Column_1031 Column_1032 Column_1033 Column_1034 Column_1035 Column_1036 Column_1037 Column_1038 Column_1039 Column_1040 Column_1041 Column_1042 Column_1043 Column_1044 Column_1045 Column_1046 Column_1047 Column_1048 Column_1049 Column_1050 Column_1051 Column_1052 Column_1053 Column_1054 Column_1055 Column_1056 Column_1057 Column_1058 Column_1059 Column_1060 Column_1061 Column_1062 Column_1063 Column_1064 Column_1065 Column_1066 Column_1067 Column_1068 Column_1069 Column_1070 Column_1071 Column_1072 Column_1073 Column_1074 Column_1075 Column_1076 Column_1077 Column_1078 Column_1079 Column_1080 Column_1081 Column_1082 Column_1083 Column_1084 Column_1085 Column_1086 Column_1087 Column_1088 Column_1089 Column_1090 Column_1091 Column_1092 Column_1093 Column_1094 Column_1095 Column_1096 Column_1097 Column_1098 Column_1099 Column_1100 Column_1101 Column_1102 Column_1103 Column_1104 Column_1105 Column_1106 Column_1107 Column_1108 Column_1109 Column_1110 Column_1111 Column_1112 Column_1113 Column_1114 Column_1115 Column_1116 Column_1117 Column_1118 Column_1119 Column_1120 Column_1121 Column_1122 Column_1123 Column_1124 Column_1125 Column_1126 Column_1127 Column_1128 Column_1129 Column_1130 Column_1131 Column_1132 Column_1133 Column_1134 Column_1135 Column_1136 Column_1137 Column_1138 Column_1139 Column_1140 Column_1141 Column_1142 Column_1143 Column_1144 Column_1145 Column_1146 Column_1147 Column_1148 Column_1149 Column_1150 Column_1151 Column_1152 Column_1153 Column_1154 Column_1155 Column_1156 Column_1157 Column_1158 Column_1159 Column_1160 Column_1161 Column_1162 Column_1163 Column_1164 Column_1165 Column_1166 Column_1167 Column_1168 Column_1169 Column_1170 Column_1171 Column_1172 Column_1173 Column_1174 Column_1175 Column_1176 Column_1177 Column_1178 Column_1179 Column_1180 Column_1181 Column_1182 Column_1183 Column_1184 Column_1185 Column_1186 Column_1187 Column_1188 Column_1189 Column_1190 Column_1191 Column_1192 Column_1193 Column_1194 Column_1195 Column_1196 Column_1197 Column_1198 Column_1199 Column_1200 Column_1201 Column_1202 Column_1203 Column_1204 Column_1205 Column_1206 Column_1207 Column_1208 Column_1209 Column_1210 Column_1211 Column_1212 Column_1213 Column_1214 Column_1215 Column_1216 Column_1217 Column_1218 Column_1219 Column_1220 Column_1221 Column_1222 Column_1223 Column_1224 Column_1225 Column_1226 Column_1227 Column_1228 Column_1229 Column_1230 Column_1231 Column_1232 Column_1233 Column_1234 Column_1235 Column_1236 Column_1237 Column_1238 Column_1239 Column_1240 Column_1241 Column_1242 Column_1243 Column_1244 Column_1245 Column_1246 Column_1247 Column_1248 Column_1249 Column_1250 Column_1251 Column_1252 Column_1253 Column_1254 Column_1255 Column_1256 Column_1257 Column_1258 Column_1259 Column_1260 Column_1261 Column_1262 Column_1263 Column_1264 Column_1265 Column_1266 Column_1267 Column_1268 Column_1269 Column_1270 Column_1271 Column_1272 Column_1273 Column_1274 Column_1275 Column_1276 Column_1277 Column_1278 Column_1279 Column_1280 Column_1281 Column_1282 Column_1283 Column_1284 Column_1285 Column_1286 Column_1287 Column_1288 Column_1289 Column_1290 Column_1291 Column_1292 Column_1293 Column_1294 Column_1295 Column_1296 Column_1297 Column_1298 Column_1299 Column_1300 Column_1301 Column_1302 Column_1303 Column_1304 Column_1305 Column_1306 Column_1307 Column_1308 Column_1309 Column_1310 Column_1311 Column_1312 Column_1313 Column_1314 Column_1315 Column_1316 Column_1317 Column_1318 Column_1319 Column_1320 Column_1321 Column_1322 Column_1323 Column_1324 Column_1325 Column_1326 Column_1327 Column_1328 Column_1329 Column_1330 Column_1331 Column_1332 Column_1333 Column_1334 Column_1335 Column_1336 Column_1337 Column_1338 Column_1339 Column_1340 Column_1341 Column_1342 Column_1343 Column_1344 Column_1345 Column_1346 Column_1347 Column_1348 Column_1349 Column_1350 Column_1351 Column_1352 Column_1353 Column_1354 Column_1355 Column_1356 Column_1357 Column_1358 Column_1359 Column_1360 Column_1361 Column_1362 Column_1363 Column_1364 Column_1365 Column_1366 Column_1367 Column_1368 Column_1369 Column_1370 Column_1371 Column_1372 Column_1373 Column_1374 Column_1375 Column_1376 Column_1377 Column_1378 Column_1379 Column_1380 Column_1381 Column_1382 Column_1383 Column_1384 Column_1385 Column_1386 Column_1387 Column_1388 Column_1389 Column_1390 Column_1391 Column_1392 Column_1393 Column_1394 Column_1395 Column_1396 Column_1397 Column_1398 Column_1399 Column_1400 Column_1401 Column_1402 Column_1403 Column_1404 Column_1405 Column_1406 Column_1407 Column_1408 Column_1409 Column_1410 Column_1411 Column_1412 Column_1413 Column_1414 Column_1415 Column_1416 Column_1417 Column_1418 Column_1419 Column_1420 Column_1421 Column_1422 Column_1423 Column_1424 Column_1425 Column_1426 Column_1427 Column_1428 Column_1429 Column_1430 Column_1431 Column_1432 Column_1433 Column_1434 Column_1435 Column_1436 Column_1437 Column_1438 Column_1439 Column_1440 Column_1441 Column_1442 Column_1443 Column_1444 Column_1445 Column_1446 Column_1447 Column_1448 Column_1449 Column_1450 Column_1451 Column_1452 Column_1453 Column_1454 Column_1455 Column_1456 Column_1457 Column_1458 Column_1459 Column_1460 Column_1461 Column_1462 Column_1463 Column_1464 Column_1465 Column_1466 Column_1467 Column_1468 Column_1469 Column_1470 Column_1471 Column_1472 Column_1473 Column_1474 Column_1475 Column_1476 Column_1477 Column_1478 Column_1479 Column_1480 Column_1481 Column_1482 Column_1483 Column_1484 Column_1485 Column_1486 Column_1487 Column_1488 Column_1489 Column_1490 Column_1491 Column_1492 Column_1493 Column_1494 Column_1495 Column_1496 Column_1497 Column_1498 Column_1499 Column_1500 Column_1501 Column_1502 Column_1503 Column_1504 Column_1505 Column_1506 Column_1507 Column_1508 Column_1509 Column_1510 Column_1511 Column_1512 Column_1513 Column_1514 Column_1515 Column_1516 Column_1517 Column_1518 Column_1519 Column_1520 Column_1521 Column_1522 Column_1523 Column_1524 Column_1525 Column_1526 Column_1527 Column_1528 Column_1529 Column_1530 Column_1531 Column_1532 Column_1533 Column_1534 Column_1535 Column_1536 Column_1537 Column_1538 Column_1539 Column_1540 Column_1541 Column_1542 Column_1543 Column_1544 Column_1545 Column_1546 Column_1547 Column_1548 Column_1549 Column_1550 Column_1551 Column_1552 Column_1553 Column_1554 Column_1555 Column_1556 Column_1557 Column_1558 Column_1559 Column_1560 Column_1561 Column_1562 Column_1563 Column_1564 Column_1565 Column_1566 Column_1567 Column_1568 Column_1569 Column_1570 Column_1571 Column_1572 Column_1573 Column_1574 Column_1575 Column_1576 Column_1577 Column_1578 Column_1579 Column_1580 Column_1581 Column_1582 Column_1583 Column_1584 Column_1585 Column_1586 Column_1587 Column_1588 Column_1589 Column_1590 Column_1591 Column_1592 Column_1593 Column_1594 Column_1595 Column_1596 Column_1597 Column_1598 Column_1599 Column_1600 Column_1601 Column_1602 Column_1603 Column_1604 Column_1605 Column_1606 Column_1607 Column_1608 Column_1609 Column_1610 Column_1611 Column_1612 Column_1613 Column_1614 Column_1615 Column_1616 Column_1617 Column_1618 Column_1619 Column_1620 Column_1621 Column_1622 Column_1623 Column_1624 Column_1625 Column_1626 Column_1627 Column_1628 Column_1629 Column_1630 Column_1631 Column_1632 Column_1633 Column_1634 Column_1635 Column_1636 Column_1637 Column_1638 Column_1639 Column_1640 Column_1641 Column_1642 Column_1643 Column_1644 Column_1645 Column_1646 Column_1647 Column_1648 Column_1649 Column_1650 Column_1651 Column_1652 Column_1653 Column_1654 Column_1655 Column_1656 Column_1657 Column_1658 Column_1659 Column_1660 Column_1661 Column_1662 Column_1663 Column_1664 Column_1665 Column_1666 Column_1667 Column_1668 Column_1669 Column_1670 Column_1671 Column_1672 Column_1673 Column_1674 Column_1675 Column_1676 Column_1677 Column_1678 Column_1679 Column_1680 Column_1681 Column_1682 Column_1683 Column_1684 Column_1685 Column_1686 Column_1687 Column_1688 Column_1689 Column_1690 Column_1691 Column_1692 Column_1693 Column_1694 Column_1695 Column_1696 Column_1697 Column_1698 Column_1699 Column_1700 Column_1701 Column_1702 Column_1703 Column_1704 Column_1705 Column_1706 Column_1707 Column_1708 Column_1709 Column_1710 Column_1711 Column_1712 Column_1713 Column_1714 Column_1715 Column_1716 Column_1717 Column_1718 Column_1719 Column_1720 Column_1721 Column_1722 Column_1723 Column_1724 Column_1725 Column_1726 Column_1727 Column_1728 Column_1729 Column_1730 Column_1731 Column_1732 Column_1733 Column_1734 Column_1735 Column_1736 Column_1737 Column_1738 Column_1739 Column_1740 Column_1741 Column_1742 Column_1743 Column_1744 Column_1745 Column_1746 Column_1747 Column_1748 Column_1749 Column_1750 Column_1751 Column_1752 Column_1753 Column_1754 Column_1755 Column_1756 Column_1757 Column_1758 Column_1759 Column_1760 Column_1761 Column_1762 Column_1763 Column_1764 Column_1765 Column_1766 Column_1767 Column_1768 Column_1769 Column_1770 Column_1771 Column_1772 Column_1773 Column_1774 Column_1775 Column_1776 Column_1777 Column_1778 Column_1779 Column_1780 Column_1781 Column_1782 Column_1783 Column_1784 Column_1785 Column_1786 Column_1787 Column_1788 Column_1789 Column_1790 Column_1791 Column_1792 Column_1793 Column_1794 Column_1795 Column_1796 Column_1797 Column_1798 Column_1799 Column_1800 Column_1801 Column_1802 Column_1803 Column_1804 Column_1805 Column_1806 Column_1807 Column_1808 Column_1809 Column_1810 Column_1811 Column_1812 Column_1813 Column_1814 Column_1815 Column_1816 Column_1817 Column_1818 Column_1819 Column_1820 Column_1821 Column_1822 Column_1823 Column_1824 Column_1825 Column_1826 Column_1827 Column_1828 Column_1829 Column_1830 Column_1831 Column_1832 Column_1833 Column_1834 Column_1835 Column_1836 Column_1837 Column_1838 Column_1839 Column_1840 Column_1841 Column_1842 Column_1843 Column_1844 Column_1845 Column_1846 Column_1847 Column_1848 Column_1849 Column_1850 Column_1851 Column_1852 Column_1853 Column_1854 Column_1855 Column_1856 Column_1857 Column_1858 Column_1859 Column_1860 Column_1861 Column_1862 Column_1863 Column_1864 Column_1865 Column_1866 Column_1867 Column_1868 Column_1869 Column_1870 Column_1871 Column_1872 Column_1873 Column_1874 Column_1875 Column_1876 Column_1877 Column_1878 Column_1879 Column_1880 Column_1881 Column_1882 Column_1883 Column_1884 Column_1885 Column_1886 Column_1887 Column_1888 Column_1889 Column_1890 Column_1891 Column_1892 Column_1893 Column_1894 Column_1895 Column_1896 Column_1897 Column_1898 Column_1899 Column_1900 Column_1901 Column_1902 Column_1903 Column_1904 Column_1905 Column_1906 Column_1907 Column_1908 Column_1909 Column_1910 Column_1911 Column_1912 Column_1913 Column_1914 Column_1915 Column_1916 Column_1917 Column_1918 Column_1919 Column_1920 Column_1921 Column_1922 Column_1923 Column_1924 Column_1925 Column_1926 Column_1927 Column_1928 Column_1929 Column_1930 Column_1931 Column_1932 Column_1933 Column_1934 Column_1935 Column_1936 Column_1937 Column_1938 Column_1939 Column_1940 Column_1941 Column_1942 Column_1943 Column_1944 Column_1945 Column_1946 Column_1947 Column_1948 Column_1949 Column_1950 Column_1951 Column_1952 Column_1953 Column_1954 Column_1955 Column_1956 Column_1957 Column_1958 Column_1959 Column_1960 Column_1961 Column_1962 Column_1963 Column_1964 Column_1965 Column_1966 Column_1967 Column_1968 Column_1969 Column_1970 Column_1971 Column_1972 Column_1973 Column_1974 Column_1975 Column_1976 Column_1977 Column_1978 Column_1979 Column_1980 Column_1981 Column_1982 Column_1983 Column_1984 Column_1985 Column_1986 Column_1987 Column_1988 Column_1989 Column_1990 Column_1991 Column_1992 Column_1993 Column_1994 Column_1995 Column_1996 Column_1997 Column_1998 Column_1999 Column_2000 Column_2001 Column_2002 Column_2003 Column_2004 Column_2005 Column_2006 Column_2007 Column_2008 Column_2009 Column_2010 Column_2011 Column_2012 Column_2013 Column_2014 Column_2015 Column_2016 Column_2017 Column_2018 Column_2019 Column_2020 Column_2021 Column_2022 Column_2023 Column_2024 Column_2025 Column_2026 Column_2027 Column_2028 Column_2029 Column_2030 Column_2031 Column_2032 Column_2033 Column_2034 Column_2035 Column_2036 Column_2037 Column_2038 Column_2039 Column_2040 Column_2041 Column_2042 Column_2043 Column_2044 Column_2045 Column_2046 Column_2047
feature_infos=none [0:1] none none none none none none none none none none none [0:1] [0:1] none none none none [0:1] none none none none none none none none none none none none none none none none none none none none none none none none none [0:1] none none none none none none none none none none none none none none none none none none none [0:1] none none none none none none none none none none none none none none [0:1] none none none none none none none none none none none [0:1] none none none none none none none none none none none none none none none none none none none none none none none none none none [0:1] none none none none none none none none none none [0:1] none none none none none none none none none none none none none none none none none none none none none none none none none none none none none [0:1] [0:1] none none none none none none none none none none none none none none none none none none none none none none [0:1] none none none none none none [0:1] none none none none none [0:1] none none none none none none none none none [0:1] none none none none none none none none [0:1] none none none none none none none none none none none none none none none none [0:1] none none none none none none none none none none none none none none none [0:1] none none none none none none none none none none none none none none none none none none none none none none none none none none none none none none none none none [0:1] none none none none none none none none none none none none none none none none none none none none none none none none none none none none none none [0:1] none none none none none none none [0:1] none none none none none none [0:1] none none none none none none none none none none none none none none none none none none none none [0:1] none [0:1] none none none none none none none none none none none none none [0:1] none none none none none none none none none none none none none none none none none none none none none none [0:1] none none none none none none none none none none none [0:1] none none none none none [0:1] none none none none none none none none none none none none [0:1] none [0:1] none none none none none none none none none none none none none none none none none none none none none none none none none none none none none none none none none none none [0:1] none none none none none [0:1] [0:1] none none none none none none none none none none none none none none none none none none none none none none none [0:1] none [0:1] [0:1] none none none [0:1] none none none none none none none none none none none none none none none none none none none none none none none none none none [0:1] [0:1] none none none none none none none none none none none none none none none none none none none [0:1] none none none none none none none none none none [0:1] none none none none none [0:1] none none none none none none none none none none none none none none none none none [0:1] none none none none none none none none none none none none none none none none none none none none none none none none none none none none none none none none none none none none none none none none none none none none none none none none none none none none none none none none none none none none none none none none none none none none none none [0:1] none [0:1] none none none [0:1] none none none none none none none none none none [0:1] none none none none none [0:1] none none none none none none none none none none none none none [0:1] none none none none none [0:1] [0:1] [0:1] none none none [0:1] none none none [0:1] none none none none [0:1] none none none none none none none [0:1] none [0:1] none none [0:1] none none none none none [0:1] none none none none none none none none none none none [0:1] none none none none none none none none none none none none none none none none none none none none none none none none none none none none none none none none none none none none none none none none [0:1] none none none none none none [0:1] none none none none none none [0:1] none none none none none none none none none none none none [0:1] none none none none none none none none none none none none none none none none none none none none none none none none none none none none none none none none none [0:1] none [0:1] none none none none none none none none none none none none none none none none none none none none none none none none none none none none none none none none none none none none none [0:1] none none none none none none [0:1] none none none none none none none none none none none none none none none none none none none none none none none none none none none none none none none none none none none none none [0:1] none none none none none none none none [0:1] none none none none none none none none none none none none none none [0:1] none none none none none none none none [0:1] none [0:1] none none none none none none none none none none none none none none none none none none none none none none none none none none none none none none none none none none none none none none none none none none none none none none none none none none none none none none none none none [0:1] none none none none none none none none [0:1] none none none none none none none none none none [0:1] none none none none none none none none none [0:1] [0:1] none none none none none none [0:1] [0:1] none none none none none none none [0:1] none none none none none none none none none none none none none none none none none none none none none [0:1] none none none none none none none none [0:1] none none none none none none none none none none [0:1] none none none none none [0:1] none none none none none none none none none none none none none none none none none none none none none none none none none none none none none none [0:1] none none none none none none [0:1] none none none none [0:1] none none [0:1] none none [0:1] none none none none none none none [0:1] none none none none none none none none none [0:1] none none none none none none none none none none none none none none none none none [0:1] none none none none none none none none none none none none none none none none none none none none none none none none [0:1] none [0:1] none none none none none none none none none [0:1] none none none none none none none none [0:1] none none none none none none none none none none none none none none none none none none none none [0:1] none none none none none none none none none none none none none none none none none none none none none none none none none none none none none none none none none none none none none none none none none none none none none none none none none none none none none none none none none none [0:1] none none none none none none none none none none none none none none none none none none none none none none none none none none none none none none none [0:1] none none none none none none none none [0:1] [0:1] none none none none none none none none none none none none none none none none none none none none none none none none none none none none none none none none none none none none none [0:1] none none none none [0:1] none none none none none none none none none none none none none none none none none none none none none none none none none none none none none none none none [0:1] none [0:1] none none none none none none none none none none none [0:1] none none none none none none none [0:1] none none none none none none none none none none [0:1] none none none [0:1] none none none none none none none [0:1] none none none none none none none none none none none none none none none none none none none [0:1] none none none none none none none none none none none none none none none none none none none none none none none none none none [0:1] [0:1] none none none none none none none none none none none none none none none none none none none none none none none none none none none none none none none [0:1] none none none none none none none none none none none none [0:1] [0:1] none none none none none none [0:1] none none none none none none none none none none none none none none none none none none none none none none none none none none none [0:1] none [0:1] none none none none none none none none none none none none none none none none none none none none none none none none none [0:1] none none [0:1] none none none none none none none none none none none none none none none none none none none none none none none none none none none none none none none none none none [0:1] none none [0:1] none none none none none none none none none [0:1] none none none none none none none none none none none none none none none [0:1] none none none none none none none none none none none none none none none none none none none none none none none none none none none none none none none none none none none none none none none none none [0:1] none none none none none none none none none none none none none none none none none none none none none none none none none none none none none none none none none none none none [0:1] none none none none none none none none none none none none none none none none none none [0:1] none none none none none [0:1] none none none none none none none none [0:1] none none none none none none none none none none none none none none [0:1] none none none none [0:1] none none none none none none none none none [0:1] [0:1] none none none none none none none none none [0:1] none none none none none none none none none none none none none none none none none none none none none none none none none none none none none none none none none none none none none none [0:1] none none none none none [0:1] [0:1] none none none none [0:1] none none none none none [0:1] none none none none [0:1] none none none none none none [0:1] none none none none none none none none none none [0:1] none none none none none none none none none none none none none none none none none none none none none none none [0:1] none none none none none none none none none none none none none none none none none none none none none none none none none none none none none none none none none none none none none none [0:1] none none none none none none none [0:1] none none none none none none none none none none none none [0:1] none none none none none none none none none none none none none none none none none
tree_sizes=723 848 759 668 677 680 771 758 762 851 858 684 777 764 775 779 686 772 751 756 866 777 760 688 869 847 763 764 866 786 963 783 775 861 874 691 689 789 862 776 864 801 767 775 686

Tree=0
num_leaves=7
num_cat=0
split_feature=1923 926 489 1366 1535 496
split_gain=83.7658 28.9688 27.322 5.75466 6.98641 3.93227
threshold=1.0000000180025095e-35 1.0000000180025095e-35 1.0000000180025095e-35 1.0000000180025095e-35 1.0000000180025095e-35 1.0000000180025095e-35
decision_type=2 2 2 2 2 2
left_child=1 2 -1 -3 -5 -2
right_child=5 3 -4 4 -6 -7
leaf_value=7.051163416723071 7.1040046261727747 7.2266861610420428 7.259709979103917 7.361263078965985 7.2644714600649998 6.9990978416628504
leaf_weight=21 28 22 26 38 39 24
leaf_count=21 28 22 26 38 39 24
internal_value=7.19888 7.25525 7.16366 7.29875 7.31709 7.04644
internal_weight=198 146 47 99 77 52
internal_count=198 146 47 99 77 52
is_linear=0
shrinkage=1


Tree=1
num_leaves=8
num_cat=0
split_feature=1366 191 1856 465 1970 1928 1357
split_gain=64.8467 12.4757 12.4403 9.2388 5.47968 4.25232 0.93556
threshold=1.0000000180025095e-35 1.0000000180025095e-35 1.0000000180025095e-35 1.0000000180025095e-35 1.0000000180025095e-35 1.0000000180025095e-35 1.0000000180025095e-35
decision_type=2 2 2 2 2 2 2
left_child=2 6 3 5 -3 -1 -2
right_child=1 4 -4 -5 -6 -7 -8
leaf_value=-0.044462057478536383 0.083740436913185182 -0.023491465803017537 -0.16971187742157595 -0.10751544550620394 0.065595649006201337 0.03823557053066752 0.16459838223302081
leaf_weight=25 20 21 23 30 34 21 24
leaf_count=25 20 21 23 30 34 21 24
internal_value=-0.000127035 0.081299 -0.0818211 -0.0491766 0.031673 -0.00611281 0.136483
internal_weight=198 99 99 76 55 46 44
internal_count=198 99 99 76 55 46 44
is_linear=0
shrinkage=0.144767


Tree=2
num_leaves=7
num_cat=0
split_feature=366 489 727 926 1405 492
split_gain=36.5106 20.0907 16.3936 10.066 3.7694 1.59718
threshold=1.0000000180025095e-35 1.0000000180025095e-35 1.0000000180025095e-35 1.0000000180025095e-35 1.0000000180025095e-35 1.0000000180025095e-35
decision_type=2 2 2 2 2 2
left_child=3 -2 -3 -1 5 -5
right_child=1 2 -4 4 -6 -7
leaf_value=-0.015365936593614597 -0.15152708826128836 0.05591924867198711 -0.10084059589839925 0.068113675975993868 0.023367113771644125 0.13463517683430531
leaf_weight=31 34 30 21 38 23 21
leaf_count=31 34 30 21 38 23 21
internal_value=-7.28148e-05 -0.0704568 -0.010227 0.0531066 0.0789297 0.0978609
internal_weight=198 85 51 113 82 59
internal_count=198 85 51 113 82 59
is_linear=0
shrinkage=0.144767


Tree=3
num_leaves=6
num_cat=0
split_feature=694 1923 695 496 191
split_gain=41.918 11.3218 7.43027 5.85164 1.67759
threshold=1.0000000180025095e-35 1.0000000180025095e-35 1.0000000180025095e-35 1.0000000180025095e-35 1.0000000180025095e-35
decision_type=2 2 2 2 2
left_child=1 4 -2 -4 -1
right_child=2 -3 3 -5 -6
leaf_value=0.0084755855219601824 -0.0064084594551729419 -0.12208568344783376 0.10679295173525434 0.018918358880570231 -0.042242587922571823
leaf_weight=22 25 43 56 25 27
leaf_count=22 25 43 56 25 27
internal_value=0 -0.0703592 0.0610988 0.0817244 -0.019802
internal_weight=198 92 106 81 49
internal_count=198 92 106 81 49
is_linear=0
shrinkage=0.144767


Tree=4
num_leaves=6
num_cat=0
split_feature=1366 489 492 458 465
split_gain=32.9729 7.77804 19.0697 4.71801 4.57706
threshold=1.0000000180025095e-35 1.0000000180025095e-35 1.0000000180025095e-35 1.0000000180025095e-35 1.0000000180025095e-35
decision_type=2 2 2 2 2
left_child=3 2 -2 4 -1
right_child=1 -3 -4 -5 -6
leaf_value=-0.0039736351027571731 -0.048867801041562672 0.10230723007372471 0.11344798625743126 -0.10914888857821041 -0.076610485905419287
leaf_weight=43 33 43 23 26 30
leaf_count=43 33 43 23 26 30
internal_value=-5.42056e-05 0.057969 0.0198192 -0.0583476 -0.0361232
internal_weight=198 99 56 99 73
internal_count=198 99 56 99 73
is_linear=0
shrinkage=0.144767


Tree=5
num_leaves=6
num_cat=0
split_feature=1645 1683 1157 420 739
split_gain=26.042 4.53295 6.19992 4.11022 2.14159
threshold=1.0000000180025095e-35 1.0000000180025095e-35 1.0000000180025095e-35 1.0000000180025095e-35 1.0000000180025095e-35
decision_type=2 2 2 2 2
left_child=1 -1 -3 4 -2
right_child=3 2 -4 -5 -6
leaf_value=-0.0009652197523198991 0.10378168109697541 -0.11003574694744375 -0.025508752974937644 0.015517857680790344 0.033087134651489679
leaf_weight=34 34 33 44 34 19
leaf_count=34 34 33 44 34 19
internal_value=-0.000118133 -0.046184 -0.0649816 0.0579076 0.0822106
internal_weight=198 111 77 87 53
internal_count=198 111 77 87 53
is_linear=0
shrinkage=0.144767


Tree=6
num_leaves=7
num_cat=0
split_feature=1645 721 1535 716 926 1199
split_gain=19.6844 3.76492 3.46297 3.01655 5.73055 1.78605
threshold=1.0000000180025095e-35 1.0000000180025095e-35 1.0000000180025095e-35 1.0000000180025095e-35 1.0000000180025095e-35 1.0000000180025095e-35
decision_type=2 2 2 2 2 2
left_child=1 3 -2 4 -1 -4
right_child=2 -3 5 -5 -6 -7
leaf_value=-0.050392947819677451 0.080539950139895747 -0.085885414883780639 -0.0060520124773496926 -0.065761067401165524 0.033009949826100352 0.04708214014183907
leaf_weight=29 40 26 24 22 34 23
leaf_count=29 40 26 24 22 34 23
internal_value=-4.50528e-05 -0.0401138 0.0503845 -0.0232295 -0.00553342 0.0207199
internal_weight=198 111 87 85 63 47
internal_count=198 111 87 85 63 47
is_linear=0
shrinkage=0.144767


Tree=7
num_leaves=7
num_cat=0
split_feature=950 926 489 80 699 841
split_gain=15.472 9.8456 10.76 6.14146 2.04401 1.47233
threshold=1.0000000180025095e-35 1.0000000180025095e-35 1.0000000180025095e-35 1.0000000180025095e-35 1.0000000180025095e-35 1.0000000180025095e-35
decision_type=2 2 2 2 2 2
left_child=1 2 -1 -2 5 -3
right_child=3 4 -4 -5 -6 -7
leaf_value=-0.098300121606141905 -0.12417576277876038 0.0074291218702760287 0.032605516564451945 -0.023260536739628655 0.082927573911308186 0.05198706880585565
leaf_weight=21 19 30 26 36 29 37
leaf_count=21 19 30 26 36 29 37
internal_value=-0.000146111 0.0248492 -0.0278307 -0.0634374 0.0509853 0.033661
internal_weight=198 143 47 55 96 67
internal_count=198 143 47 55 96 67
is_linear=0
shrinkage=0.144767


Tree=8
num_leaves=7
num_cat=0
split_feature=950 249 80 464 1905 561
split_gain=11.777 6.21316 4.71997 4.33955 2.9521 2.89294
threshold=1.0000000180025095e-35 1.0000000180025095e-35 1.0000000180025095e-35 1.0000000180025095e-35 1.0000000180025095e-35 1.0000000180025095e-35
decision_type=2 2 2 2 2 2
left_child=1 3 -2 5 -3 -1
right_child=2 4 -4 -5 -6 -7
leaf_value=0.00041888377057969011 -0.1087554793375206 0.02734503043814876 -0.020164092415652382 0.043893540829778192 0.092427515597437698 -0.065533236758444885
leaf_weight=28 19 50 36 20 22 23
leaf_count=28 19 50 36 20 22 23
internal_value=-0.000245442 0.021546 -0.055479 -0.00848226 0.0506412 -0.0308931
internal_weight=198 143 55 71 72 51
internal_count=198 143 55 71 72 51
is_linear=0
shrinkage=0.144767


Tree=9
num_leaves=8
num_cat=0
split_feature=694 492 1157 80 561 80 841
split_gain=10.8119 4.85062 6.40081 3.58216 2.4317 1.7158 0.654636
threshold=1.0000000180025095e-35 1.0000000180025095e-35 1.0000000180025095e-35 1.0000000180025095e-35 1.0000000180025095e-35 1.0000000180025095e-35 1.0000000180025095e-35
decision_type=2 2 2 2 2 2 2
left_child=4 2 3 -2 -1 -6 -7
right_child=1 -3 -4 -5 5 6 -8
leaf_value=-0.00010544774999632659 -0.061532588081689543 0.08407308243483147 0.058904313060717119 0.012827954792805912 -0.085247030535377064 -0.046481043826377105 -0.0082802803252861497
leaf_weight=29 21 24 33 28 20 22 21
leaf_count=29 21 24 33 28 20 22 21
internal_value=-0.000238771 0.030722 0.0122486 -0.0202999 -0.036039 -0.0513673 -0.030265
internal_weight=198 106 82 49 92 63 43
internal_count=198 106 82 49 92 63 43
is_linear=0
shrinkage=0.144767


Tree=10
num_leaves=8
num_cat=0
split_feature=694 492 1367 841 950 191 888
split_gain=8.25257 3.69932 4.90933 2.54626 1.96411 0.926094 0.00943349
threshold=1.0000000180025095e-35 1.0000000180025095e-35 1.0000000180025095e-35 1.0000000180025095e-35 1.0000000180025095e-35 1.0000000180025095e-35 1.0000000180025095e-35
decision_type=2 2 2 2 2 2 2
left_child=4 2 3 -2 5 -1 -6
right_child=1 -3 -4 -5 6 -7 -8
leaf_value=0.01275915317457269 -0.051039120440673172 0.073314060412356566 0.052395829351015118 0.010868535115728141 -0.033853532831820979 -0.025779654161647278 -0.062696705758468141
leaf_weight=20 22 24 32 28 23 26 23
leaf_count=20 22 24 32 28 23 26 23
internal_value=-0.000328104 0.0267051 0.0105301 -0.0172587 -0.0316199 -0.0087147 -0.0519338
internal_weight=198 106 82 50 92 46 46
internal_count=198 106 82 50 92 46 46
is_linear=0
shrinkage=0.144767


Tree=11
num_leaves=6
num_cat=0
split_feature=694 492 1157 80 366
split_gain=6.27128 2.81798 3.78879 2.43871 1.89146
threshold=1.0000000180025095e-35 1.0000000180025095e-35 1.0000000180025095e-35 1.0000000180025095e-35 1.0000000180025095e-35
decision_type=2 2 2 2 2
left_child=4 2 3 -2 -1
right_child=1 -3 -4 -5 -6
leaf_value=-4.6157136545972336e-05 -0.049959158438195539 0.063931895251275461 0.045024053942260174 0.011277640711190648 -0.043184345857443185
leaf_weight=35 21 24 33 28 57
leaf_count=35 21 24 33 28 57
internal_value=-0.000315091 0.0232333 0.00907111 -0.0158664 -0.0276097
internal_weight=198 106 82 49 92
internal_count=198 106 82 49 92
is_linear=0
shrinkage=0.144767


Tree=12
num_leaves=7
num_cat=0
split_feature=1905 1912 1946 80 1480 544
split_gain=5.37344 3.96564 2.48569 3.10488 0.94731 0.543163
threshold=1.0000000180025095e-35 1.0000000180025095e-35 1.0000000180025095e-35 1.0000000180025095e-35 1.0000000180025095e-35 1.0000000180025095e-35
decision_type=2 2 2 2 2 2
left_child=1 2 3 5 -5 -1
right_child=-2 -3 -4 4 -6 -7
leaf_value=-0.030016527766574659 0.055028925538056682 0.039485625293799897 0.023149615746099753 -0.023577068017340448 0.0062156190173183806 -0.075706353012059677
leaf_weight=19 28 25 21 46 37 22
leaf_count=19 28 25 21 46 37 22
internal_value=-0.000188186 -0.0102787 -0.0197033 -0.0275727 -0.0102319 -0.058814
internal_weight=198 170 145 124 83 41
internal_count=198 170 145 124 83 41
is_linear=0
shrinkage=0.144767


Tree=13
num_leaves=7
num_cat=0
split_feature=492 496 1536 926 727 888
split_gain=3.91362 2.21704 4.45772 2.28705 1.87693 0.767697
threshold=1.0000000180025095e-35 1.0000000180025095e-35 1.0000000180025095e-35 1.0000000180025095e-35 1.0000000180025095e-35 1.0000000180025095e-35
decision_type=2 2 2 2 2 2
left_child=1 2 3 -1 -5 -4
right_child=-2 -3 5 4 -6 -7
leaf_value=-0.052077843216701815 0.046969558265461391 -0.040109613203797696 0.044598170443857152 0.0172163067873395 -0.034277565564734012 0.0056712382975932151
leaf_weight=28 28 34 33 35 21 19
leaf_count=28 28 34 33 35 21 19
internal_value=-0.000133252 -0.00876503 0 -0.0205761 -0.00242134 0.0320147
internal_weight=198 170 136 84 56 52
internal_count=198 170 136 84 56 52
is_linear=0
shrinkage=0.144767


Tree=14
num_leaves=7
num_cat=0
split_feature=492 322 695 727 1088 65
split_gain=2.96185 2.39573 2.75978 2.55224 2.72629 0.981256
threshold=1.0000000180025095e-35 1.0000000180025095e-35 1.0000000180025095e-35 1.0000000180025095e-35 1.0000000180025095e-35 1.0000000180025095e-35
decision_type=2 2 2 2 2 2
left_child=1 2 -1 4 -4 -6
right_child=-2 -3 3 -5 5 -7
leaf_value=-0.031772792089323036 0.040857462949682281 -0.047120923580766826 0.055160634742863465 -0.029962501964949487 0.016433763551758681 -0.02158200587996352
leaf_weight=39 28 24 31 21 36 19
leaf_count=39 28 24 31 21 36 19
internal_value=-0.000101209 -0.00762824 -9.21038e-05 0.0117813 0.0229845 0.00236578
internal_weight=198 170 146 107 86 55
internal_count=198 170 146 107 86 55
is_linear=0
shrinkage=0.144767


Tree=15
num_leaves=7
num_cat=0
split_feature=1905 492 721 694 1157 119
split_gain=2.64003 2.99769 1.71986 2.28204 1.48345 0.914345
threshold=1.0000000180025095e-35 1.0000000180025095e-35 1.0000000180025095e-35 1.0000000180025095e-35 1.0000000180025095e-35 1.0000000180025095e-35
decision_type=2 2 2 2 2 2
left_child=1 2 3 5 -5 -1
right_child=-2 -3 -4 4 -6 -7
leaf_value=-0.009667238812812947 0.038534255438543996 0.034214477481646667 -0.045040184684371272 -0.0042604749973412697 0.042558376235545557 -0.047627779627930127
leaf_weight=38 28 27 30 33 20 22
leaf_count=38 28 27 30 33 20 22
internal_value=-0.000127328 -0.00724064 -0.0158265 -0.00682053 0.0143086 -0.0257072
internal_weight=198 170 143 113 53 60
internal_count=198 170 143 113 53 60
is_linear=0
shrinkage=0.144767


Tree=16
num_leaves=6
num_cat=0
split_feature=1905 492 1928 80 119
split_gain=1.99725 2.27459 1.34725 1.62494 1.20176
threshold=1.0000000180025095e-35 1.0000000180025095e-35 1.0000000180025095e-35 1.0000000180025095e-35 1.0000000180025095e-35
decision_type=2 2 2 2 2
left_child=1 2 3 -1 -4
right_child=-2 -3 4 -5 -6
leaf_value=-0.045809297193515876 0.033519837465691794 0.029778797782588209 0.019378641869115514 -0.005048905826253198 -0.020368450891067293
leaf_weight=39 28 27 35 45 24
leaf_count=39 28 27 35 45 24
internal_value=-8.91483e-05 -0.00629419 -0.0137902 -0.0252637 0.0025506
internal_weight=198 170 143 84 59
internal_count=198 170 143 84 59
is_linear=0
shrinkage=0.144767


Tree=17
num_leaves=7
num_cat=0
split_feature=718 1905 926 716 544 1019
split_gain=1.78643 1.53641 2.2817 1.48275 1.96241 0.183149
threshold=1.0000000180025095e-35 1.0000000180025095e-35 1.0000000180025095e-35 1.0000000180025095e-35 1.0000000180025095e-35 1.0000000180025095e-35
decision_type=2 2 2 2 2 2
left_child=1 2 -1 4 5 -4
right_child=-2 -3 3 -5 -6 -7
leaf_value=-0.03150906187366001 -0.038031256318181043 0.03454249134537915 0.04821807547783058 -0.021618914895661527 -0.0053012774146267948 0.021980608059178435
leaf_weight=36 20 27 21 23 42 29
leaf_count=36 20 27 21 23 42 29
internal_value=-3.02983e-05 0.00467316 -0.0010842 0.00879111 0.0171495 0.0357273
internal_weight=198 178 151 115 92 50
internal_count=198 178 151 115 92 50
is_linear=0
shrinkage=0.144767


Tree=18
num_leaves=7
num_cat=0
split_feature=721 694 314 2009 926 119
split_gain=1.45373 2.03536 1.91909 1.65762 0.876983 1.99258
threshold=1.0000000180025095e-35 1.0000000180025095e-35 1.0000000180025095e-35 1.0000000180025095e-35 1.0000000180025095e-35 1.0000000180025095e-35
decision_type=2 2 2 2 2 2
left_child=1 4 3 -3 -1 -6
right_child=-2 2 -4 -5 5 -7
leaf_value=-0.034058959412274527 -0.026478603417071599 0.047815368535439211 -0.009341921962746769 0 0.028620238332588664 -0.027918086079714532
leaf_weight=23 33 44 31 21 22 24
leaf_count=23 33 44 31 21 22 24
internal_value=-7.14153e-06 0.00551879 0.0190073 0.032742 -0.0128733 -0.00021168
internal_weight=198 165 96 65 69 46
internal_count=198 165 96 65 69 46
is_linear=0
shrinkage=0.144767


Tree=19
num_leaves=7
num_cat=0
split_feature=1457 694 1856 1970 465 80
split_gain=1.16302 1.66824 1.44532 1.16913 0.721844 0.270853
threshold=1.0000000180025095e-35 1.0000000180025095e-35 1.0000000180025095e-35 1.0000000180025095e-35 1.0000000180025095e-35 1.0000000180025095e-35
decision_type=2 2 2 2 2 2
left_child=1 4 3 -3 5 -1
right_child=-2 2 -4 -5 -6 -7
leaf_value=-0.020543387381906336 0.025521854267042801 -0.0011231380640408606 -0.014943267885403393 0.03842896370533485 -0.039686213542805694 0
leaf_weight=22 28 25 32 33 24 34
leaf_count=22 28 25 32 33 24 34
internal_value=-9.11572e-05 -0.00485768 0.00833906 0.0217467 -0.0197915 -0.00913649
internal_weight=198 170 90 58 80 56
internal_count=198 170 90 58 80 56
is_linear=0
shrinkage=0.144767


Tree=20
num_leaves=8
num_cat=0
split_feature=721 1366 1928 216 1840 80 1039
split_gain=1.0472 1.43882 2.08783 0.909734 0.795019 0.936308 0.0558656
threshold=1.0000000180025095e-35 1.0000000180025095e-35 1.0000000180025095e-35 1.0000000180025095e-35 1.0000000180025095e-35 1.0000000180025095e-35 1.0000000180025095e-35
decision_type=2 2 2 2 2 2 2
left_child=1 2 -1 -4 5 6 -3
right_child=-2 4 3 -5 -6 -7 -8
leaf_value=-0.038300627021809593 -0.022624407737930088 -0.0088319144313368878 0.029459298099969396 -0.0080052200682818198 0.041389737121364199 0.029778087511202936 6.4573077668137377e-05
leaf_weight=29 33 20 21 27 19 24 25
leaf_count=29 33 20 21 27 19 24 25
internal_value=-0.000143034 0.00452763 -0.00949816 0.00864725 0.017009 0.0083968 -0.00363169
internal_weight=198 165 77 48 88 69 45
internal_count=198 165 77 48 88 69 45
is_linear=0
shrinkage=0.144767


Tree=21
num_leaves=7
num_cat=0
split_feature=718 926 249 716 1928 1816
split_gain=1.17736 0.899002 2.46438 1.07707 0.855201 0.29818
threshold=1.0000000180025095e-35 1.0000000180025095e-35 1.0000000180025095e-35 1.0000000180025095e-35 1.0000000180025095e-35 1.0000000180025095e-35
decision_type=2 2 2 2 2 2
left_child=1 2 -1 4 5 -3
right_child=-2 3 -4 -5 -6 -7
leaf_value=-0.043683969836894543 -0.030923768297865129 0.015708851152372191 0.021058407249150864 -0.015574668630460243 0.033085560353682805 -0.0018469776556266234
leaf_weight=23 20 32 20 25 37 41
leaf_count=23 20 32 20 25 37 41
internal_value=-5.03628e-05 0.0037426 -0.0135874 0.00964748 0.0158992 0.00581544
internal_weight=198 178 43 135 110 73
internal_count=198 178 43 135 110 73
is_linear=0
shrinkage=0.144767


Tree=22
num_leaves=7
num_cat=0
split_feature=1171 926 652 1236 1366 401
split_gain=0.845034 1.22134 0.614717 1.03567 1.49894 0.384463
threshold=1.0000000180025095e-35 1.0000000180025095e-35 1.0000000180025095e-35 1.0000000180025095e-35 1.0000000180025095e-35 1.0000000180025095e-35
decision_type=2 2 2 2 2 2
left_child=1 -1 3 4 -3 -5
right_child=-2 2 -4 5 -6 -7
leaf_value=-0.026448522784880527 0.024067514793247129 0 -0.018521030071782678 0.0024903105541386949 0.04639744324083498 -0.019550425038303433
leaf_weight=36 23 33 21 39 23 23
leaf_count=36 23 33 21 39 23 23
internal_value=-9.33412e-05 -0.00379403 0.00233396 0.0066597 0.0205089 -0.00580966
internal_weight=198 175 139 118 56 62
internal_count=198 175 139 118 56 62
is_linear=0
shrinkage=0.144767


Tree=23
num_leaves=6
num_cat=0
split_feature=1163 926 950 524 1181
split_gain=0.826893 1.34039 1.0182 0.589945 0.427989
threshold=1.0000000180025095e-35 1.0000000180025095e-35 1.0000000180025095e-35 1.0000000180025095e-35 1.0000000180025095e-35
decision_type=2 2 2 2 2
left_child=1 -1 3 4 -3
right_child=-2 2 -4 -5 -6
leaf_value=-0.029728755358521403 0.022395967858617808 0.027295359602195524 -0.014002004709868451 -0.008987150961043907 0.0038077284582099685
leaf_weight=31 26 38 49 20 34
leaf_count=31 26 38 49 20 34
internal_value=-4.08525e-05 -0.00393278 0.00207165 0.0111046 0.017198
internal_weight=198 172 141 92 72
internal_count=198 172 141 92 72
is_linear=0
shrinkage=0.144767


Tree=24
num_leaves=8
num_cat=0
split_feature=80 555 1535 1039 699 1488 1097
split_gain=0.935527 1.02642 0.913223 0.560204 0.499009 0.283261 0.239838
threshold=1.0000000180025095e-35 1.0000000180025095e-35 1.0000000180025095e-35 1.0000000180025095e-35 1.0000000180025095e-35 1.0000000180025095e-35 1.0000000180025095e-35
decision_type=2 2 2 2 2 2 2
left_child=2 3 4 5 -1 -2 -4
right_child=1 -3 6 -5 -6 -7 -8
leaf_value=-0.0092133391449801434 0.015901407020744981 0.029286706296432929 -0.011357819484108671 -0.01858533039130883 0.020588735999086952 -0.0037141513551671749 -0.035245604038378293
leaf_weight=21 31 32 29 22 19 23 21
leaf_count=21 31 32 29 22 19 23 21
internal_value=-1.31793e-05 0.00881814 -0.0108488 -0.000271773 0.00476854 0.00731641 -0.0234073
internal_weight=198 108 90 76 40 54 50
internal_count=198 108 90 76 40 54 50
is_linear=0
shrinkage=0.144767


Tree=25
num_leaves=8
num_cat=0
split_feature=80 667 950 1019 1535 1236 1568
split_gain=0.706859 1.10074 0.999731 0.581325 1.40672 0.439276 0.791076
threshold=1.0000000180025095e-35 1.0000000180025095e-35 1.0000000180025095e-35 1.0000000180025095e-35 1.0000000180025095e-35 1.0000000180025095e-35 1.0000000180025095e-35
decision_type=2 2 2 2 2 2 2
left_child=2 3 5 -2 -5 6 -1
right_child=1 -3 -4 4 -6 -7 -8
leaf_value=-0.029123446449238536 0 -0.018974873616786441 -0.036378521670362041 -0.0018488673360766016 0.042610421139327809 0.012974994460474296 0.0067366012934340098
leaf_weight=20 31 22 19 24 31 26 25
leaf_count=20 31 22 19 24 31 26 25
internal_value=-5.92306e-05 0.00759929 -0.00949382 0.0151391 0.0236831 -0.00068512 -0.0094869
internal_weight=198 108 90 86 55 71 45
internal_count=198 108 90 86 55 71 45
is_linear=0
shrinkage=0.144767


Tree=26
num_leaves=7
num_cat=0
split_feature=1457 1917 1039 1325 1928 561
split_gain=0.917907 0.983963 0.72433 0.912525 1.34362 0.635639
threshold=1.0000000180025095e-35 1.0000000180025095e-35 1.0000000180025095e-35 1.0000000180025095e-35 1.0000000180025095e-35 1.0000000180025095e-35
decision_type=2 2 2 2 2 2
left_child=1 -1 3 4 -3 -4
right_child=-2 2 5 -5 -6 -7
leaf_value=-0.025652765522085164 0.022612874204477763 0 0.0003971525407981625 -0.0085971529644806137 0.045405586023318581 -0.031030486573501704
leaf_weight=33 28 32 30 34 22 19
leaf_count=33 28 32 30 34 22 19
internal_value=-0.000124872 -0.00437352 0.00101528 0.00895713 0.0203605 -0.0123946
internal_weight=198 170 137 88 54 49
internal_count=198 170 137 88 54 49
is_linear=0
shrinkage=0.144767


Tree=27
num_leaves=7
num_cat=0
split_feature=1171 492 695 1236 667 1245
split_gain=0.808327 0.708121 0.739246 1.11343 0.844022 0.310917
threshold=1.0000000180025095e-35 1.0000000180025095e-35 1.0000000180025095e-35 1.0000000180025095e-35 1.0000000180025095e-35 1.0000000180025095e-35
decision_type=2 2 2 2 2 2
left_child=1 2 -1 4 5 -4
right_child=-2 -3 3 -5 -6 -7
leaf_value=-0.027765580874720867 0.023563599718924782 0.016369494627404793 0.021071979978669528 -0.022341816313130602 -0.017495917894449441 0
leaf_weight=28 23 27 45 37 19 19
leaf_count=28 23 27 45 37 19 19
internal_value=-6.41108e-05 -0.00368706 -0.00779464 -0.00231828 0.00677597 0.0148779
internal_weight=198 175 148 120 83 64
internal_count=198 175 148 120 83 64
is_linear=0
shrinkage=0.144767


Tree=28
num_leaves=8
num_cat=0
split_feature=718 184 14 667 1866 708 2009
split_gain=0.687619 0.678284 0.512763 0.494691 0.914825 0.258563 0.633347
threshold=1.0000000180025095e-35 1.0000000180025095e-35 1.0000000180025095e-35 1.0000000180025095e-35 1.0000000180025095e-35 1.0000000180025095e-35 1.0000000180025095e-35
decision_type=2 2 2 2 2 2 2
left_child=1 3 -3 4 5 -1 -7
right_child=-2 2 -4 -5 -6 6 -8
leaf_value=-0.0051047842493843693 -0.023684147847101458 -0.027470662508964624 0.0015605366724594151 -0.010578724129637467 0.035964732971535213 0.020457892531239755 -0.0095036601136405351
leaf_weight=32 20 20 24 21 23 39 19
leaf_count=32 20 20 24 21 23 39 19
internal_value=-6.09963e-05 0.00280562 -0.012 0.00803359 0.0119247 0.00447465 0.0102048
internal_weight=198 178 44 134 113 90 58
internal_count=198 178 44 134 113 90 58
is_linear=0
shrinkage=0.144767


Tree=29
num_leaves=7
num_cat=0
split_feature=1171 926 1114 1912 716 1645
split_gain=0.641504 0.777456 0.463323 0.349038 0.256161 0.197742
threshold=1.0000000180025095e-35 1.0000000180025095e-35 1.0000000180025095e-35 1.0000000180025095e-35 1.0000000180025095e-35 1.0000000180025095e-35
decision_type=2 2 2 2 2 2
left_child=1 -1 3 4 5 -3
right_child=-2 2 -4 -5 -6 -7
leaf_value=-0.021429067431342975 0.02091778429791245 0.013419504987771095 0.019454834142242326 -0.017343139736576162 -0.0097816030498511924 -0.0009169802690457378
leaf_weight=36 23 36 22 22 25 34
leaf_count=36 23 36 22 22 25 34
internal_value=-0.00011377 -0.00335477 0.00150205 -0.00206403 0.00163432 0.00633674
internal_weight=198 175 139 117 95 70
internal_count=198 175 139 117 95 70
is_linear=0
shrinkage=0.144767


Tree=30
num_leaves=9
num_cat=0
split_feature=718 1171 1114 555 80 694 1181 1488
split_gain=0.531988 0.621451 0.308289 0.383453 0.875358 0.511827 0.520349 0.0658271
threshold=1.0000000180025095e-35 1.0000000180025095e-35 1.0000000180025095e-35 1.0000000180025095e-35 1.0000000180025095e-35 1.0000000180025095e-35 1.0000000180025095e-35 1.0000000180025095e-35
decision_type=2 2 2 2 2 2 2 2
left_child=1 2 3 5 -5 7 -7 -1
right_child=-2 -3 -4 4 -6 6 -8 -9
leaf_value=-0.010241800859067222 -0.020879058513356519 0.024076732144416121 0.012858471205908209 -0.014738826507941725 0.022461276703553919 0.014320394310928814 -0.01491690432116209 -0.028177551522745013
leaf_weight=21 20 21 25 20 27 25 20 19
leaf_count=21 20 21 25 20 27 25 20 19
internal_value=-8.75042e-05 0.00241771 -0.000722469 -0.00373984 0.00614616 -0.00954557 0.000623467 -0.0208398
internal_weight=198 178 157 132 47 85 45 40
internal_count=198 178 157 132 47 85 45 40
is_linear=0
shrinkage=0.144767


Tree=31
num_leaves=7
num_cat=0
split_feature=1791 1171 1845 14 841 1905
split_gain=0.487454 0.503305 0.385161 0.939659 1.378 0.207366
threshold=1.0000000180025095e-35 1.0000000180025095e-35 1.0000000180025095e-35 1.0000000180025095e-35 1.0000000180025095e-35 1.0000000180025095e-35
decision_type=2 2 2 2 2 2
left_child=1 2 3 4 -1 -6
right_child=-2 -3 -4 -5 5 -7
leaf_value=-0.03297372301854061 0.020025070649904858 0.015686391390926535 0.010335986409041653 0.0097082577346760159 -0.0063118172751146671 0.011705090384238876
leaf_weight=48 19 23 22 37 30 19
leaf_count=48 19 23 22 37 30 19
internal_value=-0.000109376 -0.00270834 -0.00585166 -0.00888816 -0.0163412 0.000426767
internal_weight=198 179 156 134 97 49
internal_count=198 179 156 134 97 49
is_linear=0
shrinkage=0.144767


Tree=32
num_leaves=7
num_cat=0
split_feature=1163 1457 1114 1410 407 1928
split_gain=0.45515 0.645869 0.767959 0.689539 0.380258 1.11068
threshold=1.0000000180025095e-35 1.0000000180025095e-35 1.0000000180025095e-35 1.0000000180025095e-35 1.0000000180025095e-35 1.0000000180025095e-35
decision_type=2 2 2 2 2 2
left_child=1 2 3 4 5 -1
right_child=-2 -3 -4 -5 -6 -7
leaf_value=-0.048626915624000712 0.016661668244712526 0.015863485166958076 0.014392307373139502 0.011143039150873004 -0.004001258889584444 -0.0076611326984993098
leaf_weight=21 26 28 25 19 38 41
leaf_count=21 26 28 25 19 38 41
internal_value=0 -0.00287378 -0.00696744 -0.0119376 -0.0167985 -0.023643
internal_weight=198 172 144 119 100 62
internal_count=198 172 144 119 100 62
is_linear=0
shrinkage=0.144767


Tree=33
num_leaves=8
num_cat=0
split_feature=718 184 1911 491 119 314 841
split_gain=0.405963 0.489452 0.380585 0.4034 0.402057 0.0879093 0.0669876
threshold=1.0000000180025095e-35 1.0000000180025095e-35 1.0000000180025095e-35 1.0000000180025095e-35 1.0000000180025095e-35 1.0000000180025095e-35 1.0000000180025095e-35
decision_type=2 2 2 2 2 2 2
left_child=1 2 3 -1 -5 -3 -6
right_child=-2 5 -4 4 6 -7 -8
leaf_value=-0.0046860417351304575 -0.018110459998013008 -0.017320655759552685 -0.010402097520517574 0.023444793739032282 0.0090002520224533693 -0.0026279962520667248 -0.0012326337040036016
leaf_weight=26 20 19 19 47 19 25 23
leaf_count=26 20 19 19 47 19 25 23
internal_value=0 0.0022476 0.00671035 0.00997462 0.0145727 -0.0102948 0.00308632
internal_weight=198 178 134 115 89 44 42
internal_count=198 178 134 115 89 44 42
is_linear=0
shrinkage=0.144767


Tree=34
num_leaves=8
num_cat=0
split_feature=1791 1171 807 1039 407 524 1097
split_gain=0.395011 0.37548 0.389642 0.244867 0.542571 0.499101 0.0360256
threshold=1.0000000180025095e-35 1.0000000180025095e-35 1.0000000180025095e-35 1.0000000180025095e-35 1.0000000180025095e-35 1.0000000180025095e-35 1.0000000180025095e-35
decision_type=2 2 2 2 2 2 2
left_child=1 2 -1 5 -5 6 -4
right_child=-2 -3 3 4 -6 -7 -8
leaf_value=-0.023084604508580627 0.018069449488894971 0.013449987239136743 0.015032073468378839 -0.025998757345665331 0.0018820793440530684 -0.010553561695038773 0.0040456191908604189
leaf_weight=19 19 23 30 21 32 32 22
leaf_count=19 19 23 30 21 32 32 22
internal_value=-4.3043e-05 -0.00239728 -0.00512818 -0.00197689 -0.00950911 0.00262881 0.0113841
internal_weight=198 179 156 137 53 84 52
internal_count=198 179 156 137 53 84 52
is_linear=0
shrinkage=0.144767


Tree=35
num_leaves=6
num_cat=0
split_feature=1866 1163 1171 191 407
split_gain=0.369205 0.510656 0.370387 0.346379 0.0590284
threshold=1.0000000180025095e-35 1.0000000180025095e-35 1.0000000180025095e-35 1.0000000180025095e-35 1.0000000180025095e-35
decision_type=2 2 2 2 2
left_child=1 2 3 -1 -5
right_child=-2 -3 -4 4 -6
leaf_value=-0.019797934373400831 0.013851358099630647 0.016017141463360425 0.010010091500797217 -0.0069188655366733201 1.7647349245871354e-05
leaf_weight=41 30 22 21 42 42
leaf_count=41 30 22 21 42 42
internal_value=0 -0.00283697 -0.00614246 -0.00925215 -0.00325663
internal_weight=198 168 146 125 84
internal_count=198 168 146 125 84
is_linear=0
shrinkage=0.144767


Tree=36
num_leaves=6
num_cat=0
split_feature=1160 650 496 2009 1039
split_gain=0.430196 0.492402 0.361084 0.481611 0.375813
threshold=1.0000000180025095e-35 1.0000000180025095e-35 1.0000000180025095e-35 1.0000000180025095e-35 1.0000000180025095e-35
decision_type=2 2 2 2 2
left_child=1 -1 3 4 -3
right_child=-2 2 -4 -5 -6
leaf_value=-0.016009415504904638 -0.017010322212699196 0.019815317555515275 -0.0053752465817905161 -0.0072309060429220015 -0.00090225477772917231
leaf_weight=22 24 68 40 23 21
leaf_count=22 24 68 40 23 21
internal_value=0 0.00255893 0.00569591 0.00992996 0.0147618
internal_weight=198 174 152 112 89
internal_count=198 174 152 112 89
is_linear=0
shrinkage=0.144767


Tree=37
num_leaves=7
num_cat=0
split_feature=1791 492 420 1163 1171 119
split_gain=0.313016 0.42633 0.428442 0.534899 0.475058 0.0894091
threshold=1.0000000180025095e-35 1.0000000180025095e-35 1.0000000180025095e-35 1.0000000180025095e-35 1.0000000180025095e-35 1.0000000180025095e-35
decision_type=2 2 2 2 2 2
left_child=1 2 3 4 5 -1
right_child=-2 -3 -4 -5 -6 -7
leaf_value=-0.0059537513634166511 0.016068590431255796 0.013091805154670158 -0.024130622458293206 0.017370930989596665 0.011127885644946572 -0.017081610962124447
leaf_weight=54 19 28 19 21 22 35
leaf_count=54 19 28 19 21 22 35
internal_value=-3.86158e-05 -0.00214908 -0.00536513 -0.00195912 -0.00623786 -0.0110655
internal_weight=198 179 151 132 111 89
internal_count=198 179 151 132 111 89
is_linear=0
shrinkage=0.144767


Tree=38
num_leaves=8
num_cat=0
split_feature=407 1108 1199 1163 1535 233 780
split_gain=0.281398 1.00834 0.615017 0.206704 0.479504 0.331747 0.0689983
threshold=1.0000000180025095e-35 1.0000000180025095e-35 1.0000000180025095e-35 1.0000000180025095e-35 1.0000000180025095e-35 1.0000000180025095e-35 1.0000000180025095e-35
decision_type=2 2 2 2 2 2 2
left_child=3 -2 -3 4 5 6 -1
right_child=1 2 -4 -5 -6 -7 -8
leaf_value=-0.011875709035427869 0.029431086755226578 -0.018757190526951691 0.012369245147963993 0.0067675638782740142 -0.02614937078686062 0.01250395413441527 -0.0012064855428570726
leaf_weight=31 24 27 20 24 19 21 32
leaf_count=31 24 27 20 24 19 21 32
internal_value=0 0.00701102 -0.00501311 -0.00416025 -0.00709343 -0.0016752 -0.00719175
internal_weight=198 71 47 127 103 84 63
internal_count=198 71 47 127 103 84 63
is_linear=0
shrinkage=0.144767


Tree=39
num_leaves=7
num_cat=0
split_feature=1457 807 420 716 1840 1039
split_gain=0.282122 0.731399 0.259257 0.192917 0.2759 0.0307016
threshold=1.0000000180025095e-35 1.0000000180025095e-35 1.0000000180025095e-35 1.0000000180025095e-35 1.0000000180025095e-35 1.0000000180025095e-35
decision_type=2 2 2 2 2 2
left_child=1 -1 3 4 5 -3
right_child=-2 2 -4 -5 -6 -7
leaf_value=-0.02425227763797539 0.012598428357923261 0.0048146298535636494 -0.0091901493205304198 -0.0060119328681565659 0.021105685712843162 -0.00060741411490701372
leaf_weight=24 28 46 32 22 22 24
leaf_count=24 28 46 32 22 22 24
internal_value=0 -0.00236498 0.00148288 0.00488243 0.00789227 0.00262986
internal_weight=198 170 146 114 92 70
internal_count=198 170 146 114 92 70
is_linear=0
shrinkage=0.144767


Tree=40
num_leaves=8
num_cat=0
split_feature=1791 492 1181 667 80 843 1928
split_gain=0.26551 0.325702 0.357729 0.306797 0.445459 0.308805 0.0709919
threshold=1.0000000180025095e-35 1.0000000180025095e-35 1.0000000180025095e-35 1.0000000180025095e-35 1.0000000180025095e-35 1.0000000180025095e-35 1.0000000180025095e-35
decision_type=2 2 2 2 2 2 2
left_child=1 2 3 4 6 -6 -1
right_child=-2 -3 -4 -5 5 -7 -8
leaf_value=-0.0094555716698005339 0.014869036003520407 0.011373564561468699 -0.016314303870780748 -0.015847625419635046 0.026037731013499384 0.00065128859585361512 0.00010639489215197088
leaf_weight=32 19 28 38 19 19 23 20
leaf_count=32 19 28 38 19 19 23 20
internal_value=0 -0.00191413 -0.00474028 -0.000272168 0.0030019 0.013766 -0.00547825
internal_weight=198 179 151 113 94 42 52
internal_count=198 179 151 113 94 42 52
is_linear=0
shrinkage=0.144767


Tree=41
num_leaves=8
num_cat=0
split_feature=1160 1911 1039 1443 119 950 80
split_gain=0.331141 0.217836 0.402207 0.360656 0.738975 1.11048 0.0641896
threshold=1.0000000180025095e-35 1.0000000180025095e-35 1.0000000180025095e-35 1.0000000180025095e-35 1.0000000180025095e-35 1.0000000180025095e-35 1.0000000180025095e-35
decision_type=2 2 2 2 2 2 2
left_child=1 2 3 4 5 -1 -4
right_child=-2 -3 6 -5 -6 -7 -8
leaf_value=0.047878531085228125 -0.014903728880484433 -0.0099637102889024512 0 -0.0059125165903826677 0 0 -0.010741357498678642
leaf_weight=21 24 22 31 20 39 19 22
leaf_count=21 24 22 31 20 39 19 22
internal_value=0 0.00226566 0.00438105 0.00982006 0.0142151 0.0272693 -0.00526493
internal_weight=198 174 152 99 79 40 53
internal_count=198 174 152 99 79 40 53
is_linear=0
shrinkage=0.144767


Tree=42
num_leaves=7
num_cat=0
split_feature=407 65 1928 694 694 694
split_gain=0.24288 0.705345 0.42487 0.169286 0.167492 0.136668
threshold=1.0000000180025095e-35 1.0000000180025095e-35 1.0000000180025095e-35 1.0000000180025095e-35 1.0000000180025095e-35 1.0000000180025095e-35
decision_type=2 2 2 2 2 2
left_child=2 -2 3 -1 -4 -3
right_child=1 5 4 -5 -6 -7
leaf_value=-0.023480397496895407 0.025284882965324912 0.003760308554414637 -0.0034582388616543258 -0.0050749091228146897 0.0095011614519592124 -0.010508691113624168
leaf_weight=20 24 22 36 33 38 25
leaf_count=20 24 22 36 33 38 25
internal_value=0 0.00654393 -0.00383567 -0.0134425 0.0029528 -0.00345909
internal_weight=198 71 127 53 74 47
internal_count=198 71 127 53 74 47
is_linear=0
shrinkage=0.144767


Tree=43
num_leaves=7
num_cat=0
split_feature=1171 407 1181 1465 1366 1097
split_gain=0.19803 0.359254 0.336444 0.316901 0.51288 0.198379
threshold=1.0000000180025095e-35 1.0000000180025095e-35 1.0000000180025095e-35 1.0000000180025095e-35 1.0000000180025095e-35 1.0000000180025095e-35
decision_type=2 2 2 2 2 2
left_child=1 3 -3 4 -1 -6
right_child=-2 2 -4 -5 5 -7
leaf_value=-0.028016231442045094 0.011674869985462261 0.015762548612935561 -0.0035422214144766729 0.0035047650978009288 0.0057920393048722409 -0.011443666960794857
leaf_weight=25 23 34 33 35 24 24
leaf_count=25 23 34 33 35 24 24
internal_value=0 -0.00181356 0.00612618 -0.00702303 -0.0123715 -0.00245684
internal_weight=198 175 67 108 73 48
internal_count=198 175 67 108 73 48
is_linear=0
shrinkage=0.144767


Tree=44
num_leaves=6
num_cat=0
split_feature=1457 1917 184 1325 489
split_gain=0.218435 0.335382 0.277414 0.450839 0.335218
threshold=1.0000000180025095e-35 1.0000000180025095e-35 1.0000000180025095e-35 1.0000000180025095e-35 1.0000000180025095e-35
decision_type=2 2 2 2 2
left_child=1 -1 3 4 -3
right_child=-2 2 -4 -5 -6
leaf_value=-0.014536632010166537 0.011090456597949765 0.00091893359714184783 -0.0088289991986755037 -0.006408210943032659 0.022974668759336243
leaf_weight=33 28 31 38 38 30
leaf_count=33 28 31 38 38 30
internal_value=0 -0.00207633 0.000986119 0.00518149 0.0127944
internal_weight=198 170 137 99 61
internal_count=198 170 137 99 61
is_linear=0
shrinkage=0.144767


end of trees

feature_importances:
Column_80=14
Column_492=12
Column_694=11
Column_926=11
Column_1171=9
Column_1928=8
Column_1039=7
Column_119=6
Column_407=6
Column_950=6
Column_1366=6
Column_1905=6
Column_489=5
Column_716=5
Column_718=5
Column_841=5
Column_1163=5
Column_1457=5
Column_1535=5
Column_191=4
Column_496=4
Column_667=4
Column_721=4
Column_1157=4
Column_1181=4
Column_1791=4
Column_184=3
Column_420=3
Column_465=3
Column_561=3
Column_695=3
Column_727=3
Column_1097=3
Column_1114=3
Column_1236=3
Column_1645=3
Column_2009=3
Column_14=2
Column_65=2
Column_249=2
Column_314=2
Column_366=2
Column_524=2
Column_544=2
Column_555=2
Column_699=2
Column_807=2
Column_888=2
Column_1019=2
Column_1160=2
Column_1199=2
Column_1325=2
Column_1488=2
Column_1840=2
Column_1856=2
Column_1866=2
Column_1911=2
Column_1912=2
Column_1917=2
Column_1923=2
Column_1970=2
Column_216=1
Column_233=1
Column_322=1
Column_401=1
Column_458=1
Column_464=1
Column_491=1
Column_650=1
Column_652=1
Column_708=1
Column_739=1
Column_780=1
Column_843=1
Column_1088=1
Column_1108=1
Column_1245=1
Column_1357=1
Column_1367=1
Column_1405=1
Column_1410=1
Column_1443=1
Column_1465=1
Column_1480=1
Column_1536=1
Column_1568=1
Column_1683=1
Column_1816=1
Column_1845=1
Column_1946=1

parameters:
[boosting: gbdt]
[objective: regression]
[metric: l2]
[tree_learner: serial]
[device_type: cpu]
[data_sample_strategy: bagging]
[data: ]
[valid: ]
[num_iterations: 2182]
[learning_rate: 0.144767]
[num_leaves: 87]
[num_threads: 2]
[seed: 42]
[deterministic: 0]
[force_col_wise: 0]
[force_row_wise: 0]
[histogram_pool_size: -1]
[max_depth: 12]
[min_data_in_leaf: 19]
[min_sum_hessian_in_leaf: 0.001]
[bagging_fraction: 0.672541]
[pos_bagging_fraction: 1]
[neg_bagging_fraction: 1]
[bagging_freq: 0]
[bagging_seed: 400]
[bagging_by_query: 0]
[feature_fraction: 0.513514]
[feature_fraction_bynode: 1]
[feature_fraction_seed: 30056]
[extra_trees: 0]
[extra_seed: 12879]
[early_stopping_round: 0]
[early_stopping_min_delta: 0]
[first_metric_only: 0]
[max_delta_step: 0]
[lambda_l1: 0.191849]
[lambda_l2: 3.14964]
[linear_lambda: 0]
[min_gain_to_split: 0.00454945]
[drop_rate: 0.1]
[max_drop: 50]
[skip_drop: 0.5]
[xgboost_dart_mode: 0]
[uniform_drop: 0]
[drop_seed: 17869]
[top_rate: 0.2]
[other_rate: 0.1]
[min_data_per_group: 100]
[max_cat_threshold: 32]
[cat_l2: 10]
[cat_smooth: 10]
[max_cat_to_onehot: 4]
[top_k: 20]
[monotone_constraints: ]
[monotone_constraints_method: basic]
[monotone_penalty: 0]
[feature_contri: ]
[forcedsplits_filename: ]
[refit_decay_rate: 0.9]
[cegb_tradeoff: 1]
[cegb_penalty_split: 0]
[cegb_penalty_feature_lazy: ]
[cegb_penalty_feature_coupled: ]
[path_smooth: 0]
[interaction_constraints: ]
[verbosity: -1]
[saved_feature_importance_type: 0]
[use_quantized_grad: 0]
[num_grad_quant_bins: 4]
[quant_train_renew_leaf: 0]
[stochastic_rounding: 1]
[linear_tree: 0]
[max_bin: 255]
[max_bin_by_feature: ]
[min_data_in_bin: 3]
[bin_construct_sample_cnt: 200000]
[data_random_seed: 175]
[is_enable_sparse: 1]
[enable_bundle: 1]
[use_missing: 1]
[zero_as_missing: 0]
[feature_pre_filter: 1]
[pre_partition: 0]
[two_round: 0]
[header: 0]
[label_column: ]
[weight_column: ]
[group_column: ]
[ignore_column: ]
[categorical_feature: ]
[forcedbins_filename: ]
[precise_float_parser: 0]
[parser_config_file: ]
[objective_seed: 16083]
[num_class: 1]
[is_unbalance: 0]
[scale_pos_weight: 1]
[sigmoid: 1]
[boost_from_average: 1]
[reg_sqrt: 0]
[alpha: 0.9]
[fair_c: 1]
[poisson_max_delta_step: 0.7]
[tweedie_variance_power: 1.5]
[lambdarank_truncation_level: 30]
[lambdarank_norm: 1]
[label_gain: ]
[lambdarank_position_bias_regularization: 0]
[eval_at: ]
[multi_error_top_k: 1]
[auc_mu_weights: ]
[num_machines: 1]
[local_listen_port: 12400]
[time_out: 120]
[machine_list_filename: ]
[machines: ]
[gpu_platform_id: -1]
[gpu_device_id: -1]
[gpu_use_dp: 0]
[num_gpu: 1]

end of parameters

pandas_categorical:null
