tree
version=v4
num_class=1
num_tree_per_iteration=1
label_index=0
max_feature_idx=2047
objective=regression
feature_names=Column_0 Column_1 Column_2 Column_3 Column_4 Column_5 Column_6 Column_7 Column_8 Column_9 Column_10 Column_11 Column_12 Column_13 Column_14 Column_15 Column_16 Column_17 Column_18 Column_19 Column_20 Column_21 Column_22 Column_23 Column_24 Column_25 Column_26 Column_27 Column_28 Column_29 Column_30 Column_31 Column_32 Column_33 Column_34 Column_35 Column_36 Column_37 Column_38 Column_39 Column_40 Column_41 Column_42 Column_43 Column_44 Column_45 Column_46 Column_47 Column_48 Column_49 Column_50 Column_51 Column_52 Column_53 Column_54 Column_55 Column_56 Column_57 Column_58 Column_59 Column_60 Column_61 Column_62 Column_63 Column_64 Column_65 Column_66 Column_67 Column_68 Column_69 Column_70 Column_71 Column_72 Column_73 Column_74 Column_75 Column_76 Column_77 Column_78 Column_79 Column_80 Column_81 Column_82 Column_83 Column_84 Column_85 Column_86 Column_87 Column_88 Column_89 Column_90 Column_91 Column_92 Column_93 Column_94 Column_95 Column_96 Column_97 Column_98 Column_99 Column_100 Column_101 Column_102 Column_103 Column_104 Column_105 Column_106 Column_107 Column_108 Column_109 Column_110 Column_111 Column_112 Column_113 Column_114 Column_115 Column_116 Column_117 Column_118 Column_119 Column_120 Column_121 Column_122 Column_123 Column_124 Column_125 Column_126 Column_127 Column_128 Column_129 Column_130 Column_131 Column_132 Column_133 Column_134 Column_135 Column_136 Column_137 Column_138 Column_139 Column_140 Column_141 Column_142 Column_143 Column_144 Column_145 Column_146 Column_147 Column_148 Column_149 Column_150 Column_151 Column_152 Column_153 Column_154 Column_155 Column_156 Column_157 Column_158 Column_159 Column_160 Column_161 Column_162 Column_163 Column_164 Column_165 Column_166 Column_167 Column_168 Column_169 Column_170 Column_171 Column_172 Column_173 Column_174 Column_175 Column_176 Column_177 Column_178 Column_179 Column_180 Column_181 Column_182 Column_183 Column_184 Column_185 Column_186 Column_187 Column_188 Column_189 Column_190 Column_191 Column_192 Column_193 Column_194 Column_195 Column_196 Column_197 Column_198 Column_199 Column_200 Column_201 Column_202 Column_203 Column_204 Column_205 Column_206 Column_207 Column_208 Column_209 Column_210 Column_211 Column_212 Column_213 Column_214 Column_215 Column_216 Column_217 Column_218 Column_219 Column_220 Column_221 Column_222 Column_223 Column_224 Column_225 Column_226 Column_227 Column_228 Column_229 Column_230 Column_231 Column_232 Column_233 Column_234 Column_235 Column_236 Column_237 Column_238 Column_239 Column_240 Column_241 Column_242 Column_243 Column_244 Column_245 Column_246 Column_247 Column_248 Column_249 Column_250 Column_251 Column_252 Column_253 Column_254 Column_255 Column_256 Column_257 Column_258 Column_259 Column_260 Column_261 Column_262 Column_263 Column_264 Column_265 Column_266 Column_267 Column_268 Column_269 Column_270 Column_271 Column_272 Column_273 Column_274 Column_275 Column_276 Column_277 Column_278 Column_279 Column_280 Column_281 Column_282 Column_283 Column_284 Column_285 Column_286 Column_287 Column_288 Column_289 Column_290 Column_291 Column_292 Column_293 Column_294 Column_295 Column_296 Column_297 Column_298 Column_299 Column_300 Column_301 Column_302 Column_303 Column_304 Column_305 Column_306 Column_307 Column_308 Column_309 Column_310 Column_311 Column_312 Column_313 Column_314 Column_315 Column_316 Column_317 Column_318 Column_319 Column_320 Column_321 Column_322 Column_323 Column_324 Column_325 Column_326 Column_327 Column_328 Column_329 Column_330 Column_331 Column_332 Column_333 Column_334 Column_335 Column_336 Column_337 Column_338 Column_339 Column_340 Column_341 Column_342 Column_343 Column_344 Column_345 Column_346 Column_347 Column_348 Column_349 Column_350 Column_351 Column_352 Column_353 Column_354 Column_355 Column_356 Column_357 Column_358 Column_359 Column_360 Column_361 Column_362 Column_363 Column_364 Column_365 Column_366 Column_367 Column_368 Column_369 Column_370 Column_371 Column_372 Column_373 Column_374 Column_375 Column_376 Column_377 Column_378 Column_379 Column_380 Column_381 Column_382 Column_383 Column_384 Column_385 Column_386 Column_387 Column_388 Column_389 Column_390 Column_391 Column_392 Column_393 Column_394 Column_395 Column_396 Column_397 Column_398 Column_399 Column_400 Column_401 Column_402 Column_403 Column_404 Column_405 Column_406 Column_407 Column_408 Column_409 Column_410 Column_411 Column_412 Column_413 Column_414 Column_415 Column_416 Column_417 Column_418 Column_419 Column_420 Column_421 Column_422 Column_423 Column_424 Column_425 Column_426 Column_427 Column_428 Column_429 Column_430 Column_431 Column_432 Column_433 Column_434 Column_435 Column_436 Column_437 Column_438 Column_439 Column_440 Column_441 Column_442 Column_443 Column_444 Column_445 Column_446 Column_447 Column_448 Column_449 Column_450 Column_451 Column_452 Column_453 Column_454 Column_455 Column_456 Column_457 Column_458 Column_459 Column_460 Column_461 Column_462 Column_463 Column_464 Column_465 Column_466 Column_467 Column_468 Column_469 Column_470 Column_471 Column_472 Column_473 Column_474 Column_475 Column_476 Column_477 Column_478 Column_479 Column_480 Column_481 Column_482 Column_483 Column_484 Column_485 Column_486 Column_487 Column_488 Column_489 Column_490 Column_491 Column_492 Column_493 Column_494 Column_495 Column_496 Column_497 Column_498 Column_499 Column_500 Column_501 Column_502 Column_503 Column_504 Column_505 Column_506 Column_507 Column_508 Column_509 Column_510 Column_511 Column_512 Column_513 Column_514 Column_515 Column_516 Column_517 Column_518 Column_519 Column_520 Column_521 Column_522 Column_523 Column_524 Column_525 Column_526 Column_527 Column_528 Column_529 Column_530 Column_531 Column_532 Column_533 Column_534 Column_535 Column_536 Column_537 Column_538 Column_539 Column_540 Column_541 Column_542 Column_543 Column_544 Column_545 Column_546 Column_547 Column_548 Column_549 Column_550 Column_551 Column_552 Column_553 Column_554 Column_555 Column_556 Column_557 Column_558 Column_559 Column_560 Column_561 Column_562 Column_563 Column_564 Column_565 Column_566 Column_567 Column_568 Column_569 Column_570 Column_571 Column_572 Column_573 Column_574 Column_575 Column_576 Column_577 Column_578 Column_579 Column_580 Column_581 Column_582 Column_583 Column_584 Column_585 Column_586 Column_587 Column_588 Column_589 Column_590 Column_591 Column_592 Column_593 Column_594 Column_595 Column_596 Column_597 Column_598 Column_599 Column_600 Column_601 Column_602 Column_603 Column_604 Column_605 Column_606 Column_607 Column_608 Column_609 Column_610 Column_611 Column_612 Column_613 Column_614 Column_615 Column_616 Column_617 Column_618 Column_619 Column_620 Column_621 Column_622 Column_623 Column_624 Column_625 Column_626 Column_627 Column_628 Column_629 Column_630 Column_631 Column_632 Column_633 Column_634 Column_635 Column_636 Column_637 Column_638 Column_639 Column_640 Column_641 Column_642 Column_643 Column_644 Column_645 Column_646 Column_647 Column_648 Column_649 Column_650 Column_651 Column_652 Column_653 Column_654 Column_655 Column_656 Column_657 Column_658 Column_659 Column_660 Column_661 Column_662 Column_663 Column_664 Column_665 Column_666 Column_667 Column_668 Column_669 Column_670 Column_671 Column_672 Column_673 Column_674 Column_675 Column_676 Column_677 Column_678 Column_679 Column_680 Column_681 Column_682 Column_683 Column_684 Column_685 Column_686 Column_687 Column_688 Column_689 Column_690 Column_691 Column_692 Column_693 Column_694 Column_695 Column_696 Column_697 Column_698 Column_699 Column_700 Column_701 Column_702 Column_703 Column_704 Column_705 Column_706 Column_707 Column_708 Column_709 Column_710 Column_711 Column_712 Column_713 Column_714 Column_715 Column_716 Column_717 Column_718 Column_719 Column_720 Column_721 Column_722 Column_723 Column_724 Column_725 Column_726 Column_727 Column_728 Column_729 Column_730 Column_731 Column_732 Column_733 Column_734 Column_735 Column_736 Column_737 Column_738 Column_739 Column_740 Column_741 Column_742 Column_743 Column_744 Column_745 Column_746 Column_747 Column_748 Column_749 Column_750 Column_751 Column_752 Column_753 Column_754 Column_755 Column_756 Column_757 Column_758 Column_759 Column_760 Column_761 Column_762 Column_763 Column_764 Column_765 Column_766 Column_767 Column_768 Column_769 Column_770 Column_771 Column_772 Column_773 Column_774 Column_775 Column_776 Column_777 Column_778 Column_779 Column_780 Column_781 Column_782 Column_783 Column_784 Column_785 Column_786 Column_787 Column_788 Column_789 Column_790 Column_791 Column_792 Column_793 Column_794 Column_795 Column_796 Column_797 Column_798 Column_799 Column_800 Column_801 Column_802 Column_803 Column_804 Column_805 Column_806 Column_807 Column_808 Column_809 Column_810 Column_811 Column_812 Column_813 Column_814 Column_815 Column_816 Column_817 Column_818 Column_819 Column_820 Column_821 Column_822 Column_823 Column_824 Column_825 Column_826 Column_827 Column_828 Column_829 Column_830 Column_831 Column_832 Column_833 Column_834 Column_835 Column_836 Column_837 Column_838 Column_839 Column_840 Column_841 Column_842 Column_843 Column_844 Column_845 Column_846 Column_847 Column_848 Column_849 Column_850 Column_851 Column_852 Column_853 Column_854 Column_855 Column_856 Column_857 Column_858 Column_859 Column_860 Column_861 Column_862 Column_863 Column_864 Column_865 Column_866 Column_867 Column_868 Column_869 Column_870 Column_871 Column_872 Column_873 Column_874 Column_875 Column_876 Column_877 Column_878 Column_879 Column_880 Column_881 Column_882 Column_883 Column_884 Column_885 Column_886 Column_887 Column_888 Column_889 Column_890 Column_891 Column_892 Column_893 Column_894 Column_895 Column_896 Column_897 Column_898 Column_899 Column_900 Column_901 Column_902 Column_903 Column_904 Column_905 Column_906 Column_907 Column_908 Column_909 Column_910 Column_911 Column_912 Column_913 Column_914 Column_915 Column_916 Column_917 Column_918 Column_919 Column_920 Column_921 Column_922 Column_923 Column_924 Column_925 Column_926 Column_927 Column_928 Column_929 Column_930 Column_931 Column_932 Column_933 Column_934 Column_935 Column_936 Column_937 Column_938 Column_939 Column_940 Column_941 Column_942 Column_943 Column_944 Column_945 Column_946 Column_947 Column_948 Column_949 Column_950 Column_951 Column_952 Column_953 Column_954 Column_955 Column_956 Column_957 Column_958 Column_959 Column_960 Column_961 Column_962 Column_963 Column_964 Column_965 Column_966 Column_967 Column_968 Column_969 Column_970 Column_971 Column_972 Column_973 Column_974 Column_975 Column_976 Column_977 Column_978 Column_979 Column_980 Column_981 Column_982 Column_983 Column_984 Column_985 Column_986 Column_987 Column_988 Column_989 Column_990 Column_991 Column_992 Column_993 Column_994 Column_995 Column_996 Column_997 Column_998 Column_999 Column_1000 Column_1001 Column_1002 Column_1003 Column_1004 Column_1005 Column_1006 Column_1007 Column_1008 Column_1009 Column_1010 Column_1011 Column_1012 Column_1013 Column_1014 Column_1015 Column_1016 Column_1017 Column_1018 Column_1019 Column_1020 Column_1021 Column_1022 Column_1023 Column_1024 Column_1025 Column_1026 Column_1027 Column_1028 Column_1029 Column_1030 Column_1031 Column_1032 Column_1033 Column_1034 Column_1035 Column_1036 Column_1037 Column_1038 Column_1039 Column_1040 Column_1041 Column_1042 Column_1043 Column_1044 Column_1045 Column_1046 Column_1047 Column_1048 Column_1049 Column_1050 Column_1051 Column_1052 Column_1053 Column_1054 Column_1055 Column_1056 Column_1057 Column_1058 Column_1059 Column_1060 Column_1061 Column_1062 Column_1063 Column_1064 Column_1065 Column_1066 Column_1067 Column_1068 Column_1069 Column_1070 Column_1071 Column_1072 Column_1073 Column_1074 Column_1075 Column_1076 Column_1077 Column_1078 Column_1079 Column_1080 Column_1081 Column_1082 Column_1083 Column_1084 Column_1085 Column_1086 Column_1087 Column_1088 Column_1089 Column_1090 Column_1091 Column_1092 Column_1093 Column_1094 Column_1095 Column_1096 Column_1097 Column_1098 Column_1099 Column_1100 Column_1101 Column_1102 Column_1103 Column_1104 Column_1105 Column_1106 Column_1107 Column_1108 Column_1109 Column_1110 Column_1111 Column_1112 Column_1113 Column_1114 Column_1115 Column_1116 Column_1117 Column_1118 Column_1119 Column_1120 Column_1121 Column_1122 Column_1123 Column_1124 Column_1125 Column_1126 Column_1127 Column_1128 Column_1129 Column_1130 Column_1131 Column_1132 Column_1133 Column_1134 Column_1135 Column_1136 Column_1137 Column_1138 Column_1139 Column_1140 Column_1141 Column_1142 Column_1143 Column_1144 Column_1145 Column_1146 Column_1147 Column_1148 Column_1149 Column_1150 Column_1151 Column_1152 Column_1153 Column_1154 Column_1155 Column_1156 Column_1157 Column_1158 Column_1159 Column_1160 Column_1161 Column_1162 Column_1163 Column_1164 Column_1165 Column_1166 Column_1167 Column_1168 Column_1169 Column_1170 Column_1171 Column_1172 Column_1173 Column_1174 Column_1175 Column_1176 Column_1177 Column_1178 Column_1179 Column_1180 Column_1181 Column_1182 Column_1183 Column_1184 Column_1185 Column_1186 Column_1187 Column_1188 Column_1189 Column_1190 Column_1191 Column_1192 Column_1193 Column_1194 Column_1195 Column_1196 Column_1197 Column_1198 Column_1199 Column_1200 Column_1201 Column_1202 Column_1203 Column_1204 Column_1205 Column_1206 Column_1207 Column_1208 Column_1209 Column_1210 Column_1211 Column_1212 Column_1213 Column_1214 Column_1215 Column_1216 Column_1217 Column_1218 Column_1219 Column_1220 Column_1221 Column_1222 Column_1223 Column_1224 Column_1225 Column_1226 Column_1227 Column_1228 Column_1229 Column_1230 Column_1231 Column_1232 Column_1233 Column_1234 Column_1235 Column_1236 Column_1237 Column_1238 Column_1239 Column_1240 Column_1241 Column_1242 Column_1243 Column_1244 Column_1245 Column_1246 Column_1247 Column_1248 Column_1249 Column_1250 Column_1251 Column_1252 Column_1253 Column_1254 Column_1255 Column_1256 Column_1257 Column_1258 Column_1259 Column_1260 Column_1261 Column_1262 Column_1263 Column_1264 Column_1265 Column_1266 Column_1267 Column_1268 Column_1269 Column_1270 Column_1271 Column_1272 Column_1273 Column_1274 Column_1275 Column_1276 Column_1277 Column_1278 Column_1279 Column_1280 Column_1281 Column_1282 Column_1283 Column_1284 Column_1285 Column_1286 Column_1287 Column_1288 Column_1289 Column_1290 Column_1291 Column_1292 Column_1293 Column_1294 Column_1295 Column_1296 Column_1297 Column_1298 Column_1299 Column_1300 Column_1301 Column_1302 Column_1303 Column_1304 Column_1305 Column_1306 Column_1307 Column_1308 Column_1309 Column_1310 Column_1311 Column_1312 Column_1313 Column_1314 Column_1315 Column_1316 Column_1317 Column_1318 Column_1319 Column_1320 Column_1321 Column_1322 Column_1323 Column_1324 Column_1325 Column_1326 Column_1327 Column_1328 Column_1329 Column_1330 Column_1331 Column_1332 Column_1333 Column_1334 Column_1335 Column_1336 Column_1337 Column_1338 Column_1339 Column_1340 Column_1341 Column_1342 Column_1343 Column_1344 Column_1345 Column_1346 Column_1347 Column_1348 Column_1349 Column_1350 Column_1351 Column_1352 Column_1353 Column_1354 Column_1355 Column_1356 Column_1357 Column_1358 Column_1359 Column_1360 Column_1361 Column_1362 Column_1363 Column_1364 Column_1365 Column_1366 Column_1367 Column_1368 Column_1369 Column_1370 Column_1371 Column_1372 Column_1373 Column_1374 Column_1375 Column_1376 Column_1377 Column_1378 Column_1379 Column_1380 Column_1381 Column_1382 Column_1383 Column_1384 Column_1385 Column_1386 Column_1387 Column_1388 Column_1389 Column_1390 Column_1391 Column_1392 Column_1393 Column_1394 Column_1395 Column_1396 Column_1397 Column_1398 Column_1399 Column_1400 Column_1401 Column_1402 Column_1403 Column_1404 Column_1405 Column_1406 Column_1407 Column_1408 Column_1409 Column_1410 Column_1411 Column_1412 Column_1413 Column_1414 Column_1415 Column_1416 Column_1417 Column_1418 Column_1419 Column_1420 Column_1421 Column_1422 Column_1423 Column_1424 Column_1425 Column_1426 Column_1427 Column_1428 Column_1429 Column_1430 Column_1431 Column_1432 Column_1433 Column_1434 Column_1435 Column_1436 Column_1437 Column_1438 Column_1439 Column_1440 Column_1441 Column_1442 Column_1443 Column_1444 Column_1445 Column_1446 Column_1447 Column_1448 Column_1449 Column_1450 Column_1451 Column_1452 Column_1453 Column_1454 Column_1455 Column_1456 Column_1457 Column_1458 Column_1459 Column_1460 Column_1461 Column_1462 Column_1463 Column_1464 Column_1465 Column_1466 Column_1467 Column_1468 Column_1469 Column_1470 Column_1471 Column_1472 Column_1473 Column_1474 Column_1475 Column_1476 Column_1477 Column_1478 Column_1479 Column_1480 Column_1481 Column_1482 Column_1483 Column_1484 Column_1485 Column_1486 Column_1487 Column_1488 Column_1489 Column_1490 Column_1491 Column_1492 Column_1493 Column_1494 Column_1495 Column_1496 Column_1497 Column_1498 Column_1499 Column_1500 Column_1501 Column_1502 Column_1503 Column_1504 Column_1505 Column_1506 Column_1507 Column_1508 Column_1509 Column_1510 Column_1511 Column_1512 Column_1513 Column_1514 Column_1515 Column_1516 Column_1517 Column_1518 Column_1519 Column_1520 Column_1521 Column_1522 Column_1523 Column_1524 Column_1525 Column_1526 Column_1527 Column_1528 Column_1529 Column_1530 Column_1531 Column_1532 Column_1533 Column_1534 Column_1535 Column_1536 Column_1537 Column_1538 Column_1539 Column_1540 Column_1541 Column_1542 Column_1543 Column_1544 Column_1545 Column_1546 Column_1547 Column_1548 Column_1549 Column_1550 Column_1551 Column_1552 Column_1553 Column_1554 Column_1555 Column_1556 Column_1557 Column_1558 Column_1559 Column_1560 Column_1561 Column_1562 Column_1563 Column_1564 Column_1565 Column_1566 Column_1567 Column_1568 Column_1569 Column_1570 Column_1571 Column_1572 Column_1573 Column_1574 Column_1575 Column_1576 Column_1577 Column_1578 Column_1579 Column_1580 Column_1581 Column_1582 Column_1583 Column_1584 Column_1585 Column_1586 Column_1587 Column_1588 Column_1589 Column_1590 Column_1591 Column_1592 Column_1593 Column_1594 Column_1595 Column_1596 Column_1597 Column_1598 Column_1599 Column_1600 Column_1601 Column_1602 Column_1603 Column_1604 Column_1605 Column_1606 Column_1607 Column_1608 Column_1609 Column_1610 Column_1611 Column_1612 Column_1613 Column_1614 Column_1615 Column_1616 Column_1617 Column_1618 Column_1619 Column_1620 Column_1621 Column_1622 Column_1623 Column_1624 Column_1625 Column_1626 Column_1627 Column_1628 Column_1629 Column_1630 Column_1631 Column_1632 Column_1633 Column_1634 Column_1635 Column_1636 Column_1637 Column_1638 Column_1639 Column_1640 Column_1641 Column_1642 Column_1643 Column_1644 Column_1645 Column_1646 Column_1647 Column_1648 Column_1649 Column_1650 Column_1651 Column_1652 Column_1653 Column_1654 Column_1655 Column_1656 Column_1657 Column_1658 Column_1659 Column_1660 Column_1661 Column_1662 Column_1663 Column_1664 Column_1665 Column_1666 Column_1667 Column_1668 Column_1669 Column_1670 Column_1671 Column_1672 Column_1673 Column_1674 Column_1675 Column_1676 Column_1677 Column_1678 Column_1679 Column_1680 Column_1681 Column_1682 Column_1683 Column_1684 Column_1685 Column_1686 Column_1687 Column_1688 Column_1689 Column_1690 Column_1691 Column_1692 Column_1693 Column_1694 Column_1695 Column_1696 Column_1697 Column_1698 Column_1699 Column_1700 Column_1701 Column_1702 Column_1703 Column_1704 Column_1705 Column_1706 Column_1707 Column_1708 Column_1709 Column_1710 Column_1711 Column_1712 Column_1713 Column_1714 Column_1715 Column_1716 Column_1717 Column_1718 Column_1719 Column_1720 Column_1721 Column_1722 Column_1723 Column_1724 Column_1725 Column_1726 Column_1727 Column_1728 Column_1729 Column_1730 Column_1731 Column_1732 Column_1733 Column_1734 Column_1735 Column_1736 Column_1737 Column_1738 Column_1739 Column_1740 Column_1741 Column_1742 Column_1743 Column_1744 Column_1745 Column_1746 Column_1747 Column_1748 Column_1749 Column_1750 Column_1751 Column_1752 Column_1753 Column_1754 Column_1755 Column_1756 Column_1757 Column_1758 Column_1759 Column_1760 Column_1761 Column_1762 Column_1763 Column_1764 Column_1765 Column_1766 Column_1767 Column_1768 Column_1769 Column_1770 Column_1771 Column_1772 Column_1773 Column_1774 Column_1775 Column_1776 Column_1777 Column_1778 Column_1779 Column_1780 Column_1781 Column_1782 Column_1783 Column_1784 Column_1785 Column_1786 Column_1787 Column_1788 Column_1789 Column_1790 Column_1791 Column_1792 Column_1793 Column_1794 Column_1795 Column_1796 Column_1797 Column_1798 Column_1799 Column_1800 Column_1801 Column_1802 Column_1803 Column_1804 Column_1805 Column_1806 Column_1807 Column_1808 Column_1809 Column_1810 Column_1811 Column_1812 Column_1813 Column_1814 Column_1815 Column_1816 Column_1817 Column_1818 Column_1819 Column_1820 Column_1821 Column_1822 Column_1823 Column_1824 Column_1825 Column_1826 Column_1827 Column_1828 Column_1829 Column_1830 Column_1831 Column_1832 Column_1833 Column_1834 Column_1835 Column_1836 Column_1837 Column_1838 Column_1839 Column_1840 Column_1841 Column_1842 Column_1843 Column_1844 Column_1845 Column_1846 Column_1847 Column_1848 Column_1849 Column_1850 Column_1851 Column_1852 Column_1853 Column_1854 Column_1855 Column_1856 Column_1857 Column_1858 Column_1859 Column_1860 Column_1861 Column_1862 Column_1863 Column_1864 Column_1865 Column_1866 Column_1867 Column_1868 Column_1869 Column_1870 Column_1871 Column_1872 Column_1873 Column_1874 Column_1875 Column_1876 Column_1877 Column_1878 Column_1879 Column_1880 Column_1881 Column_1882 Column_1883 Column_1884 Column_1885 Column_1886 Column_1887 Column_1888 Column_1889 Column_1890 Column_1891 Column_1892 Column_1893 Column_1894 Column_1895 Column_1896 Column_1897 Column_1898 Column_1899 Column_1900 Column_1901 Column_1902 Column_1903 Column_1904 Column_1905 Column_1906 Column_1907 Column_1908 Column_1909 Column_1910 Column_1911 Column_1912 Column_1913 Column_1914 Column_1915 Column_1916 Column_1917 Column_1918 Column_1919 Column_1920 Column_1921 Column_1922 Column_1923 Column_1924 Column_1925 Column_1926 Column_1927 Column_1928 Column_1929 Column_1930 Column_1931 Column_1932 Column_1933 Column_1934 Column_1935 Column_1936 Column_1937 Column_1938 Column_1939 Column_1940 Column_1941 Column_1942 Column_1943 Column_1944 Column_1945 Column_1946 Column_1947 Column_1948 Column_1949 Column_1950 Column_1951 Column_1952 Column_1953 Column_1954 Column_1955 Column_1956 Column_1957 Column_1958 Column_1959 Column_1960 Column_1961 Column_1962 Column_1963 Column_1964 Column_1965 Column_1966 Column_1967 Column_1968 Column_1969 Column_1970 Column_1971 Column_1972 Column_1973 Column_1974 Column_1975 Column_1976 Column_1977 Column_1978 Column_1979 Column_1980 Column_1981 Column_1982 Column_1983 Column_1984 Column_1985 Column_1986 Column_1987 Column_1988 Column_1989 Column_1990 Column_1991 Column_1992 Column_1993 Column_1994 Column_1995 Column_1996 Column_1997 Column_1998 Column_1999 Column_2000 Column_2001 Column_2002 Column_2003 Column_2004 Column_2005 Column_2006 Column_2007 Column_2008 Column_2009 Column_2010 Column_2011 Column_2012 Column_2013 Column_2014 Column_2015 Column_2016 Column_2017 Column_2018 Column_2019 Column_2020 Column_2021 Column_2022 Column_2023 Column_2024 Column_2025 Column_2026 Column_2027 Column_2028 Column_2029 Column_2030 Column_2031 Column_2032 Column_2033 Column_2034 Column_2035 Column_2036 Column_2037 Column_2038 Column_2039 Column_2040 Column_2041 Column_2042 Column_2043 Column_2044 Column_2045 Column_2046 Column_2047
feature_infos=none [0:1] none none none none none none none none none none none [0:1] [0:1] none none none none [0:1] none none none none none none none none none none none none none none none none none none none none none none none none none [0:1] none none none none none none none none none none none none none none none none none none none [0:1] none none none none none none none none none none none none none none [0:1] none none none none none none none none none none none [0:1] none none none none none none none none none none none none none none none none none none none none none none none none none none [0:1] none none none none none none none none none none [0:1] none none none none none none none none none none none none none none none none none none none none none none none none none none none none none [0:1] [0:1] none none none none none none none none none none none none none none none none none none none none none none [0:1] none none none none none none [0:1] none none none none none [0:1] none none none none none none none none none [0:1] none none none none none none none none [0:1] none none none none none none none none none none none none none none none none [0:1] none none none none none none none none none none none none none none none [0:1] none none none none none none none none none none none none none none none none none none none none none none none none none none none none none none none none none [0:1] none none none none none none none none none none none none none none none none none none none none none none none none none none none none none none [0:1] none none none none none none none [0:1] none none none none none none [0:1] none none none none none none none none none none none none none none none none none none none none [0:1] none [0:1] none none none none none none none none none none none none none [0:1] none none none none none none none none none none none none none none none none none none none none none none [0:1] none none none none none none none none none none none [0:1] none none none none none [0:1] none none none none none none none none none none none none [0:1] none [0:1] none none none none none none none none none none none none none none none none none none none none none none none none none none none none none none none none none none none [0:1] none none none none none [0:1] [0:1] none none none none none none none none none none none none none none none none none none none none none none none [0:1] none [0:1] [0:1] none none none [0:1] none none none none none none none none none none none none none none none none none none none none none none none none none none [0:1] [0:1] none none none none none none none none none none none none none none none none none none none [0:1] none none none none none none none none none none [0:1] none none none none none [0:1] none none none none none none none none none none none none none none none none none [0:1] none none none none none none none none none none none none none none none none none none none none none none none none none none none none none none none none none none none none none none none none none none none none none none none none none none none none none none none none none none none none none none none none none none none none none none [0:1] none [0:1] none none none [0:1] none none none none none none none none none none none none none none none none [0:1] none none none none none none none none none none none none none [0:1] none none none none none [0:1] [0:1] [0:1] none none none [0:1] none none none [0:1] none none none none [0:1] none none none none none none none [0:1] none none none none [0:1] none none none none none [0:1] none none none none none none none none none none none [0:1] none none none none none none none none none none none none none none none none none none none none none none none none none none none none none none none none none none none none none none none none [0:1] none none none none none none [0:1] none none none none none none [0:1] none none none none none none none none none none none none [0:1] none none none none none none none none none none none none none none none none none none none none none none none none none none none none none none none none none [0:1] none [0:1] none none none none none none none none none none none none none none none none none none none none none none none none none none none none none none none none none none none none none [0:1] none none none none none none [0:1] none none none none none none none none none none none none none none none none none none none none none none none none none none none none none none none none none none none none none [0:1] none none none none none none none none [0:1] none none none none none none none none none none none none none none [0:1] none none none none none none none none [0:1] none [0:1] none none none none none none none none none none none none none none none none none none none none none none none none none none none none none none none none none none none none none none none none none none none none none none none none none none none none none none none none none [0:1] none none none none none none none none none none none none none none none none none none none [0:1] none none none none none none none none none [0:1] [0:1] none none none none none none [0:1] [0:1] none none none none none none none none none none none none none none none none none none none none none none none none none none none none none [0:1] none none none none none none none none [0:1] none none none none none none none none none none [0:1] none none none none none [0:1] none none none none none none none none none none none none none none none none none none none none none none none none none none none none none none [0:1] none none none none none none [0:1] none none none none [0:1] none none [0:1] none none [0:1] none none none none none none none [0:1] none none none none none none none none none [0:1] none none none none none none none none none none none none none none none none none [0:1] none none none none none none none none none none none none none none none none none none none none none none none none [0:1] none [0:1] none none none none none none none none none [0:1] none none none none none none none none [0:1] none none none none none none none none none none none none none none none none none none none none [0:1] none none none none none none none none none none none none none none none none none none none none none none none none none none none none none none none none none none none none none none none none none none none none none none none none none none none none none none none none none none [0:1] none none none none none none none none none none none none none none none none none none none none none none none none none none none none none none none [0:1] none none none none none none none none [0:1] [0:1] none none none none none none none none none none none none none none none none none none none none none none none [0:1] none none none none none none none none none none none none none [0:1] none none none none [0:1] none none none none none none none none none none none none none none none none none none none none none none none none none none none none none none none none [0:1] none none none none none none none none none none none none none [0:1] none none none none none none none [0:1] none none none none none none none none none none [0:1] none none none [0:1] none none none none none none none [0:1] none none none none none none none none none none none none none none none none none none none [0:1] none none none none none none none none none none none none none none none none none none none none none none none none none none [0:1] [0:1] none none none none none none none none none none none none none none none none none none none none none none none none none none none none none none none [0:1] none none none none none none none none none none none none [0:1] [0:1] none none none [0:1] none none [0:1] none none none none none none none none none none none none none none none none none none none none none none none none none none none [0:1] none [0:1] none none none none none none none none none none none none none none none none none none none none none none none none none [0:1] none none [0:1] none none none none none none none none none none none none none none none none none none none none none none none none none none none none none none none none none none [0:1] none none [0:1] none none none none none none none none none [0:1] none none none none none none none none none none none none none none none none none none none none none none none none none none none none none none none none none none none none none none none none none none none none none none none none none none none none none none none none none [0:1] none none none none none none none none none none none none none none none none none none none none none none none none none none none none none none none none none none none none none none none none none none none none none none none none none none none none none none none [0:1] none none none none none [0:1] none none [0:1] none none none none none [0:1] none none none none none none none none none none none none none none [0:1] none none none none [0:1] none none none none none none none none none [0:1] [0:1] none none none none none none none none none [0:1] none none none none none none none none none none none none none none none none none none none none none none none none none none none none none none none none none none none none none none [0:1] none none none none none [0:1] [0:1] none none none none [0:1] none none none none none [0:1] none none none none [0:1] none none none none none none [0:1] none none none none none none none none none none [0:1] none none none none [0:1] none none none none none none none none none none none none none none none none none none [0:1] none none none none none none none none none none none none none none none none none none none none none none none none none none none none none none none none none none none none none none [0:1] none none none none none none none [0:1] none none none none none none none none none none none none [0:1] none none none none none none none none none none none none none none none none none
tree_sizes=807 682 765 745 747 761 681 859 767 766 854 765 777 688 769 823 780 841 764 852 855 771 736 775 770 778 851 852 779 945 840 678 751 682 843 772 755 769 774 685 866 768 683 663 772 771 686 741 655 772 690 677 865 773 661 686 775 856 781 853 777 759 857 814 842 764 695 745 760 687 770 778 871 870 773 865 857 694 691 757 684 687 690 604 693 778 606 773 687 771 770 687 607 689 870 778 777 741 856 599 762 693 784 872 694 665 695 786 777 699 601 769 695 761 758 756 690 607 596 606 608 603 681 765 691

Tree=0
num_leaves=8
num_cat=0
split_feature=959 721 1912 80 727 1866 1367
split_gain=75.3543 23.0968 11.1879 12.7295 8.53244 1.20217 2.87737
threshold=1.0000000180025095e-35 1.0000000180025095e-35 1.0000000180025095e-35 1.0000000180025095e-35 1.0000000180025095e-35 1.0000000180025095e-35 1.0000000180025095e-35
decision_type=2 2 2 2 2 2 2
left_child=1 4 3 -2 5 6 -1
right_child=2 -3 -4 -5 -6 -7 -8
leaf_value=7.1263489188340179 7.1736810292309743 6.9905791209484711 7.3501971686221053 7.3080736568098557 7.0785000439785373 7.2048430770774594 7.1958431846193713
leaf_weight=19 28 23 34 26 23 20 26
leaf_count=19 28 23 34 26 23 20 26
internal_value=7.18937 7.11099 7.28752 7.24088 7.14855 7.17773 7.16488
internal_weight=199 111 88 54 88 65 45
internal_count=199 111 88 54 88 65 45
is_linear=0
shrinkage=1


Tree=1
num_leaves=6
num_cat=0
split_feature=1645 721 216 184 1928
split_gain=66.2738 16.3239 8.24663 7.53755 6.74706
threshold=1.0000000180025095e-35 1.0000000180025095e-35 1.0000000180025095e-35 1.0000000180025095e-35 1.0000000180025095e-35
decision_type=2 2 2 2 2
left_child=1 2 4 -2 -1
right_child=3 -3 -4 -5 -6
leaf_value=-0.041700913497113058 0.12634780941404936 -0.17347731162690133 -0.088143143871701593 0.032004223842623629 0.058923779735802241
leaf_weight=32 54 23 39 31 20
leaf_count=32 54 23 39 31 20
internal_value=-5.85736e-05 -0.0715414 -0.0405409 0.0946282 -0.00134062
internal_weight=199 114 91 85 52
internal_count=199 114 91 85 52
is_linear=0
shrinkage=0.144767


Tree=2
num_leaves=7
num_cat=0
split_feature=1645 721 465 1928 161 1199
split_gain=49.7452 12.499 6.31796 7.52126 5.16785 0.835929
threshold=1.0000000180025095e-35 1.0000000180025095e-35 1.0000000180025095e-35 1.0000000180025095e-35 1.0000000180025095e-35 1.0000000180025095e-35
decision_type=2 2 2 2 2 2
left_child=1 2 3 -1 -2 -6
right_child=4 -3 -4 -5 5 -7
leaf_value=-0.043219175456013004 0.12080731191404005 -0.1513884464773107 -0.082581021755564407 0.058958357276308611 0.021028223247110248 0.06502830407106254
leaf_weight=37 38 23 33 21 26 21
leaf_count=37 38 23 33 21 26 21
internal_value=-0.000224287 -0.0621702 -0.0350154 -0.00463843 0.0817939 0.044091
internal_weight=199 114 91 58 85 47
internal_count=199 114 91 58 85 47
is_linear=0
shrinkage=0.144767


Tree=3
num_leaves=7
num_cat=0
split_feature=1366 489 492 458 561 935
split_gain=38.0347 9.88562 16.014 8.98259 2.18674 2.38327
threshold=1.0000000180025095e-35 1.0000000180025095e-35 1.0000000180025095e-35 1.0000000180025095e-35 1.0000000180025095e-35 1.0000000180025095e-35
decision_type=2 2 2 2 2 2
left_child=3 2 -2 4 -1 -6
right_child=1 -3 -4 -5 5 -7
leaf_value=0 -0.042620666911086652 0.11283995659551983 0.11455239902634555 -0.13117522920874336 -0.010770010751698747 -0.075172796354007212
leaf_weight=27 32 44 19 25 23 29
leaf_count=27 32 44 19 25 23 29
internal_value=-0.000177675 0.0647945 0.0186782 -0.0599465 -0.0329026 -0.0494325
internal_weight=199 95 51 104 79 52
internal_count=199 95 51 104 79 52
is_linear=0
shrinkage=0.144767


Tree=4
num_leaves=7
num_cat=0
split_feature=1366 841 1582 216 687 708
split_gain=28.7803 6.88574 6.81238 5.69481 4.58628 0.167011
threshold=1.0000000180025095e-35 1.0000000180025095e-35 1.0000000180025095e-35 1.0000000180025095e-35 1.0000000180025095e-35 1.0000000180025095e-35
decision_type=2 2 2 2 2 2
left_child=2 -2 3 5 -3 -1
right_child=1 4 -4 -5 -6 -7
leaf_value=0.017245086031399084 0.002517481952101306 0.11066546997101188 -0.11431018223522074 -0.066791215912114524 0.021090727889984687 0
leaf_weight=19 34 41 25 38 20 22
leaf_count=19 34 41 25 38 20 22
internal_value=-0.000228156 0.0562728 -0.0522358 -0.0286244 0.0842071 0.00836193
internal_weight=199 95 104 79 61 41
internal_count=199 95 104 79 61 41
is_linear=0
shrinkage=0.144767


Tree=5
num_leaves=7
num_cat=0
split_feature=1923 926 695 80 1866 841
split_gain=22.586 14.1648 14.0659 4.35946 1.92229 1.16703
threshold=1.0000000180025095e-35 1.0000000180025095e-35 1.0000000180025095e-35 1.0000000180025095e-35 1.0000000180025095e-35 1.0000000180025095e-35
decision_type=2 2 2 2 2 2
left_child=1 2 -1 -2 5 -3
right_child=3 4 -4 -5 -6 -7
leaf_value=-0.10740700095638649 -0.12106305002234559 0.01729984385542787 0.035819481784636904 -0.033883599890768064 0.10331417427221842 0.060414445408278616
leaf_weight=23 24 25 29 30 20 48
leaf_count=23 24 25 29 30 20 48
internal_value=-0.000211349 0.0294791 -0.0295432 -0.0776526 0.0626564 0.0473401
internal_weight=199 145 52 54 93 73
internal_count=199 145 52 54 93 73
is_linear=0
shrinkage=0.144767


Tree=6
num_leaves=6
num_cat=0
split_feature=694 950 1970 1928 65
split_gain=18.6343 7.68616 5.93601 3.78824 3.53546
threshold=1.0000000180025095e-35 1.0000000180025095e-35 1.0000000180025095e-35 1.0000000180025095e-35 1.0000000180025095e-35
decision_type=2 2 2 2 2
left_child=1 3 -2 -1 -4
right_child=2 -3 4 -5 -6
leaf_value=-0.037897199605886771 -0.01141005065570563 -0.088141949403073419 0.082433128171590223 0.037379431325879418 0.010517118575993927
leaf_weight=30 30 44 52 21 22
leaf_count=30 30 44 52 21 22
internal_value=-0.000243614 -0.0459445 0.0413666 -0.00601676 0.0627149
internal_weight=199 95 104 51 74
internal_count=199 95 104 51 74
is_linear=0
shrinkage=0.144767


Tree=7
num_leaves=8
num_cat=0
split_feature=694 1970 1866 496 1039 422 1928
split_gain=13.9081 4.45933 3.54004 2.60533 1.19597 0.18998 0.0605391
threshold=1.0000000180025095e-35 1.0000000180025095e-35 1.0000000180025095e-35 1.0000000180025095e-35 1.0000000180025095e-35 1.0000000180025095e-35 1.0000000180025095e-35
decision_type=2 2 2 2 2 2 2
left_child=2 -2 4 6 5 -1 -3
right_child=1 3 -4 -5 -6 -7 -8
leaf_value=-0.047239259932600509 -0.0099151968277648231 0.050689246315285284 0.013324068087124346 0.0091852652605549662 -0.017268866947657852 -0.084335087170271911 0.088172573952054578
leaf_weight=37 30 30 19 22 20 19 22
leaf_count=37 30 30 19 22 20 19 22
internal_value=-0.000204516 0.0357251 -0.0397052 0.0542373 -0.053316 -0.0641154 0.0711811
internal_weight=199 104 95 74 76 56 52
internal_count=199 104 95 74 76 56 52
is_linear=0
shrinkage=0.144767


Tree=8
num_leaves=7
num_cat=0
split_feature=721 694 465 926 1928 1912
split_gain=14.6673 10.1212 4.28764 3.6612 3.18298 0.514244
threshold=1.0000000180025095e-35 1.0000000180025095e-35 1.0000000180025095e-35 1.0000000180025095e-35 1.0000000180025095e-35 1.0000000180025095e-35
decision_type=2 2 2 2 2 2
left_child=1 2 3 -1 5 -3
right_child=-2 4 -4 -5 -6 -7
leaf_value=-0.039463087229809457 -0.091772644069870318 0.014579863036351372 -0.064449374654598143 0.036463917651786928 0.083674478757117587 0.045094055097507066
leaf_weight=20 28 45 28 28 31 19
leaf_count=20 28 45 28 28 31 19
internal_value=-0.000149126 0.0160825 -0.0225559 0.00380273 0.0470081 0.0257426
internal_weight=199 171 76 48 95 64
internal_count=199 171 76 48 95 64
is_linear=0
shrinkage=0.144767


Tree=9
num_leaves=7
num_cat=0
split_feature=721 694 465 314 888 699
split_gain=11.0952 7.69318 3.23315 2.55815 1.1368 0.906224
threshold=1.0000000180025095e-35 1.0000000180025095e-35 1.0000000180025095e-35 1.0000000180025095e-35 1.0000000180025095e-35 1.0000000180025095e-35
decision_type=2 2 2 2 2 2
left_child=1 2 4 5 -1 -3
right_child=-2 3 -4 -5 -6 -7
leaf_value=0.025140378296757988 -0.079830374785507557 0.038063230678201936 -0.056062649425765054 0.0034362718944523276 -0.016649472425520846 0.081854719728477715
leaf_weight=23 28 44 28 29 25 22
leaf_count=23 28 44 28 29 25 22
internal_value=-0.000123561 0.0139761 -0.0196791 0.0409508 0.00314688 0.0561255
internal_weight=199 171 76 95 48 66
internal_count=199 171 76 95 48 66
is_linear=0
shrinkage=0.144767


Tree=10
num_leaves=8
num_cat=0
split_feature=492 489 249 1683 80 727 1245
split_gain=8.84318 7.77446 4.55106 2.59434 1.84409 0.29744 0.157244
threshold=1.0000000180025095e-35 1.0000000180025095e-35 1.0000000180025095e-35 1.0000000180025095e-35 1.0000000180025095e-35 1.0000000180025095e-35 1.0000000180025095e-35
decision_type=2 2 2 2 2 2 2
left_child=1 3 5 -1 -5 -3 -4
right_child=-2 2 6 4 -6 -7 -8
leaf_value=-0.0148089252553808 0.070831126873640807 -0.0043405812254522528 0.055438139831610819 -0.10255120980082846 -0.032164470168211785 -0.030147655546073081 0.028061762555015444
leaf_weight=34 28 21 20 19 21 23 33
leaf_count=34 28 21 20 19 21 23 33
internal_value=-7.5025e-05 -0.0129159 0.0137479 -0.0473615 -0.0712869 -0.0195324 0.0414173
internal_weight=199 171 97 74 40 44 53
internal_count=199 171 97 74 40 44 53
is_linear=0
shrinkage=0.144767


Tree=11
num_leaves=7
num_cat=0
split_feature=1923 926 489 80 888 1039
split_gain=5.03299 6.4276 7.93682 2.61326 1.70756 1.02162
threshold=1.0000000180025095e-35 1.0000000180025095e-35 1.0000000180025095e-35 1.0000000180025095e-35 1.0000000180025095e-35 1.0000000180025095e-35
decision_type=2 2 2 2 2 2
left_child=1 2 -1 -2 5 -3
right_child=3 4 -4 -5 -6 -7
leaf_value=-0.084106271030787647 -0.069461941805502206 0.064957209664691359 0.023487704187274899 -0.0056754299436363722 0.00652457819734818 0.02136226855890979
leaf_weight=23 24 37 29 30 31 25
leaf_count=23 24 37 29 30 31 25
internal_value=-0.000151003 0.0137933 -0.0256838 -0.0367768 0.0362737 0.0496875
internal_weight=199 145 52 54 93 62
internal_count=199 145 52 54 93 62
is_linear=0
shrinkage=0.144767


Tree=12
num_leaves=7
num_cat=0
split_feature=492 1905 721 694 888 1928
split_gain=5.67244 4.06186 3.05941 2.03344 2.65396 0.824092
threshold=1.0000000180025095e-35 1.0000000180025095e-35 1.0000000180025095e-35 1.0000000180025095e-35 1.0000000180025095e-35 1.0000000180025095e-35
decision_type=2 2 2 2 2 2
left_child=1 2 3 5 -5 -1
right_child=-2 -3 -4 4 -6 -7
leaf_value=-0.045148418865911581 0.056575809340041944 0.045998934858515361 -0.060534476793177951 -0.014953460570774979 0.043853676979374256 -0.010376701474012682
leaf_weight=25 28 20 27 34 25 40
leaf_count=25 28 20 27 34 25 40
internal_value=-0.000186154 -0.0104951 -0.0189449 -0.00839551 0.0104776 -0.0256265
internal_weight=199 171 151 124 59 65
internal_count=199 171 151 124 59 65
is_linear=0
shrinkage=0.144767


Tree=13
num_leaves=6
num_cat=0
split_feature=1645 1928 716 1088 1816
split_gain=2.99064 1.5682 1.43223 0.830373 0.751674
threshold=1.0000000180025095e-35 1.0000000180025095e-35 1.0000000180025095e-35 1.0000000180025095e-35 1.0000000180025095e-35
decision_type=2 2 2 2 2
left_child=1 3 -3 -1 -2
right_child=4 2 -4 -5 -6
leaf_value=-0.0033899013414481973 0.034399542688766611 0.021943147394639591 -0.022994039502961611 -0.041921757306481823 0.0061694208220346679
leaf_weight=19 38 31 23 41 47
leaf_count=19 38 31 23 41 47
internal_value=-0.000124435 -0.015413 0.00210485 -0.0309374 0.0198832
internal_weight=199 114 54 60 85
internal_count=199 114 54 60 85
is_linear=0
shrinkage=0.144767


Tree=14
num_leaves=7
num_cat=0
split_feature=721 1366 1928 119 119 19
split_gain=3.45793 3.51802 1.64248 1.3914 0.820066 0.413775
threshold=1.0000000180025095e-35 1.0000000180025095e-35 1.0000000180025095e-35 1.0000000180025095e-35 1.0000000180025095e-35 1.0000000180025095e-35
decision_type=2 2 2 2 2 2
left_child=1 2 -1 -4 5 -3
right_child=-2 4 3 -5 -6 -7
leaf_value=-0.035593072331658669 -0.044654565646576452 0.045980669256510127 0.025793252440298876 -0.020066207898522839 0.0047961893006681884 0.015045526857873585
leaf_weight=35 28 39 26 23 27 21
leaf_count=35 28 39 26 23 27 21
internal_value=-9.95991e-05 0.00771214 -0.0129745 0.00382297 0.027749 0.0368836
internal_weight=199 171 84 49 87 60
internal_count=199 171 84 49 87 60
is_linear=0
shrinkage=0.144767


Tree=15
num_leaves=8
num_cat=0
split_feature=1457 721 1645 699 314 1226 708
split_gain=2.77413 1.79413 1.9905 0.915934 0.472031 0.620947 0.208038
threshold=1.0000000180025095e-35 1.0000000180025095e-35 1.0000000180025095e-35 1.0000000180025095e-35 1.0000000180025095e-35 1.0000000180025095e-35 1.0000000180025095e-35
decision_type=2 2 2 2 2 2 2
left_child=1 2 3 6 5 -4 -1
right_child=-2 -3 4 -5 -6 -7 -8
leaf_value=-0.039979345137100837 0.042905069541153806 -0.040313894404656853 0.03874867438777542 0 0 0.0042148084069681332 -0.0130595022243569
leaf_weight=22 24 25 26 40 21 22 19
leaf_count=22 24 25 26 40 21 22 19
internal_value=-6.50211e-05 -0.00676832 -0.000281944 -0.0155776 0.0171851 0.0246978 -0.029955
internal_weight=199 175 150 81 69 48 41
internal_count=199 175 150 81 69 48 41
is_linear=0
shrinkage=0.144767


Tree=16
num_leaves=7
num_cat=0
split_feature=1905 1391 1405 1171 314 881
split_gain=1.73643 1.36111 0.775327 0.95535 1.58883 2.01181
threshold=1.0000000180025095e-35 1.0000000180025095e-35 1.0000000180025095e-35 1.0000000180025095e-35 1.0000000180025095e-35 1.0000000180025095e-35
decision_type=2 2 2 2 2 2
left_child=1 2 3 4 5 -1
right_child=-2 -3 -4 -5 -6 -7
leaf_value=-0.04249550938312139 0.035434378069276268 0.028296057465091562 0.015184247114053926 0.013238193164344072 0.0062082141202622647 0.005719578495465426
leaf_weight=61 22 19 19 20 35 23
leaf_count=61 22 19 19 20 35 23
internal_value=-6.10031e-05 -0.00516941 -0.00984047 -0.0137171 -0.0186994 -0.0292455
internal_weight=199 177 158 139 119 84
internal_count=199 177 158 139 119 84
is_linear=0
shrinkage=0.144767


Tree=17
num_leaves=8
num_cat=0
split_feature=721 407 1568 80 1911 1686 1683
split_gain=1.74502 1.8062 1.62409 2.06933 1.76243 0.190777 0.076226
threshold=1.0000000180025095e-35 1.0000000180025095e-35 1.0000000180025095e-35 1.0000000180025095e-35 1.0000000180025095e-35 1.0000000180025095e-35 1.0000000180025095e-35
decision_type=2 2 2 2 2 2 2
left_child=1 2 3 -1 6 -3 -5
right_child=-2 5 -4 4 -6 -7 -8
leaf_value=-0.046819402209796905 -0.031489989581665531 0.038680650560907262 0.023344476660828627 0.0057656469082690816 -0.031130461175461113 0.013392750977599784 0.021048927079215862
leaf_weight=24 28 25 32 21 22 20 27
leaf_count=24 28 25 32 21 22 20 27
internal_value=0 0.00571225 -0.00312891 -0.0128917 0 0.0296296 0.0156722
internal_weight=199 171 126 94 70 45 48
internal_count=199 171 126 94 70 45 48
is_linear=0
shrinkage=0.144767


Tree=18
num_leaves=7
num_cat=0
split_feature=492 489 926 329 1536 80
split_gain=2.89991 2.15017 1.44693 1.36096 0.570658 0.394893
threshold=1.0000000180025095e-35 1.0000000180025095e-35 1.0000000180025095e-35 1.0000000180025095e-35 1.0000000180025095e-35 1.0000000180025095e-35
decision_type=2 2 2 2 2 2
left_child=1 2 -1 -3 -5 -4
right_child=-2 3 5 4 -6 -7
leaf_value=-0.053441058343107486 0.04076254874085871 0.028877900397152715 -0.019130063338358771 -0.016520699394825551 0.0099876287852213481 0.0051859012441687466
leaf_weight=23 28 34 32 38 25 19
leaf_count=23 28 34 32 38 25 19
internal_value=0 -0.00719559 -0.0253405 0.00673124 -0.00560698 -0.00978355
internal_weight=199 171 74 97 63 51
internal_count=199 171 74 97 63 51
is_linear=0
shrinkage=0.144767


Tree=19
num_leaves=8
num_cat=0
split_feature=492 1457 489 249 926 699 694
split_gain=2.19321 1.71499 1.51763 1.63593 1.60804 0.714701 0.0570868
threshold=1.0000000180025095e-35 1.0000000180025095e-35 1.0000000180025095e-35 1.0000000180025095e-35 1.0000000180025095e-35 1.0000000180025095e-35 1.0000000180025095e-35
decision_type=2 2 2 2 2 2 2
left_child=1 2 4 -4 -1 -5 -6
right_child=-2 -3 3 5 6 -7 -8
leaf_value=-0.059502966385988405 0.035458165125700471 0.029448382059227281 -0.020944413620994595 0.001879173621258626 -0.003795019219613976 0.037754624932257327 -0.016571122741731687
leaf_weight=20 28 21 37 29 26 19 19
leaf_count=20 28 21 37 29 26 19 19
internal_value=0 -0.00624875 -0.0119305 0.000632508 -0.0280366 0.0180732 -0.0104973
internal_weight=199 171 150 85 65 48 45
internal_count=199 171 150 85 65 48 45
is_linear=0
shrinkage=0.144767


Tree=20
num_leaves=8
num_cat=0
split_feature=1457 1536 1928 926 694 727 1645
split_gain=1.39683 1.24702 1.88218 1.14703 1.07591 0.541118 0.447196
threshold=1.0000000180025095e-35 1.0000000180025095e-35 1.0000000180025095e-35 1.0000000180025095e-35 1.0000000180025095e-35 1.0000000180025095e-35 1.0000000180025095e-35
decision_type=2 2 2 2 2 2 2
left_child=1 3 6 -1 5 -5 -3
right_child=-2 2 -4 4 -6 -7 -8
leaf_value=-0.042754882706373253 0.030663951647066069 -0.020616957919943099 0.03681971340473407 -0.00061356728082947456 0.018723953152022868 -0.035061948623471763 0.0025501480112167271
leaf_weight=23 24 25 27 20 21 19 40
leaf_count=23 24 25 27 20 21 19 40
internal_value=0 -0.00458537 0.00672393 -0.0172309 -0.00536245 -0.019421 -0.00649378
internal_weight=199 175 92 83 60 39 65
internal_count=199 175 92 83 60 39 65
is_linear=0
shrinkage=0.144767


Tree=21
num_leaves=7
num_cat=0
split_feature=1457 1917 1536 1928 216 1145
split_gain=1.06409 1.04383 1.18074 0.987019 0.285574 0.213768
threshold=1.0000000180025095e-35 1.0000000180025095e-35 1.0000000180025095e-35 1.0000000180025095e-35 1.0000000180025095e-35 1.0000000180025095e-35
decision_type=2 2 2 2 2 2
left_child=1 -1 4 5 -3 -4
right_child=-2 2 3 -5 -6 -7
leaf_value=-0.025303114113384685 0.026739816343586315 -0.021329169044406567 0.011130725784604008 0.035991252869878344 -0.0010395296054213209 -0.0061606626683545574
leaf_weight=35 24 33 24 24 30 29
leaf_count=35 24 33 24 24 30 29
internal_value=0 -0.00402638 0.00153848 0.0134908 -0.0125968 0.00135992
internal_weight=199 175 140 77 63 53
internal_count=199 175 140 77 63 53
is_linear=0
shrinkage=0.144767


Tree=22
num_leaves=7
num_cat=0
split_feature=1866 1163 249 1928 926 401
split_gain=0.898058 1.264 0.702957 0.849145 0.417791 0.301081
threshold=1.0000000180025095e-35 1.0000000180025095e-35 1.0000000180025095e-35 1.0000000180025095e-35 1.0000000180025095e-35 1.0000000180025095e-35
decision_type=2 2 2 2 2 2
left_child=1 2 4 5 -1 -4
right_child=-2 -3 3 -5 -6 -7
leaf_value=-0.037791514638472162 0.020430946960653874 0.0234247020818651 0 0.021916641089404915 -0.011020065204916989 -0.021866710591785982
leaf_weight=19 34 25 29 22 48 22
leaf_count=19 34 25 29 22 48 22
internal_value=0 -0.00443931 -0.010015 0 -0.0203638 -0.0102738
internal_weight=199 165 140 73 67 51
internal_count=199 165 140 73 67 51
is_linear=0
shrinkage=0.144767


Tree=23
num_leaves=7
num_cat=0
split_feature=1457 1917 2009 1357 1480 1536
split_gain=0.85826 0.715818 0.789844 0.997169 1.33377 0.529003
threshold=1.0000000180025095e-35 1.0000000180025095e-35 1.0000000180025095e-35 1.0000000180025095e-35 1.0000000180025095e-35 1.0000000180025095e-35
decision_type=2 2 2 2 2 2
left_child=1 -1 3 5 -5 -3
right_child=-2 2 -4 4 -6 -7
leaf_value=-0.021233268994228539 0.024013634101133344 -0.023530266671113846 -0.019285347574745627 0.0011782612910197342 0.047234878791808856 0.0035497735460505403
leaf_weight=35 24 20 28 34 20 38
leaf_count=35 24 20 28 34 20 38
internal_value=0 -0.0036172 0.000963086 0.00665543 0.0203854 -0.00606499
internal_weight=199 175 140 112 54 58
internal_count=199 175 140 112 54 58
is_linear=0
shrinkage=0.144767


Tree=24
num_leaves=7
num_cat=0
split_feature=492 1457 780 2009 841 407
split_gain=1.35025 0.617717 0.482205 0.7357 0.677569 0.374762
threshold=1.0000000180025095e-35 1.0000000180025095e-35 1.0000000180025095e-35 1.0000000180025095e-35 1.0000000180025095e-35 1.0000000180025095e-35
decision_type=2 2 2 2 2 2
left_child=1 2 5 4 -4 -1
right_child=-2 -3 3 -5 -6 -7
leaf_value=-0.025563751134416578 0.027836741734600521 0.016396616976121926 0.029966635746479228 -0.019000806922222033 -0.0031096648465898913 -0.0047621114824961458
leaf_weight=39 28 21 19 23 27 42
leaf_count=39 28 21 19 23 27 42
internal_value=0 -0.00488764 -0.00832471 0.000243716 0.0110321 -0.0156897
internal_weight=199 171 150 69 46 81
internal_count=199 171 150 69 46 81
is_linear=0
shrinkage=0.144767


Tree=25
num_leaves=7
num_cat=0
split_feature=492 1163 161 1457 2009 1928
split_gain=1.01941 0.791306 0.718056 0.723963 0.317303 0.930797
threshold=1.0000000180025095e-35 1.0000000180025095e-35 1.0000000180025095e-35 1.0000000180025095e-35 1.0000000180025095e-35 1.0000000180025095e-35
decision_type=2 2 2 2 2 2
left_child=1 2 3 4 5 -1
right_child=-2 -3 -4 -5 -6 -7
leaf_value=-0.018080321397907537 0.024214377923932873 0.016949446814393015 -0.031681359145570721 0.019760951620412939 -0.021953712233779434 0.012255078519513275
leaf_weight=41 28 27 21 19 26 37
leaf_count=41 28 27 21 19 26 37
internal_value=0 -0.00421906 -0.00865473 -0.00381035 -0.00883013 -0.00343106
internal_weight=199 171 144 123 104 78
internal_count=199 171 144 123 104 78
is_linear=0
shrinkage=0.144767


Tree=26
num_leaves=8
num_cat=0
split_feature=492 80 950 1911 1039 489 1810
split_gain=0.769824 0.750435 1.00082 0.97557 1.16222 0.527569 0.0629645
threshold=1.0000000180025095e-35 1.0000000180025095e-35 1.0000000180025095e-35 1.0000000180025095e-35 1.0000000180025095e-35 1.0000000180025095e-35 1.0000000180025095e-35
decision_type=2 2 2 2 2 2 2
left_child=1 2 5 4 6 -1 -3
right_child=-2 3 -4 -5 -6 -7 -8
leaf_value=-0.015366683549436632 0.021063388373516408 0.032077697441181059 -0.039721213002355156 -0.019434637691129419 -0.012343665287167118 0.011678072026403025 0.014502201905243177
leaf_weight=30 28 24 20 23 23 24 27
leaf_count=30 28 24 20 23 23 24 27
internal_value=0 -0.00364476 -0.0144119 0.00448698 0.012772 -0.00287966 0.0246707
internal_weight=199 171 74 97 74 54 51
internal_count=199 171 74 97 74 54 51
is_linear=0
shrinkage=0.144767


Tree=27
num_leaves=8
num_cat=0
split_feature=407 65 352 489 2009 694 950
split_gain=0.588976 1.23999 1.00083 1.54798 0.919336 0.536858 0.214416
threshold=1.0000000180025095e-35 1.0000000180025095e-35 1.0000000180025095e-35 1.0000000180025095e-35 1.0000000180025095e-35 1.0000000180025095e-35 1.0000000180025095e-35
decision_type=2 2 2 2 2 2 2
left_child=2 -2 3 -1 5 -5 -3
right_child=1 6 -4 4 -6 -7 -8
leaf_value=-0.04356224776064023 0.034496391247950779 0.0056542765653763219 0.022549130828112093 -0.0042895618805266602 -0.023743722710457854 0.02034472251938511 -0.013478157985249097
leaf_weight=21 25 19 19 37 26 30 22
leaf_count=21 25 19 19 37 26 30 22
internal_value=0 0.010952 -0.00545343 -0.0108384 -0.00197531 0.00676301 -0.00421198
internal_weight=199 66 133 114 93 67 41
internal_count=199 66 133 114 93 67 41
is_linear=0
shrinkage=0.144767


Tree=28
num_leaves=7
num_cat=0
split_feature=1911 1866 1163 926 366 708
split_gain=0.40523 1.12476 0.896496 0.259146 0.191774 0.0744266
threshold=1.0000000180025095e-35 1.0000000180025095e-35 1.0000000180025095e-35 1.0000000180025095e-35 1.0000000180025095e-35 1.0000000180025095e-35
decision_type=2 2 2 2 2 2
left_child=1 2 3 -1 5 -5
right_child=-2 -3 -4 4 -6 -7
leaf_value=-0.021729666992359547 -0.016076652209701312 0.028177632483988576 0.021822630043885821 -0.0032442016924770808 -0.010939550880431394 0.0062681020018352969
leaf_weight=20 25 27 23 31 44 29
leaf_count=20 25 27 23 31 44 29
internal_value=0 0.00262109 -0.00238061 -0.00751771 -0.00396704 0.000996927
internal_weight=199 174 147 124 104 60
internal_count=199 174 147 124 104 60
is_linear=0
shrinkage=0.144767


Tree=29
num_leaves=9
num_cat=0
split_feature=407 14 1114 1171 1163 1648 366 656
split_gain=0.43183 0.937044 0.724534 0.920635 1.24634 0.902507 0.278336 0.028916
threshold=1.0000000180025095e-35 1.0000000180025095e-35 1.0000000180025095e-35 1.0000000180025095e-35 1.0000000180025095e-35 1.0000000180025095e-35 1.0000000180025095e-35 1.0000000180025095e-35
decision_type=2 2 2 2 2 2 2 2
left_child=2 -2 3 4 5 7 -3 -1
right_child=1 6 -4 -5 -6 -7 -8 -9
leaf_value=-0.049034794770522076 0.033976048778094507 0.007114847917202561 0.019072389748083961 0.015824908516603849 0.0085650379252552415 -0.0034596646121525321 -0.0138301887788194 -0.023807589850862017
leaf_weight=19 19 27 19 21 28 26 20 20
leaf_count=19 19 27 19 21 28 26 20 20
internal_value=0 0.00935512 -0.00469266 -0.00929686 -0.0155909 -0.0263191 -0.00155296 -0.0395024
internal_weight=199 66 133 114 93 65 47 39
internal_count=199 66 133 114 93 65 47 39
is_linear=0
shrinkage=0.144767


Tree=30
num_leaves=8
num_cat=0
split_feature=1152 407 708 721 841 881 1648
split_gain=0.389094 0.601493 0.802784 0.368069 0.419782 0.157993 0.348902
threshold=1.0000000180025095e-35 1.0000000180025095e-35 1.0000000180025095e-35 1.0000000180025095e-35 1.0000000180025095e-35 1.0000000180025095e-35 1.0000000180025095e-35
decision_type=2 2 2 2 2 2 2
left_child=-1 2 -2 4 -3 6 -4
right_child=1 3 5 -5 -6 -7 -8
leaf_value=0.01690775810380124 -0.031204653505375095 0 -0.015339230244442536 -0.0061444845967334096 0.026805927857598093 0.0078903599272893143 0.0043472591842842424
leaf_weight=22 23 20 34 21 25 21 33
leaf_count=22 23 20 34 21 25 21 33
internal_value=0 -0.00231422 -0.00885121 0.00818057 0.015407 -0.00182775 -0.00548715
internal_weight=199 177 111 66 45 88 67
internal_count=199 177 111 66 45 88 67
is_linear=0
shrinkage=0.144767


Tree=31
num_leaves=6
num_cat=0
split_feature=1928 80 407 366 65
split_gain=0.405576 0.485575 0.75242 0.46516 0.197093
threshold=1.0000000180025095e-35 1.0000000180025095e-35 1.0000000180025095e-35 1.0000000180025095e-35 1.0000000180025095e-35
decision_type=2 2 2 2 2
left_child=1 4 -3 -2 -1
right_child=3 2 -4 -5 -6
leaf_value=-0.0058398475796070607 0.021507539626151793 -0.00814693227546405 0.024165868638847524 -0.00020085401175909639 -0.024197592768583982
leaf_weight=39 29 36 21 51 23
leaf_count=39 29 36 21 51 23
internal_value=0 -0.00525611 0.00393808 0.00785103 -0.0139169
internal_weight=199 119 57 80 62
internal_count=199 119 57 80 62
is_linear=0
shrinkage=0.144767


Tree=32
num_leaves=7
num_cat=0
split_feature=1152 695 1928 1058 1508 721
split_gain=0.312577 0.353931 0.350468 0.277331 0.161173 0.0988054
threshold=1.0000000180025095e-35 1.0000000180025095e-35 1.0000000180025095e-35 1.0000000180025095e-35 1.0000000180025095e-35 1.0000000180025095e-35
decision_type=2 2 2 2 2 2
left_child=-1 -2 4 -4 -3 -6
right_child=1 2 3 -5 5 -7
leaf_value=0.015140143352518452 -0.01413080016062921 -0.01144340909095428 0.018464696422556 0 0.0082649599465858016 -0.0049341052236898664
leaf_weight=22 37 38 30 32 19 21
leaf_count=22 37 38 30 32 19 21
internal_value=0 -0.00208865 0.00114079 0.0091798 -0.00501522 0.000837451
internal_weight=199 177 140 62 78 40
internal_count=199 177 140 62 78 40
is_linear=0
shrinkage=0.144767


Tree=33
num_leaves=6
num_cat=0
split_feature=492 959 708 1911 80
split_gain=0.285208 0.462085 0.654416 0.452809 0.570697
threshold=1.0000000180025095e-35 1.0000000180025095e-35 1.0000000180025095e-35 1.0000000180025095e-35 1.0000000180025095e-35
decision_type=2 2 2 2 2
left_child=1 3 -3 4 -1
right_child=-2 2 -4 -5 -6
leaf_value=-0.0049194508760928941 0.012792068439765408 -0.026700958587328946 0.00078965272007112562 -0.012458786169666388 0.018599121143826863
leaf_weight=33 28 29 37 24 48
leaf_count=33 28 29 37 24 48
internal_value=0 -0.0022479 -0.0115539 0.00351091 0.00886194
internal_weight=199 171 66 105 81
internal_count=199 171 66 105 81
is_linear=0
shrinkage=0.144767


Tree=34
num_leaves=8
num_cat=0
split_feature=407 352 65 249 843 1645 1648
split_gain=0.247515 0.659518 0.650195 0.5855 0.401778 0.0765859 0.00950001
threshold=1.0000000180025095e-35 1.0000000180025095e-35 1.0000000180025095e-35 1.0000000180025095e-35 1.0000000180025095e-35 1.0000000180025095e-35 1.0000000180025095e-35
decision_type=2 2 2 2 2 2 2
left_child=1 3 -2 4 -1 -4 -5
right_child=2 -3 5 6 -6 -7 -8
leaf_value=-0.031223274573771938 0.024176440166410979 0.019077038425982611 0.0015551586444985722 0.0047814913922809982 -0.0059265337254258048 -0.0094677076287577148 0
leaf_weight=24 25 19 20 21 36 21 33
leaf_count=24 25 19 20 21 36 21 33
internal_value=0 -0.00357958 0.00705597 -0.00800414 -0.0175376 -0.00373428 0.00248541
internal_weight=199 133 66 114 60 41 54
internal_count=199 133 66 114 60 41 54
is_linear=0
shrinkage=0.144767


Tree=35
num_leaves=7
num_cat=0
split_feature=283 1911 1617 249 1057 708
split_gain=0.468609 0.357959 0.486588 0.282451 0.453452 0.249113
threshold=1.0000000180025095e-35 1.0000000180025095e-35 1.0000000180025095e-35 1.0000000180025095e-35 1.0000000180025095e-35 1.0000000180025095e-35
decision_type=2 2 2 2 2 2
left_child=1 2 3 4 -1 -5
right_child=-2 -3 -4 5 -6 -7
leaf_value=0.016160366867617459 -0.017669361528901282 -0.012019938811492466 -0.01217982414036963 0.0034465253251905019 -0.0070827930858528808 0.023804456292393982
leaf_weight=26 24 25 23 26 40 35
leaf_count=26 24 25 23 26 40 35
internal_value=0 0.00274722 0.00558635 0.00923413 0.00199098 0.0161555
internal_weight=199 175 150 127 66 61
internal_count=199 175 150 127 66 61
is_linear=0
shrinkage=0.144767


Tree=36
num_leaves=7
num_cat=0
split_feature=1457 1536 1928 699 1508 407
split_gain=0.26036 0.346673 0.444642 0.287998 0.188576 0.0930284
threshold=1.0000000180025095e-35 1.0000000180025095e-35 1.0000000180025095e-35 1.0000000180025095e-35 1.0000000180025095e-35 1.0000000180025095e-35
decision_type=2 2 2 2 2 2
left_child=1 3 4 5 -3 -1
right_child=-2 2 -4 -5 -6 -7
leaf_value=-0.023423134025776768 0.013214529176078077 -0.0097104811788190932 0.018522112199968948 0 0.0049632332694373648 -0.0058229355163609475
leaf_weight=22 24 34 27 42 31 19
leaf_count=22 24 34 27 42 31 19
internal_value=0 -0.00200405 0.00385904 -0.00872877 -0.00239876 -0.0168933
internal_weight=199 175 92 83 65 41
internal_count=199 175 92 83 65 41
is_linear=0
shrinkage=0.144767


Tree=37
num_leaves=7
num_cat=0
split_feature=283 1911 721 2009 1928 80
split_gain=0.3416 0.279766 0.399141 0.276192 0.4174 0.644613
threshold=1.0000000180025095e-35 1.0000000180025095e-35 1.0000000180025095e-35 1.0000000180025095e-35 1.0000000180025095e-35 1.0000000180025095e-35
decision_type=2 2 2 2 2 2
left_child=1 2 3 4 5 -1
right_child=-2 -3 -4 -5 -6 -7
leaf_value=-0.010626993059490216 -0.015128756135683588 -0.010718998906646198 -0.0098769556679687669 -0.0034198641386002844 0.024136271426627328 0.017557254903035575
leaf_weight=29 24 25 27 27 35 32
leaf_count=29 24 25 27 27 35 32
internal_value=0 0.00230322 0.00483074 0.00844542 0.0120653 0.00386134
internal_weight=199 175 150 123 96 61
internal_count=199 175 150 123 96 61
is_linear=0
shrinkage=0.144767


Tree=38
num_leaves=7
num_cat=0
split_feature=407 207 352 489 2009 1617
split_gain=0.270731 0.544905 0.532864 0.54607 0.561431 0.0598056
threshold=1.0000000180025095e-35 1.0000000180025095e-35 1.0000000180025095e-35 1.0000000180025095e-35 1.0000000180025095e-35 1.0000000180025095e-35
decision_type=2 2 2 2 2 2
left_child=2 -2 3 -1 -5 -3
right_child=1 5 -4 4 -6 -7
leaf_value=-0.027333396766462903 0.02607644609646239 0.0029392315432309074 0.016498478162134365 0.004425618109634117 -0.019358310985261432 -0.0065695881210224355
leaf_weight=21 19 26 19 67 26 21
leaf_count=21 19 26 19 67 26 21
internal_value=0 0.00729734 -0.00382458 -0.00780134 -0.00235112 -0.000901349
internal_weight=199 66 133 114 93 47
internal_count=199 66 133 114 93 47
is_linear=0
shrinkage=0.144767


Tree=39
num_leaves=6
num_cat=0
split_feature=1152 407 80 1163 699
split_gain=0.257786 0.385592 0.837571 0.409405 0.520929
threshold=1.0000000180025095e-35 1.0000000180025095e-35 1.0000000180025095e-35 1.0000000180025095e-35 1.0000000180025095e-35
decision_type=2 2 2 2 2
left_child=-1 3 -3 4 -2
right_child=1 2 -4 -5 -6
leaf_value=0.013673848456774254 -0.024149197490153325 -0.0055096187373234922 0.026457919540076032 0.006757557187358678 -0.00086172770487020459
leaf_weight=22 38 42 24 28 45
leaf_count=22 38 42 24 28 45
internal_value=0 -0.00197148 0.00638893 -0.00722496 -0.0123389
internal_weight=199 177 66 111 83
internal_count=199 177 66 111 83
is_linear=0
shrinkage=0.144767


Tree=40
num_leaves=8
num_cat=0
split_feature=1152 80 1224 694 1236 959 1224
split_gain=0.195386 0.205967 0.355322 0.162059 0.0675812 0.0685467 0.0213904
threshold=1.0000000180025095e-35 1.0000000180025095e-35 1.0000000180025095e-35 1.0000000180025095e-35 1.0000000180025095e-35 1.0000000180025095e-35 1.0000000180025095e-35
decision_type=2 2 2 2 2 2 2
left_child=-1 2 -2 -4 5 6 -3
right_child=1 4 3 -5 -6 -7 -8
leaf_value=0.011942238183505956 0.0027683591164394837 0.0022751378815634889 -0.0036843311222697081 -0.023425430095524294 -0.0037484369226341674 -0.00096671744933010824 0.010417512124911163
leaf_weight=22 37 25 21 23 20 22 29
leaf_count=22 37 25 21 23 20 22 29
internal_value=0 -0.00167925 -0.00701599 -0.0154681 0.00262333 0.00473345 0.00746701
internal_weight=199 177 81 44 96 76 54
internal_count=199 177 81 44 96 76 54
is_linear=0
shrinkage=0.144767


Tree=41
num_leaves=7
num_cat=0
split_feature=407 1181 1152 366 1648 216
split_gain=0.200391 0.310176 0.28593 0.244807 0.0417667 0.00673441
threshold=1.0000000180025095e-35 1.0000000180025095e-35 1.0000000180025095e-35 1.0000000180025095e-35 1.0000000180025095e-35 1.0000000180025095e-35
decision_type=2 2 2 2 2 2
left_child=2 -2 -1 4 -4 -5
right_child=1 -3 3 5 -6 -7
leaf_value=0.010429912120234688 0.015008113310528166 -0.0036877250679256488 -0.016698970408246201 0.001988894921033939 -0.0049368102615303137 -0.00093389717196933108
leaf_weight=22 36 30 33 25 22 31
leaf_count=22 36 30 33 25 22 31
internal_value=0 0.00632747 -0.00324215 -0.00640825 -0.012994 0
internal_weight=199 66 133 111 55 56
internal_count=199 66 133 111 55 56
is_linear=0
shrinkage=0.144767


Tree=42
num_leaves=6
num_cat=0
split_feature=492 161 407 843 1224
split_gain=0.207519 0.229431 0.1828 0.215595 0.273286
threshold=1.0000000180025095e-35 1.0000000180025095e-35 1.0000000180025095e-35 1.0000000180025095e-35 1.0000000180025095e-35
decision_type=2 2 2 2 2
left_child=1 2 3 -1 -5
right_child=-2 -3 -4 4 -6
leaf_value=-0.0097080944916717732 0.010849333848851563 -0.01265152242419075 0.0090321718745828769 0.01417996538986727 -0.004687736794807329
leaf_weight=46 28 31 36 24 34
leaf_count=46 28 31 36 24 34
internal_value=0 -0.00197965 0.000415766 -0.00248546 0.00299364
internal_weight=199 171 140 104 58
internal_count=199 171 140 104 58
is_linear=0
shrinkage=0.144767


Tree=43
num_leaves=6
num_cat=0
split_feature=1536 708 1866 959 401
split_gain=0.158861 0.494597 0.345163 0.205521 0.0779777
threshold=1.0000000180025095e-35 1.0000000180025095e-35 1.0000000180025095e-35 1.0000000180025095e-35 1.0000000180025095e-35
decision_type=2 2 2 2 2
left_child=2 4 3 -1 -2
right_child=1 -3 -4 -5 -6
leaf_value=-0.0027057228259250803 0 0.01431030591752783 0.010743572058864746 -0.019232072100192642 -0.010983764414594043
leaf_weight=53 30 48 21 24 23
leaf_count=53 30 48 21 24 23
internal_value=0 0.00395581 -0.00409903 -0.00875665 -0.0052039
internal_weight=199 101 98 77 53
internal_count=199 101 98 77 53
is_linear=0
shrinkage=0.144767


Tree=44
num_leaves=7
num_cat=0
split_feature=1410 1 1236 249 80 950
split_gain=0.153124 0.366221 0.371497 0.42876 0.158749 0.0529704
threshold=1.0000000180025095e-35 1.0000000180025095e-35 1.0000000180025095e-35 1.0000000180025095e-35 1.0000000180025095e-35 1.0000000180025095e-35
decision_type=2 2 2 2 2 2
left_child=1 2 3 5 -5 -1
right_child=-2 -3 -4 4 -6 -7
leaf_value=-0.0063879834579451886 0.010529134826305806 -0.017795215329734115 -0.010764508205414773 0.024468263372502626 0.0064400260329626298 0.0013113044144136014
leaf_weight=36 22 22 38 19 37 25
leaf_count=36 22 22 38 19 37 25
internal_value=0 -0.00152857 0.000913045 0.00511967 0.0140035 -0.00289014
internal_weight=199 177 155 117 56 61
internal_count=199 177 155 117 56 61
is_linear=0
shrinkage=0.144767


Tree=45
num_leaves=7
num_cat=0
split_feature=407 80 65 1171 1163 699
split_gain=0.188661 0.58331 0.336825 0.259475 0.346881 0.413442
threshold=1.0000000180025095e-35 1.0000000180025095e-35 1.0000000180025095e-35 1.0000000180025095e-35 1.0000000180025095e-35 1.0000000180025095e-35
decision_type=2 2 2 2 2 2
left_child=3 2 -2 4 5 -1
right_child=1 -3 -4 -5 -6 -7
leaf_value=-0.020624199042125466 0.0089218057746536673 0.02288153452733321 -0.015048760832240252 0.010196369406831017 0.0067517035210929331 -1.2031989266499644e-05
leaf_weight=41 19 24 23 21 28 43
leaf_count=41 19 24 23 21 28 43
internal_value=0 0.00615073 -0.00372387 -0.00313465 -0.00608593 -0.0107732
internal_weight=199 66 42 133 112 84
internal_count=199 66 42 133 112 84
is_linear=0
shrinkage=0.144767


Tree=46
num_leaves=6
num_cat=0
split_feature=1911 1866 881 216 65
split_gain=0.17539 0.417389 0.317167 0.115469 0.0833007
threshold=1.0000000180025095e-35 1.0000000180025095e-35 1.0000000180025095e-35 1.0000000180025095e-35 1.0000000180025095e-35
decision_type=2 2 2 2 2
left_child=1 2 3 4 -1
right_child=-2 -3 -4 -5 -6
leaf_value=-0.011183677340944392 -0.010571731653360738 0.017317379196345583 0.01303755166295169 0.0018345403676676582 -0.0013094153293361391
leaf_weight=48 25 27 23 36 40
leaf_count=48 25 27 23 36 40
internal_value=0 0.00172916 -0.00125222 -0.00437846 -0.00720041
internal_weight=199 174 147 124 88
internal_count=199 174 147 124 88
is_linear=0
shrinkage=0.144767


Tree=47
num_leaves=7
num_cat=0
split_feature=283 492 207 249 1057 1224
split_gain=0.268263 0.264741 0.427618 0.251127 0.369024 0.204398
threshold=1.0000000180025095e-35 1.0000000180025095e-35 1.0000000180025095e-35 1.0000000180025095e-35 1.0000000180025095e-35 1.0000000180025095e-35
decision_type=2 2 2 2 2 2
left_child=1 2 3 4 -1 -5
right_child=-2 -3 -4 5 -6 -7
leaf_value=0.010364340782962051 -0.013347555332504526 0.016194416046703977 -0.013039790736053455 0 -0.010910535555435159 0.018629293683758222
leaf_weight=26 24 21 37 24 37 30
leaf_count=26 24 21 37 24 37 30
internal_value=0 0.0020994 0 0.00421525 -0.00163514 0.0112406
internal_weight=199 175 154 117 63 54
internal_count=199 175 154 117 63 54
is_linear=0
shrinkage=0.144767


Tree=48
num_leaves=6
num_cat=0
split_feature=283 492 1645 1648 407
split_gain=0.205232 0.201182 0.163054 0.200393 0.110459
threshold=1.0000000180025095e-35 1.0000000180025095e-35 1.0000000180025095e-35 1.0000000180025095e-35 1.0000000180025095e-35
decision_type=2 2 2 2 2
left_child=1 2 4 -4 -1
right_child=-2 -3 3 -5 -6
leaf_value=0 -0.011639438295207688 0.01415576700487527 -0.012793999361554993 0.0041270788821007615 0.010560073545841613
leaf_weight=73 24 21 34 19 28
leaf_count=73 24 21 34 19 28
internal_value=0 0.00187002 0 -0.00634209 0.00333552
internal_weight=199 175 154 53 101
internal_count=199 175 154 53 101
is_linear=0
shrinkage=0.144767


Tree=49
num_leaves=7
num_cat=0
split_feature=1457 389 780 1088 579 249
split_gain=0.181919 0.185743 0.21655 0.169738 0.260319 0.0997952
threshold=1.0000000180025095e-35 1.0000000180025095e-35 1.0000000180025095e-35 1.0000000180025095e-35 1.0000000180025095e-35 1.0000000180025095e-35
decision_type=2 2 2 2 2 2
left_child=1 2 3 -1 -5 -4
right_child=-2 -3 5 4 -6 -7
leaf_value=-0.017773491613778867 0.011148804056101989 0.01028876114926046 -0.0030418464331684056 0.0062149950933630509 -0.01137401943284597 0.007377188380902195
leaf_weight=25 24 20 30 28 35 37
leaf_count=25 24 20 30 28 35 37
internal_value=0 -0.00156794 -0.00344789 -0.00812551 -0.00321312 0.00238892
internal_weight=199 175 155 88 63 67
internal_count=199 175 155 88 63 67
is_linear=0
shrinkage=0.144767


Tree=50
num_leaves=6
num_cat=0
split_feature=1911 1866 322 216 652
split_gain=0.155124 0.320457 0.217428 0.0930641 0.0691118
threshold=1.0000000180025095e-35 1.0000000180025095e-35 1.0000000180025095e-35 1.0000000180025095e-35 1.0000000180025095e-35
decision_type=2 2 2 2 2
left_child=1 2 3 4 -1
right_child=-2 -3 -4 -5 -6
leaf_value=-0.0041767170869103226 -0.0098547165813986874 0.015362885956488687 -0.013901977373237794 0.006758232176717999 0.0040646475040302865
leaf_weight=59 25 27 20 41 27
leaf_count=59 25 27 20 41 27
internal_value=0 0.00170872 -0.00088387 0.00123965 -0.00122559
internal_weight=199 174 147 127 86
internal_count=199 174 147 127 86
is_linear=0
shrinkage=0.144767


Tree=51
num_leaves=6
num_cat=0
split_feature=283 492 959 191 1928
split_gain=0.146871 0.159828 0.202231 0.0933497 0.0182372
threshold=1.0000000180025095e-35 1.0000000180025095e-35 1.0000000180025095e-35 1.0000000180025095e-35 1.0000000180025095e-35
decision_type=2 2 2 2 2
left_child=1 2 3 -1 -5
right_child=-2 -3 -4 4 -6
leaf_value=0.010651210429132517 -0.0098137852349266513 0.01256517309126067 -0.0068236570603914829 -0.0019350096436717055 0.0024575393856452995
leaf_weight=27 24 21 56 25 46
leaf_count=27 24 21 56 25 46
internal_value=0 0.00161255 0 0.00383044 0.000519815
internal_weight=199 175 154 98 71
internal_count=199 175 154 98 71
is_linear=0
shrinkage=0.144767


Tree=52
num_leaves=8
num_cat=0
split_feature=407 80 1152 1163 780 1536 1645
split_gain=0.236742 0.362587 0.19293 0.211118 0.364164 0.0973894 0.00859665
threshold=1.0000000180025095e-35 1.0000000180025095e-35 1.0000000180025095e-35 1.0000000180025095e-35 1.0000000180025095e-35 1.0000000180025095e-35 1.0000000180025095e-35
decision_type=2 2 2 2 2 2 2
left_child=2 6 -1 4 -4 -6 -2
right_child=1 -3 3 -5 5 -7 -8
leaf_value=0.0077338251266748622 -0.0028956270597924635 0.02009302144317824 -0.024539979021040204 0.003877531284394792 -0.0096793323334669404 0.0011506713275393641 0.000347666223356364
leaf_weight=22 21 24 22 28 24 37 21
leaf_count=22 21 24 22 28 24 37 21
internal_value=0 0.00699911 -0.00340015 -0.0060027 -0.00967808 -0.0029434 -0.000747714
internal_weight=199 66 133 111 83 61 42
internal_count=199 66 133 111 83 61 42
is_linear=0
shrinkage=0.144767


Tree=53
num_leaves=7
num_cat=0
split_feature=1951 1928 407 1181 1152 1224
split_gain=0.192073 0.326731 0.252838 0.367769 0.30487 0.0463988
threshold=1.0000000180025095e-35 1.0000000180025095e-35 1.0000000180025095e-35 1.0000000180025095e-35 1.0000000180025095e-35 1.0000000180025095e-35
decision_type=2 2 2 2 2 2
left_child=1 2 4 -4 -1 -3
right_child=-2 5 3 -5 -6 -7
leaf_value=0.0029467888197293145 -0.012298199912137616 0.013707499932610924 0.013424083806260539 -0.0089263848244432939 -0.018214962068013627 0.0043080606888726471
leaf_weight=19 20 31 31 24 33 41
leaf_count=19 20 31 31 24 33 41
internal_value=0 0.00169621 -0.00317151 0.0032383 -0.0102525 0.0091295
internal_weight=199 179 107 55 52 72
internal_count=199 179 107 55 52 72
is_linear=0
shrinkage=0.144767


Tree=54
num_leaves=6
num_cat=0
split_feature=961 1058 1946 739 1855
split_gain=0.122043 0.609661 0.312831 0.0910527 0.01914
threshold=1.0000000180025095e-35 1.0000000180025095e-35 1.0000000180025095e-35 1.0000000180025095e-35 1.0000000180025095e-35
decision_type=2 2 2 2 2
left_child=1 2 3 4 -1
right_child=-2 -3 -4 -5 -6
leaf_value=-0.0044456413666665801 0.010254209576271604 -0.017801389059157107 0.018752891702986732 0.0083515835075811846 0
leaf_weight=32 19 34 19 20 75
leaf_count=32 19 34 19 20 75
internal_value=0 -0.00111743 0.00287553 0 -0.00163252
internal_weight=199 180 146 127 107
internal_count=199 180 146 127 107
is_linear=0
shrinkage=0.144767


Tree=55
num_leaves=6
num_cat=0
split_feature=1951 1928 1181 366 888
split_gain=0.134046 0.284549 0.142813 0.0614491 0.0314179
threshold=1.0000000180025095e-35 1.0000000180025095e-35 1.0000000180025095e-35 1.0000000180025095e-35 1.0000000180025095e-35
decision_type=2 2 2 2 2
left_child=1 2 4 -3 -1
right_child=-2 3 -4 -5 -6
leaf_value=0.002489153073829662 -0.01023977681018463 0.014166077571133872 -0.010567109184473948 0.0038724895834917456 -0.0035294231897956114
leaf_weight=51 20 26 33 46 23
leaf_count=51 20 26 33 46 23
internal_value=0 0.00144806 -0.0030822 0.00839712 0.000190802
internal_weight=199 179 107 72 74
internal_count=199 179 107 72 74
is_linear=0
shrinkage=0.144767


Tree=56
num_leaves=7
num_cat=0
split_feature=407 950 2009 843 1199 1224
split_gain=0.111427 0.363746 0.182282 0.228531 0.241765 0.115338
threshold=1.0000000180025095e-35 1.0000000180025095e-35 1.0000000180025095e-35 1.0000000180025095e-35 1.0000000180025095e-35 1.0000000180025095e-35
decision_type=2 2 2 2 2 2
left_child=2 -2 3 4 -1 -5
right_child=1 -3 -4 5 -6 -7
leaf_value=-0.016654713616347318 0.012865666020450264 -0.0080628326664571714 -0.011863479192420309 0.015781723074998054 0.0012969322769299785 0.00044256278550326982
leaf_weight=21 42 24 29 19 37 27
leaf_count=21 42 24 29 19 37 27
internal_value=0 0.00483305 -0.00229961 0.000378367 -0.00527167 0.0079487
internal_weight=199 66 133 104 58 46
internal_count=199 66 133 104 58 46
is_linear=0
shrinkage=0.144767


Tree=57
num_leaves=8
num_cat=0
split_feature=1457 888 1145 249 1088 1145 1199
split_gain=0.116919 0.117599 0.567974 0.322856 0.243536 0.144739 0.0181086
threshold=1.0000000180025095e-35 1.0000000180025095e-35 1.0000000180025095e-35 1.0000000180025095e-35 1.0000000180025095e-35 1.0000000180025095e-35 1.0000000180025095e-35
decision_type=2 2 2 2 2 2 2
left_child=1 4 3 -3 -1 -6 -7
right_child=-2 2 -4 -5 5 6 -8
leaf_value=-0.016413311156259349 0.0089401866449159047 -0.013042564907836661 0.02100791726380772 0.0074341325474831512 0.0069560299044985115 -0.0088103950395062493 -0.00071780758215615379
leaf_weight=24 24 36 22 23 30 20 20
leaf_count=24 24 36 22 23 30 20 20
internal_value=0 -0.0012544 0.00252086 -0.00464103 -0.00476969 0 -0.0057555
internal_weight=199 175 81 59 94 70 40
internal_count=199 175 81 59 94 70 40
is_linear=0
shrinkage=0.144767


Tree=58
num_leaves=7
num_cat=0
split_feature=283 1911 1935 721 926 687
split_gain=0.13226 0.185114 0.252134 0.13876 0.0712816 0.0405846
threshold=1.0000000180025095e-35 1.0000000180025095e-35 1.0000000180025095e-35 1.0000000180025095e-35 1.0000000180025095e-35 1.0000000180025095e-35
decision_type=2 2 2 2 2 2
left_child=1 2 3 4 -1 -6
right_child=-2 -3 -4 -5 5 -7
leaf_value=-0.0016051993616636223 -0.0093173469606349646 -0.0090247015322002921 0.017985009784981611 -0.0074631698751717376 0.0084805842057423947 0.00027358850260833891
leaf_weight=30 24 25 19 27 47 27
leaf_count=30 24 25 19 27 47 27
internal_value=0 0.00152607 0.00361532 0.000950803 0.00354957 0.00597955
internal_weight=199 175 150 131 104 74
internal_count=199 175 150 131 104 74
is_linear=0
shrinkage=0.144767


Tree=59
num_leaves=8
num_cat=0
split_feature=1410 650 1536 1266 407 80 780
split_gain=0.141449 0.240187 0.336726 0.233718 0.511892 0.14559 0.102106
threshold=1.0000000180025095e-35 1.0000000180025095e-35 1.0000000180025095e-35 1.0000000180025095e-35 1.0000000180025095e-35 1.0000000180025095e-35 1.0000000180025095e-35
decision_type=2 2 2 2 2 2 2
left_child=1 -1 5 4 -4 -3 -7
right_child=-2 2 3 -5 -6 6 -8
leaf_value=-0.014535737238465865 0.010226629768826653 -0.012118225575578919 0.00057536281828770523 -0.0045079494082399833 0.029064540255190337 -0.0069279685728344245 0.0062722913659178214
leaf_weight=22 22 36 36 20 20 20 23
leaf_count=22 22 36 36 20 20 20 23
internal_value=0 -0.00136194 0.000584523 0.00746689 0.0122255 -0.00573083 0
internal_weight=199 177 155 76 56 79 43
internal_count=199 177 155 76 56 79 43
is_linear=0
shrinkage=0.144767


Tree=60
num_leaves=7
num_cat=0
split_feature=1410 1163 1536 1224 687 464
split_gain=0.107503 0.164598 0.242445 0.323981 0.294179 0.257931
threshold=1.0000000180025095e-35 1.0000000180025095e-35 1.0000000180025095e-35 1.0000000180025095e-35 1.0000000180025095e-35 1.0000000180025095e-35
decision_type=2 2 2 2 2 2
left_child=1 2 3 5 -4 -1
right_child=-2 -3 4 -5 -6 -7
leaf_value=-0.009032760203200766 0.00893156331328686 0.0081967220332667384 0.0098626306792391986 -0.020372185934098369 -0.0084436670149527562 0.010802413326484978
leaf_weight=32 22 28 44 28 26 19
leaf_count=32 22 28 44 28 26 19
internal_value=0 -0.00117029 -0.00324631 -0.00867703 0.00261268 -0.000931778
internal_weight=199 177 149 79 70 51
internal_count=199 177 149 79 70 51
is_linear=0
shrinkage=0.144767


Tree=61
num_leaves=7
num_cat=0
split_feature=961 1057 1536 1224 1236 1039
split_gain=0.0883729 0.382058 0.269083 0.534383 0.215929 0.0643209
threshold=1.0000000180025095e-35 1.0000000180025095e-35 1.0000000180025095e-35 1.0000000180025095e-35 1.0000000180025095e-35 1.0000000180025095e-35
decision_type=2 2 2 2 2 2
left_child=1 -1 3 -3 5 -4
right_child=-2 2 4 -5 -6 -7
leaf_value=0.012943535694230398 0.0087109358218057514 0 0.0012732188075819668 -0.02964170926265218 -0.0075923780261427281 0.012078017835305918
leaf_weight=30 19 33 39 19 39 20
leaf_count=30 19 33 39 19 39 20
internal_value=0 -0.000967229 -0.00413971 -0.0122398 0.000131008 0.00580922
internal_weight=199 180 150 52 98 59
internal_count=199 180 150 52 98 59
is_linear=0
shrinkage=0.144767


Tree=62
num_leaves=8
num_cat=0
split_feature=1946 283 489 1568 926 216 721
split_gain=0.0905028 0.129502 0.169561 0.165454 0.112853 0.0438034 0.0321208
threshold=1.0000000180025095e-35 1.0000000180025095e-35 1.0000000180025095e-35 1.0000000180025095e-35 1.0000000180025095e-35 1.0000000180025095e-35 1.0000000180025095e-35
decision_type=2 2 2 2 2 2 2
left_child=1 2 4 5 -1 -4 -6
right_child=-2 -3 3 -5 6 -7 -8
leaf_value=-0.012844516357480783 0.0082186528683706184 -0.011449223642455739 0.011047935490047728 -0.0049325997678498828 0.0030644334165962892 0.0019137316892311996 -0.0042538540944992995
leaf_weight=22 22 19 41 24 22 28 21
leaf_count=22 22 19 41 24 22 28 21
internal_value=0 -0.00104821 0.000229527 0.00430013 -0.0051166 0.00797159 0
internal_weight=199 177 158 93 65 69 43
internal_count=199 177 158 93 65 69 43
is_linear=0
shrinkage=0.144767


Tree=63
num_leaves=8
num_cat=0
split_feature=407 65 1181 2009 561 926 843
split_gain=0.122158 0.343456 0.154815 0.135969 0.240491 0.0885269 0.0661446
threshold=1.0000000180025095e-35 1.0000000180025095e-35 1.0000000180025095e-35 1.0000000180025095e-35 1.0000000180025095e-35 1.0000000180025095e-35 1.0000000180025095e-35
decision_type=2 2 2 2 2 2 2
left_child=3 -2 -3 4 5 -1 -6
right_child=1 2 -4 -5 6 -7 -8
leaf_value=-0.012081516193262381 0.017494277047740543 0.0055514389960628317 -0.010699664238444562 -0.010691743972929043 0 0 0.0098944691417010549
leaf_weight=28 25 19 22 29 22 19 35
leaf_count=28 25 19 22 29 22 19 35
internal_value=0 0.00500837 -0.00268082 -0.00246246 0 -0.00732581 0.00624874
internal_weight=199 66 41 133 104 47 57
internal_count=199 66 41 133 104 47 57
is_linear=0
shrinkage=0.144767


Tree=64
num_leaves=8
num_cat=0
split_feature=1951 780 13 1152 207 1928 843
split_gain=0.0914468 0.23083 0.289993 0.119038 0.101627 0.0889149 0.00666792
threshold=1.0000000180025095e-35 1.0000000180025095e-35 1.0000000180025095e-35 1.0000000180025095e-35 1.0000000180025095e-35 1.0000000180025095e-35 1.0000000180025095e-35
decision_type=2 2 2 2 2 2 2
left_child=1 3 6 -1 5 -5 -3
right_child=-2 2 -4 4 -6 -7 -8
leaf_value=0.0056902238193178101 -0.0085191664892391265 0.0067863790548666559 -0.0058523300700956292 -0.016074133635306277 0 -0.001164504115406864 0.01680892639347336
leaf_weight=22 20 22 19 22 47 20 27
leaf_count=22 20 22 19 22 47 20 27
internal_value=0 0.00113916 0.0076997 -0.00273816 -0.00524625 -0.010166 0.0135232
internal_weight=199 179 68 111 89 42 49
internal_count=199 179 68 111 89 42 49
is_linear=0
shrinkage=0.144767


Tree=65
num_leaves=7
num_cat=0
split_feature=407 65 1911 216 694 1912
split_gain=0.109394 0.263653 0.156102 0.231651 0.114265 0.11398
threshold=1.0000000180025095e-35 1.0000000180025095e-35 1.0000000180025095e-35 1.0000000180025095e-35 1.0000000180025095e-35 1.0000000180025095e-35
decision_type=2 2 2 2 2 2
left_child=2 -2 3 5 -3 -1
right_child=1 4 -4 -5 -6 -7
leaf_value=-0.00026711723394196469 0.015624516193338593 0.0049671130374769204 -0.012203308355925944 0.0080049116103013979 -0.0089678857109210496 -0.013317178508693305
leaf_weight=45 25 19 24 43 22 21
leaf_count=45 25 19 24 43 22 21
internal_value=0 0.0046899 -0.0023807 0 -0.00198747 -0.00523849
internal_weight=199 66 133 109 41 66
internal_count=199 66 133 109 41 66
is_linear=0
shrinkage=0.144767


Tree=66
num_leaves=6
num_cat=0
split_feature=322 283 1057 555 1226
split_gain=0.0777285 0.0977812 0.131304 0.12797 0.0124225
threshold=1.0000000180025095e-35 1.0000000180025095e-35 1.0000000180025095e-35 1.0000000180025095e-35 1.0000000180025095e-35
decision_type=2 2 2 2 2
left_child=1 2 -1 4 -4
right_child=-2 -3 3 -5 -6
leaf_value=0.010607594818611284 -0.0077468936292406608 -0.0067835692145960646 -0.0051769598710322906 0.0070961504523191898 -0.00074496152398257015
leaf_weight=30 21 24 30 37 57
leaf_count=30 21 24 30 37 57
internal_value=0 0.000995885 0.00249666 0.000101752 -0.00270879
internal_weight=199 178 154 124 87
internal_count=199 178 154 124 87
is_linear=0
shrinkage=0.144767


Tree=67
num_leaves=7
num_cat=0
split_feature=407 80 2009 1911 959 959
split_gain=0.0930987 0.294964 0.128975 0.205639 0.132892 0.0124809
threshold=1.0000000180025095e-35 1.0000000180025095e-35 1.0000000180025095e-35 1.0000000180025095e-35 1.0000000180025095e-35 1.0000000180025095e-35
decision_type=2 2 2 2 2 2
left_child=2 5 3 4 -1 -2
right_child=1 -3 -4 -5 -6 -7
leaf_value=0.0088544674169340198 -0.0048582009814188082 0.016197669680620672 -0.01029013908721972 -0.010735705973500214 -0.0022349683991548268 0
leaf_weight=45 21 24 29 24 35 21
leaf_count=45 21 24 29 24 35 21
internal_value=0 0.00425142 -0.0022695 0 0.00376794 -0.00261361
internal_weight=199 66 133 104 80 42
internal_count=199 66 133 104 80 42
is_linear=0
shrinkage=0.144767


Tree=68
num_leaves=7
num_cat=0
split_feature=1457 1 1911 1480 1019 1536
split_gain=0.0871612 0.154306 0.0749552 0.129673 0.280163 0.198233
threshold=1.0000000180025095e-35 1.0000000180025095e-35 1.0000000180025095e-35 1.0000000180025095e-35 1.0000000180025095e-35 1.0000000180025095e-35
decision_type=2 2 2 2 2 2
left_child=1 2 3 5 -5 -1
right_child=-2 -3 -4 4 -6 -7
leaf_value=0 0.0075268614367672553 -0.012062352757072873 -0.0064911876384858265 0.011365096444074655 -0.0072696016461765624 0.017101747184004451
leaf_weight=33 24 21 24 20 56 21
leaf_count=33 24 21 24 20 56 21
internal_value=0 -0.00127267 0.000234192 0.00180857 -0.00175772 0.00713401
internal_weight=199 175 154 130 76 54
internal_count=199 175 154 130 76 54
is_linear=0
shrinkage=0.144767


Tree=69
num_leaves=6
num_cat=0
split_feature=1410 650 1058 1912 708
split_gain=0.084761 0.18945 0.108463 0.144985 0.117173
threshold=1.0000000180025095e-35 1.0000000180025095e-35 1.0000000180025095e-35 1.0000000180025095e-35 1.0000000180025095e-35
decision_type=2 2 2 2 2
left_child=1 -1 3 4 -3
right_child=-2 2 -4 -5 -6
leaf_value=-0.012880887512421727 0.007795836207982223 0.0015543528722920532 -0.0054682130436311616 -0.0037204288130083915 0.013899208180370978
leaf_weight=22 22 50 40 38 27
leaf_count=22 22 50 40 38 27
internal_value=0 -0.00117306 0.00053652 0.00295028 0.00660568
internal_weight=199 177 155 115 77
internal_count=199 177 155 115 77
is_linear=0
shrinkage=0.144767


Tree=70
num_leaves=7
num_cat=0
split_feature=1951 780 1946 407 366 1224
split_gain=0.0941411 0.237493 0.186888 0.117215 0.0361741 0.0142167
threshold=1.0000000180025095e-35 1.0000000180025095e-35 1.0000000180025095e-35 1.0000000180025095e-35 1.0000000180025095e-35 1.0000000180025095e-35
decision_type=2 2 2 2 2 2
left_child=1 2 3 -1 -5 -3
right_child=-2 5 -4 4 -6 -7
leaf_value=-0.010967726826281369 -0.0087550243494404229 0.0026051233856145837 0.0078144904828218349 0.003173800413024288 -0.0045260511020465341 0.0096842018779452546
leaf_weight=45 20 25 22 23 21 43
leaf_count=45 20 25 22 23 21 43
internal_value=0 0.00104398 -0.00289178 -0.00601631 0 0.00770248
internal_weight=199 179 111 89 44 68
internal_count=199 179 111 89 44 68
is_linear=0
shrinkage=0.144767


Tree=71
num_leaves=7
num_cat=0
split_feature=1224 1145 1236 1536 708 401
split_gain=0.0923596 0.190518 0.129674 0.416503 0.0995043 0.0173081
threshold=1.0000000180025095e-35 1.0000000180025095e-35 1.0000000180025095e-35 1.0000000180025095e-35 1.0000000180025095e-35 1.0000000180025095e-35
decision_type=2 2 2 2 2 2
left_child=1 4 3 -2 -1 -4
right_child=2 -3 5 -5 -6 -7
leaf_value=0.0040775528985128682 -0.010213807583636015 0.013097229225745766 -0.0032574184939010622 0.011861165131350163 -0.006717254398688588 -0.012281646688445984
leaf_weight=34 31 26 23 34 30 21
leaf_count=34 31 26 23 34 30 21
internal_value=0 0.00333425 -0.00283292 0.000940091 -0.00064664 -0.00868619
internal_weight=199 90 109 65 64 44
internal_count=199 90 109 65 64 44
is_linear=0
shrinkage=0.144767


Tree=72
num_leaves=8
num_cat=0
split_feature=1410 650 407 489 1951 1935 1648
split_gain=0.0901733 0.152799 0.244586 0.121392 0.0929616 0.12245 0.178478
threshold=1.0000000180025095e-35 1.0000000180025095e-35 1.0000000180025095e-35 1.0000000180025095e-35 1.0000000180025095e-35 1.0000000180025095e-35 1.0000000180025095e-35
decision_type=2 2 2 2 2 2 2
left_child=1 -1 3 -3 5 6 -5
right_child=-2 2 -4 4 -6 -7 -8
leaf_value=-0.011696099931234495 0.0080618364420557108 -0.011465609954171703 0.0096570006894899293 -0.0097995708897217777 -0.0083370983215901671 0.011025892852235224 0.0063326979973461666
leaf_weight=22 22 24 41 25 20 20 25
leaf_count=22 22 24 41 25 20 20 25
internal_value=0 -0.00119031 0.000328461 -0.0029589 -8.13026e-05 0.00215523 -0.00131361
internal_weight=199 177 155 114 90 70 50
internal_count=199 177 155 114 90 70 50
is_linear=0
shrinkage=0.144767


Tree=73
num_leaves=8
num_cat=0
split_feature=1236 1145 1199 119 1480 1480 1039
split_gain=0.0767248 0.326352 0.158682 0.0693279 0.187319 0.0721021 0.116838
threshold=1.0000000180025095e-35 1.0000000180025095e-35 1.0000000180025095e-35 1.0000000180025095e-35 1.0000000180025095e-35 1.0000000180025095e-35 1.0000000180025095e-35
decision_type=2 2 2 2 2 2 2
left_child=1 3 -2 5 -5 6 -1
right_child=2 -3 -4 4 -6 -7 -8
leaf_value=0.0034499279099079075 -0.010158885837838845 0.016139562065844906 0.0043376751812531254 0.0034189345964830541 -0.014159965852997478 0.007649073444504685 -0.0092517542354304885
leaf_weight=32 36 24 21 19 23 22 22
leaf_count=32 36 24 21 19 23 22 22
internal_value=0 0.00173864 -0.00440884 -0.00130455 -0.00590872 0.00102283 -0.00146355
internal_weight=199 142 57 118 42 76 54
internal_count=199 142 57 118 42 76 54
is_linear=0
shrinkage=0.144767


Tree=74
num_leaves=7
num_cat=0
split_feature=1410 1163 1058 389 489 1357
split_gain=0.0761899 0.0953898 0.198133 0.102746 0.214225 0.240578
threshold=1.0000000180025095e-35 1.0000000180025095e-35 1.0000000180025095e-35 1.0000000180025095e-35 1.0000000180025095e-35 1.0000000180025095e-35
decision_type=2 2 2 2 2 2
left_child=1 2 3 4 5 -1
right_child=-2 -3 -4 -5 -6 -7
leaf_value=-0.015564442689269762 0.0074528878088898336 0.0060050661992183344 -0.01255819922899744 0.0090374756727500619 0.0050317147152484573 0.0023266260962977034
leaf_weight=32 22 28 30 19 45 23
leaf_count=32 22 28 30 19 45 23
internal_value=0 -0.0010531 -0.00265886 0 -0.00182669 -0.00788433
internal_weight=199 177 149 119 100 55
internal_count=199 177 149 119 100 55
is_linear=0
shrinkage=0.144767


Tree=75
num_leaves=8
num_cat=0
split_feature=407 950 1171 1114 1935 888 65
split_gain=0.0647701 0.1984 0.134929 0.124933 0.161993 0.0481435 0.0309225
threshold=1.0000000180025095e-35 1.0000000180025095e-35 1.0000000180025095e-35 1.0000000180025095e-35 1.0000000180025095e-35 1.0000000180025095e-35 1.0000000180025095e-35
decision_type=2 2 2 2 2 2 2
left_child=2 6 3 4 5 -1 -2
right_child=1 -3 -4 -5 -6 -7 -8
leaf_value=-0.014260297255014986 0.013411481928744461 -0.0056987086948943836 0.0077381292327309299 0.0053762258370343048 0.0024051765652358427 -0.0042616882531326698 0.0025792052312014575
leaf_weight=33 23 24 21 19 26 34 19
leaf_count=33 23 24 21 19 26 34 19
internal_value=0 0.00366041 -0.00177903 -0.00396753 -0.00627891 -0.0100014 0.00964808
internal_weight=199 66 133 112 93 67 42
internal_count=199 66 133 112 93 67 42
is_linear=0
shrinkage=0.144767


Tree=76
num_leaves=8
num_cat=0
split_feature=959 1536 65 119 1057 407 1840
split_gain=0.0572902 0.172454 0.118348 0.102602 0.0917679 0.143804 0.0265152
threshold=1.0000000180025095e-35 1.0000000180025095e-35 1.0000000180025095e-35 1.0000000180025095e-35 1.0000000180025095e-35 1.0000000180025095e-35 1.0000000180025095e-35
decision_type=2 2 2 2 2 2 2
left_child=4 -2 3 -3 -1 6 -6
right_child=1 2 -4 -5 5 -7 -8
leaf_value=0.010404837008786005 -0.011069611180666444 0.012972205761315974 -0.0063909759213650573 -5.8462166757892736e-05 -0.00072555636247546374 0.0072539096027638477 -0.0081244698448395252
leaf_weight=20 30 20 19 19 36 34 21
leaf_count=20 30 20 19 19 36 34 21
internal_value=0 -0.00260317 0.00166645 0.00643502 0.0022599 0 -0.00419589
internal_weight=199 88 58 39 111 91 57
internal_count=199 88 58 39 111 91 57
is_linear=0
shrinkage=0.144767


Tree=77
num_leaves=6
num_cat=0
split_feature=1457 283 1508 1366 1019
split_gain=0.0640851 0.258763 0.075325 0.0558716 0.081101
threshold=1.0000000180025095e-35 1.0000000180025095e-35 1.0000000180025095e-35 1.0000000180025095e-35 1.0000000180025095e-35
decision_type=2 2 2 2 2
left_child=1 2 3 4 -1
right_child=-2 -3 -4 -5 -6
leaf_value=0.0066618029555714576 0.0066067337411336016 -0.014961927785419982 0.0062809421951424659 -0.0043785638855434149 -0.002829101784135445
leaf_weight=34 24 21 40 49 31
leaf_count=34 24 21 40 49 31
internal_value=0 -0.000941762 0.0010549 -0.000661289 0.00180628
internal_weight=199 175 154 114 65
internal_count=199 175 154 114 65
is_linear=0
shrinkage=0.144767


Tree=78
num_leaves=6
num_cat=0
split_feature=1951 699 1457 695 407
split_gain=0.071707 0.157518 0.165431 0.298453 0.0154072
threshold=1.0000000180025095e-35 1.0000000180025095e-35 1.0000000180025095e-35 1.0000000180025095e-35 1.0000000180025095e-35
decision_type=2 2 2 2 2
left_child=1 2 3 -1 -5
right_child=-2 -3 -4 4 -6
leaf_value=-0.015349545240406479 -0.0075458067612228811 0.0072511787076086215 0.0082508602196970145 -0.0011544498278260199 0.0027376209467285971
leaf_weight=32 20 56 23 29 39
leaf_count=32 20 56 23 29 39
internal_value=0 0.00100689 -0.00172593 -0.00447172 0.00070979
internal_weight=199 179 123 100 68
internal_count=199 179 123 100 68
is_linear=0
shrinkage=0.144767


Tree=79
num_leaves=7
num_cat=0
split_feature=1224 401 1951 708 1357 1855
split_gain=0.0708417 0.135319 0.147383 0.233386 0.0977841 0.160924
threshold=1.0000000180025095e-35 1.0000000180025095e-35 1.0000000180025095e-35 1.0000000180025095e-35 1.0000000180025095e-35 1.0000000180025095e-35
decision_type=2 2 2 2 2 2
left_child=4 2 3 -2 -1 -6
right_child=1 -3 -4 -5 5 -7
leaf_value=-0.0024521164873259182 -0.0062236304102989007 -0.011347497748749285 -0.0098620742095438529 0.010357233746760211 0 0.014626737323167398
leaf_weight=34 25 24 19 41 31 25
leaf_count=34 25 24 19 41 31 25
internal_value=0 -0.00242729 9.17444e-05 0.00367756 0.00297404 0.00669318
internal_weight=199 109 85 66 90 56
internal_count=199 109 85 66 90 56
is_linear=0
shrinkage=0.144767


Tree=80
num_leaves=6
num_cat=0
split_feature=1946 1236 458 959 119
split_gain=0.0651401 0.11794 0.399834 0.0361525 0.0243274
threshold=1.0000000180025095e-35 1.0000000180025095e-35 1.0000000180025095e-35 1.0000000180025095e-35 1.0000000180025095e-35
decision_type=2 2 2 2 2
left_child=1 2 3 4 -1
right_child=-2 -3 -4 -5 -6
leaf_value=-0.0020925812529041122 0.0068595385707563459 -0.0077822382991050917 0.017966606472605718 -0.0054173787049434765 0.0033063098667310909
leaf_weight=48 22 39 21 46 23
leaf_count=48 22 39 21 46 23
internal_value=0 -0.00100455 0.000845029 -0.00238734 0
internal_weight=199 177 138 117 71
internal_count=199 177 138 117 71
is_linear=0
shrinkage=0.144767


Tree=81
num_leaves=6
num_cat=0
split_feature=1058 1946 1536 652 1145
split_gain=0.0734851 0.2098 0.136015 0.16166 0.0692822
threshold=1.0000000180025095e-35 1.0000000180025095e-35 1.0000000180025095e-35 1.0000000180025095e-35 1.0000000180025095e-35
decision_type=2 2 2 2 2
left_child=1 2 -1 4 -4
right_child=-2 -3 3 -5 -6
leaf_value=-0.0058987070722056438 -0.005316067100393243 0.014546185613199739 0.013312177475751797 -0.0054298126344450521 0.0019055652160055387
leaf_weight=57 40 19 23 26 34
leaf_count=57 40 19 23 26 34
internal_value=0 0.00140617 -0.000463915 0.00302523 0.00742603
internal_weight=199 159 140 83 57
internal_count=199 159 140 83 57
is_linear=0
shrinkage=0.144767


Tree=82
num_leaves=6
num_cat=0
split_feature=1224 1145 1645 1508 1236
split_gain=0.0681017 0.140568 0.106192 0.12168 0.0716448
threshold=1.0000000180025095e-35 1.0000000180025095e-35 1.0000000180025095e-35 1.0000000180025095e-35 1.0000000180025095e-35
decision_type=2 2 2 2 2
left_child=1 -1 4 -4 -2
right_child=2 -3 3 -5 -6
leaf_value=-0.00044785181356120959 0.0052654444503045638 0.011303964457471094 -0.01306301331112276 0.00029810345174607986 -0.0040882413266827575
leaf_weight=64 38 26 28 19 24
leaf_count=64 38 26 28 19 24
internal_value=0 0.00291638 -0.00237946 -0.00742841 0.00119576
internal_weight=199 90 109 47 62
internal_count=199 90 109 47 62
is_linear=0
shrinkage=0.144767


Tree=83
num_leaves=5
num_cat=0
split_feature=1058 1457 1508 1224
split_gain=0.0692003 0.191809 0.245117 0.117513
threshold=1.0000000180025095e-35 1.0000000180025095e-35 1.0000000180025095e-35 1.0000000180025095e-35
decision_type=2 2 2 2
left_child=1 2 3 -1
right_child=-2 -3 -4 -5
leaf_value=-0.00055645077393595547 -0.0051337509367759644 0.013637261874134856 0.0082087480002899574 -0.011560083800423412
leaf_weight=66 40 20 42 31
leaf_count=66 40 20 42 31
internal_value=0 0.00138943 -0.000440585 -0.00460335
internal_weight=199 159 139 97
internal_count=199 159 139 97
is_linear=0
shrinkage=0.144767


Tree=84
num_leaves=6
num_cat=0
split_feature=961 1057 1840 1917 1236
split_gain=0.0655035 0.191659 0.200438 0.101298 0.174703
threshold=1.0000000180025095e-35 1.0000000180025095e-35 1.0000000180025095e-35 1.0000000180025095e-35 1.0000000180025095e-35
decision_type=2 2 2 2 2
left_child=1 -1 3 -3 -5
right_child=-2 2 -4 4 -6
leaf_value=0.0088906137031947649 0.007442116810579328 -0.0070030169457449441 -0.014251937086331346 0.0070531483569257663 -0.0052886399722862519
leaf_weight=30 19 34 25 55 36
leaf_count=30 19 34 25 55 36
internal_value=0 -0.00089291 -0.00317356 -0.000445338 0.0018621
internal_weight=199 180 150 125 91
internal_count=199 180 150 125 91
is_linear=0
shrinkage=0.144767


Tree=85
num_leaves=7
num_cat=0
split_feature=1410 1163 1536 1236 1145 708
split_gain=0.0552434 0.15906 0.23042 0.268846 0.170058 0.112816
threshold=1.0000000180025095e-35 1.0000000180025095e-35 1.0000000180025095e-35 1.0000000180025095e-35 1.0000000180025095e-35 1.0000000180025095e-35
decision_type=2 2 2 2 2 2
left_child=1 2 4 -4 5 -1
right_child=-2 -3 3 -5 -6 -7
