tree
version=v4
num_class=1
num_tree_per_iteration=1
label_index=0
max_feature_idx=2047
objective=regression
feature_names=Column_0 Column_1 Column_2 Column_3 Column_4 Column_5 Column_6 Column_7 Column_8 Column_9 Column_10 Column_11 Column_12 Column_13 Column_14 Column_15 Column_16 Column_17 Column_18 Column_19 Column_20 Column_21 Column_22 Column_23 Column_24 Column_25 Column_26 Column_27 Column_28 Column_29 Column_30 Column_31 Column_32 Column_33 Column_34 Column_35 Column_36 Column_37 Column_38 Column_39 Column_40 Column_41 Column_42 Column_43 Column_44 Column_45 Column_46 Column_47 Column_48 Column_49 Column_50 Column_51 Column_52 Column_53 Column_54 Column_55 Column_56 Column_57 Column_58 Column_59 Column_60 Column_61 Column_62 Column_63 Column_64 Column_65 Column_66 Column_67 Column_68 Column_69 Column_70 Column_71 Column_72 Column_73 Column_74 Column_75 Column_76 Column_77 Column_78 Column_79 Column_80 Column_81 Column_82 Column_83 Column_84 Column_85 Column_86 Column_87 Column_88 Column_89 Column_90 Column_91 Column_92 Column_93 Column_94 Column_95 Column_96 Column_97 Column_98 Column_99 Column_100 Column_101 Column_102 Column_103 Column_104 Column_105 Column_106 Column_107 Column_108 Column_109 Column_110 Column_111 Column_112 Column_113 Column_114 Column_115 Column_116 Column_117 Column_118 Column_119 Column_120 Column_121 Column_122 Column_123 Column_124 Column_125 Column_126 Column_127 Column_128 Column_129 Column_130 Column_131 Column_132 Column_133 Column_134 Column_135 Column_136 Column_137 Column_138 Column_139 Column_140 Column_141 Column_142 Column_143 Column_144 Column_145 Column_146 Column_147 Column_148 Column_149 Column_150 Column_151 Column_152 Column_153 Column_154 Column_155 Column_156 Column_157 Column_158 Column_159 Column_160 Column_161 Column_162 Column_163 Column_164 Column_165 Column_166 Column_167 Column_168 Column_169 Column_170 Column_171 Column_172 Column_173 Column_174 Column_175 Column_176 Column_177 Column_178 Column_179 Column_180 Column_181 Column_182 Column_183 Column_184 Column_185 Column_186 Column_187 Column_188 Column_189 Column_190 Column_191 Column_192 Column_193 Column_194 Column_195 Column_196 Column_197 Column_198 Column_199 Column_200 Column_201 Column_202 Column_203 Column_204 Column_205 Column_206 Column_207 Column_208 Column_209 Column_210 Column_211 Column_212 Column_213 Column_214 Column_215 Column_216 Column_217 Column_218 Column_219 Column_220 Column_221 Column_222 Column_223 Column_224 Column_225 Column_226 Column_227 Column_228 Column_229 Column_230 Column_231 Column_232 Column_233 Column_234 Column_235 Column_236 Column_237 Column_238 Column_239 Column_240 Column_241 Column_242 Column_243 Column_244 Column_245 Column_246 Column_247 Column_248 Column_249 Column_250 Column_251 Column_252 Column_253 Column_254 Column_255 Column_256 Column_257 Column_258 Column_259 Column_260 Column_261 Column_262 Column_263 Column_264 Column_265 Column_266 Column_267 Column_268 Column_269 Column_270 Column_271 Column_272 Column_273 Column_274 Column_275 Column_276 Column_277 Column_278 Column_279 Column_280 Column_281 Column_282 Column_283 Column_284 Column_285 Column_286 Column_287 Column_288 Column_289 Column_290 Column_291 Column_292 Column_293 Column_294 Column_295 Column_296 Column_297 Column_298 Column_299 Column_300 Column_301 Column_302 Column_303 Column_304 Column_305 Column_306 Column_307 Column_308 Column_309 Column_310 Column_311 Column_312 Column_313 Column_314 Column_315 Column_316 Column_317 Column_318 Column_319 Column_320 Column_321 Column_322 Column_323 Column_324 Column_325 Column_326 Column_327 Column_328 Column_329 Column_330 Column_331 Column_332 Column_333 Column_334 Column_335 Column_336 Column_337 Column_338 Column_339 Column_340 Column_341 Column_342 Column_343 Column_344 Column_345 Column_346 Column_347 Column_348 Column_349 Column_350 Column_351 Column_352 Column_353 Column_354 Column_355 Column_356 Column_357 Column_358 Column_359 Column_360 Column_361 Column_362 Column_363 Column_364 Column_365 Column_366 Column_367 Column_368 Column_369 Column_370 Column_371 Column_372 Column_373 Column_374 Column_375 Column_376 Column_377 Column_378 Column_379 Column_380 Column_381 Column_382 Column_383 Column_384 Column_385 Column_386 Column_387 Column_388 Column_389 Column_390 Column_391 Column_392 Column_393 Column_394 Column_395 Column_396 Column_397 Column_398 Column_399 Column_400 Column_401 Column_402 Column_403 Column_404 Column_405 Column_406 Column_407 Column_408 Column_409 Column_410 Column_411 Column_412 Column_413 Column_414 Column_415 Column_416 Column_417 Column_418 Column_419 Column_420 Column_421 Column_422 Column_423 Column_424 Column_425 Column_426 Column_427 Column_428 Column_429 Column_430 Column_431 Column_432 Column_433 Column_434 Column_435 Column_436 Column_437 Column_438 Column_439 Column_440 Column_441 Column_442 Column_443 Column_444 Column_445 Column_446 Column_447 Column_448 Column_449 Column_450 Column_451 Column_452 Column_453 Column_454 Column_455 Column_456 Column_457 Column_458 Column_459 Column_460 Column_461 Column_462 Column_463 Column_464 Column_465 Column_466 Column_467 Column_468 Column_469 Column_470 Column_471 Column_472 Column_473 Column_474 Column_475 Column_476 Column_477 Column_478 Column_479 Column_480 Column_481 Column_482 Column_483 Column_484 Column_485 Column_486 Column_487 Column_488 Column_489 Column_490 Column_491 Column_492 Column_493 Column_494 Column_495 Column_496 Column_497 Column_498 Column_499 Column_500 Column_501 Column_502 Column_503 Column_504 Column_505 Column_506 Column_507 Column_508 Column_509 Column_510 Column_511 Column_512 Column_513 Column_514 Column_515 Column_516 Column_517 Column_518 Column_519 Column_520 Column_521 Column_522 Column_523 Column_524 Column_525 Column_526 Column_527 Column_528 Column_529 Column_530 Column_531 Column_532 Column_533 Column_534 Column_535 Column_536 Column_537 Column_538 Column_539 Column_540 Column_541 Column_542 Column_543 Column_544 Column_545 Column_546 Column_547 Column_548 Column_549 Column_550 Column_551 Column_552 Column_553 Column_554 Column_555 Column_556 Column_557 Column_558 Column_559 Column_560 Column_561 Column_562 Column_563 Column_564 Column_565 Column_566 Column_567 Column_568 Column_569 Column_570 Column_571 Column_572 Column_573 Column_574 Column_575 Column_576 Column_577 Column_578 Column_579 Column_580 Column_581 Column_582 Column_583 Column_584 Column_585 Column_586 Column_587 Column_588 Column_589 Column_590 Column_591 Column_592 Column_593 Column_594 Column_595 Column_596 Column_597 Column_598 Column_599 Column_600 Column_601 Column_602 Column_603 Column_604 Column_605 Column_606 Column_607 Column_608 Column_609 Column_610 Column_611 Column_612 Column_613 Column_614 Column_615 Column_616 Column_617 Column_618 Column_619 Column_620 Column_621 Column_622 Column_623 Column_624 Column_625 Column_626 Column_627 Column_628 Column_629 Column_630 Column_631 Column_632 Column_633 Column_634 Column_635 Column_636 Column_637 Column_638 Column_639 Column_640 Column_641 Column_642 Column_643 Column_644 Column_645 Column_646 Column_647 Column_648 Column_649 Column_650 Column_651 Column_652 Column_653 Column_654 Column_655 Column_656 Column_657 Column_658 Column_659 Column_660 Column_661 Column_662 Column_663 Column_664 Column_665 Column_666 Column_667 Column_668 Column_669 Column_670 Column_671 Column_672 Column_673 Column_674 Column_675 Column_676 Column_677 Column_678 Column_679 Column_680 Column_681 Column_682 Column_683 Column_684 Column_685 Column_686 Column_687 Column_688 Column_689 Column_690 Column_691 Column_692 Column_693 Column_694 Column_695 Column_696 Column_697 Column_698 Column_699 Column_700 Column_701 Column_702 Column_703 Column_704 Column_705 Column_706 Column_707 Column_708 Column_709 Column_710 Column_711 Column_712 Column_713 Column_714 Column_715 Column_716 Column_717 Column_718 Column_719 Column_720 Column_721 Column_722 Column_723 Column_724 Column_725 Column_726 Column_727 Column_728 Column_729 Column_730 Column_731 Column_732 Column_733 Column_734 Column_735 Column_736 Column_737 Column_738 Column_739 Column_740 Column_741 Column_742 Column_743 Column_744 Column_745 Column_746 Column_747 Column_748 Column_749 Column_750 Column_751 Column_752 Column_753 Column_754 Column_755 Column_756 Column_757 Column_758 Column_759 Column_760 Column_761 Column_762 Column_763 Column_764 Column_765 Column_766 Column_767 Column_768 Column_769 Column_770 Column_771 Column_772 Column_773 Column_774 Column_775 Column_776 Column_777 Column_778 Column_779 Column_780 Column_781 Column_782 Column_783 Column_784 Column_785 Column_786 Column_787 Column_788 Column_789 Column_790 Column_791 Column_792 Column_793 Column_794 Column_795 Column_796 Column_797 Column_798 Column_799 Column_800 Column_801 Column_802 Column_803 Column_804 Column_805 Column_806 Column_807 Column_808 Column_809 Column_810 Column_811 Column_812 Column_813 Column_814 Column_815 Column_816 Column_817 Column_818 Column_819 Column_820 Column_821 Column_822 Column_823 Column_824 Column_825 Column_826 Column_827 Column_828 Column_829 Column_830 Column_831 Column_832 Column_833 Column_834 Column_835 Column_836 Column_837 Column_838 Column_839 Column_840 Column_841 Column_842 Column_843 Column_844 Column_845 Column_846 Column_847 Column_848 Column_849 Column_850 Column_851 Column_852 Column_853 Column_854 Column_855 Column_856 Column_857 Column_858 Column_859 Column_860 Column_861 Column_862 Column_863 Column_864 Column_865 Column_866 Column_867 Column_868 Column_869 Column_870 Column_871 Column_872 Column_873 Column_874 Column_875 Column_876 Column_877 Column_878 Column_879 Column_880 Column_881 Column_882 Column_883 Column_884 Column_885 Column_886 Column_887 Column_888 Column_889 Column_890 Column_891 Column_892 Column_893 Column_894 Column_895 Column_896 Column_897 Column_898 Column_899 Column_900 Column_901 Column_902 Column_903 Column_904 Column_905 Column_906 Column_907 Column_908 Column_909 Column_910 Column_911 Column_912 Column_913 Column_914 Column_915 Column_916 Column_917 Column_918 Column_919 Column_920 Column_921 Column_922 Column_923 Column_924 Column_925 Column_926 Column_927 Column_928 Column_929 Column_930 Column_931 Column_932 Column_933 Column_934 Column_935 Column_936 Column_937 Column_938 Column_939 Column_940 Column_941 Column_942 Column_943 Column_944 Column_945 Column_946 Column_947 Column_948 Column_949 Column_950 Column_951 Column_952 Column_953 Column_954 Column_955 Column_956 Column_957 Column_958 Column_959 Column_960 Column_961 Column_962 Column_963 Column_964 Column_965 Column_966 Column_967 Column_968 Column_969 Column_970 Column_971 Column_972 Column_973 Column_974 Column_975 Column_976 Column_977 Column_978 Column_979 Column_980 Column_981 Column_982 Column_983 Column_984 Column_985 Column_986 Column_987 Column_988 Column_989 Column_990 Column_991 Column_992 Column_993 Column_994 Column_995 Column_996 Column_997 Column_998 Column_999 Column_1000 Column_1001 Column_1002 Column_1003 Column_1004 Column_1005 Column_1006 Column_1007 Column_1008 Column_1009 Column_1010 Column_1011 Column_1012 Column_1013 Column_1014 Column_1015 Column_1016 Column_1017 Column_1018 Column_1019 Column_1020 Column_1021 Column_1022 Column_1023 Column_1024 Column_1025 Column_1026 Column_1027 Column_1028 Column_1029 Column_1030 Column_1031 Column_1032 Column_1033 Column_1034 Column_1035 Column_1036 Column_1037 Column_1038 Column_1039 Column_1040 Column_1041 Column_1042 Column_1043 Column_1044 Column_1045 Column_1046 Column_1047 Column_1048 Column_1049 Column_1050 Column_1051 Column_1052 Column_1053 Column_1054 Column_1055 Column_1056 Column_1057 Column_1058 Column_1059 Column_1060 Column_1061 Column_1062 Column_1063 Column_1064 Column_1065 Column_1066 Column_1067 Column_1068 Column_1069 Column_1070 Column_1071 Column_1072 Column_1073 Column_1074 Column_1075 Column_1076 Column_1077 Column_1078 Column_1079 Column_1080 Column_1081 Column_1082 Column_1083 Column_1084 Column_1085 Column_1086 Column_1087 Column_1088 Column_1089 Column_1090 Column_1091 Column_1092 Column_1093 Column_1094 Column_1095 Column_1096 Column_1097 Column_1098 Column_1099 Column_1100 Column_1101 Column_1102 Column_1103 Column_1104 Column_1105 Column_1106 Column_1107 Column_1108 Column_1109 Column_1110 Column_1111 Column_1112 Column_1113 Column_1114 Column_1115 Column_1116 Column_1117 Column_1118 Column_1119 Column_1120 Column_1121 Column_1122 Column_1123 Column_1124 Column_1125 Column_1126 Column_1127 Column_1128 Column_1129 Column_1130 Column_1131 Column_1132 Column_1133 Column_1134 Column_1135 Column_1136 Column_1137 Column_1138 Column_1139 Column_1140 Column_1141 Column_1142 Column_1143 Column_1144 Column_1145 Column_1146 Column_1147 Column_1148 Column_1149 Column_1150 Column_1151 Column_1152 Column_1153 Column_1154 Column_1155 Column_1156 Column_1157 Column_1158 Column_1159 Column_1160 Column_1161 Column_1162 Column_1163 Column_1164 Column_1165 Column_1166 Column_1167 Column_1168 Column_1169 Column_1170 Column_1171 Column_1172 Column_1173 Column_1174 Column_1175 Column_1176 Column_1177 Column_1178 Column_1179 Column_1180 Column_1181 Column_1182 Column_1183 Column_1184 Column_1185 Column_1186 Column_1187 Column_1188 Column_1189 Column_1190 Column_1191 Column_1192 Column_1193 Column_1194 Column_1195 Column_1196 Column_1197 Column_1198 Column_1199 Column_1200 Column_1201 Column_1202 Column_1203 Column_1204 Column_1205 Column_1206 Column_1207 Column_1208 Column_1209 Column_1210 Column_1211 Column_1212 Column_1213 Column_1214 Column_1215 Column_1216 Column_1217 Column_1218 Column_1219 Column_1220 Column_1221 Column_1222 Column_1223 Column_1224 Column_1225 Column_1226 Column_1227 Column_1228 Column_1229 Column_1230 Column_1231 Column_1232 Column_1233 Column_1234 Column_1235 Column_1236 Column_1237 Column_1238 Column_1239 Column_1240 Column_1241 Column_1242 Column_1243 Column_1244 Column_1245 Column_1246 Column_1247 Column_1248 Column_1249 Column_1250 Column_1251 Column_1252 Column_1253 Column_1254 Column_1255 Column_1256 Column_1257 Column_1258 Column_1259 Column_1260 Column_1261 Column_1262 Column_1263 Column_1264 Column_1265 Column_1266 Column_1267 Column_1268 Column_1269 Column_1270 Column_1271 Column_1272 Column_1273 Column_1274 Column_1275 Column_1276 Column_1277 Column_1278 Column_1279 Column_1280 Column_1281 Column_1282 Column_1283 Column_1284 Column_1285 Column_1286 Column_1287 Column_1288 Column_1289 Column_1290 Column_1291 Column_1292 Column_1293 Column_1294 Column_1295 Column_1296 Column_1297 Column_1298 Column_1299 Column_1300 Column_1301 Column_1302 Column_1303 Column_1304 Column_1305 Column_1306 Column_1307 Column_1308 Column_1309 Column_1310 Column_1311 Column_1312 Column_1313 Column_1314 Column_1315 Column_1316 Column_1317 Column_1318 Column_1319 Column_1320 Column_1321 Column_1322 Column_1323 Column_1324 Column_1325 Column_1326 Column_1327 Column_1328 Column_1329 Column_1330 Column_1331 Column_1332 Column_1333 Column_1334 Column_1335 Column_1336 Column_1337 Column_1338 Column_1339 Column_1340 Column_1341 Column_1342 Column_1343 Column_1344 Column_1345 Column_1346 Column_1347 Column_1348 Column_1349 Column_1350 Column_1351 Column_1352 Column_1353 Column_1354 Column_1355 Column_1356 Column_1357 Column_1358 Column_1359 Column_1360 Column_1361 Column_1362 Column_1363 Column_1364 Column_1365 Column_1366 Column_1367 Column_1368 Column_1369 Column_1370 Column_1371 Column_1372 Column_1373 Column_1374 Column_1375 Column_1376 Column_1377 Column_1378 Column_1379 Column_1380 Column_1381 Column_1382 Column_1383 Column_1384 Column_1385 Column_1386 Column_1387 Column_1388 Column_1389 Column_1390 Column_1391 Column_1392 Column_1393 Column_1394 Column_1395 Column_1396 Column_1397 Column_1398 Column_1399 Column_1400 Column_1401 Column_1402 Column_1403 Column_1404 Column_1405 Column_1406 Column_1407 Column_1408 Column_1409 Column_1410 Column_1411 Column_1412 Column_1413 Column_1414 Column_1415 Column_1416 Column_1417 Column_1418 Column_1419 Column_1420 Column_1421 Column_1422 Column_1423 Column_1424 Column_1425 Column_1426 Column_1427 Column_1428 Column_1429 Column_1430 Column_1431 Column_1432 Column_1433 Column_1434 Column_1435 Column_1436 Column_1437 Column_1438 Column_1439 Column_1440 Column_1441 Column_1442 Column_1443 Column_1444 Column_1445 Column_1446 Column_1447 Column_1448 Column_1449 Column_1450 Column_1451 Column_1452 Column_1453 Column_1454 Column_1455 Column_1456 Column_1457 Column_1458 Column_1459 Column_1460 Column_1461 Column_1462 Column_1463 Column_1464 Column_1465 Column_1466 Column_1467 Column_1468 Column_1469 Column_1470 Column_1471 Column_1472 Column_1473 Column_1474 Column_1475 Column_1476 Column_1477 Column_1478 Column_1479 Column_1480 Column_1481 Column_1482 Column_1483 Column_1484 Column_1485 Column_1486 Column_1487 Column_1488 Column_1489 Column_1490 Column_1491 Column_1492 Column_1493 Column_1494 Column_1495 Column_1496 Column_1497 Column_1498 Column_1499 Column_1500 Column_1501 Column_1502 Column_1503 Column_1504 Column_1505 Column_1506 Column_1507 Column_1508 Column_1509 Column_1510 Column_1511 Column_1512 Column_1513 Column_1514 Column_1515 Column_1516 Column_1517 Column_1518 Column_1519 Column_1520 Column_1521 Column_1522 Column_1523 Column_1524 Column_1525 Column_1526 Column_1527 Column_1528 Column_1529 Column_1530 Column_1531 Column_1532 Column_1533 Column_1534 Column_1535 Column_1536 Column_1537 Column_1538 Column_1539 Column_1540 Column_1541 Column_1542 Column_1543 Column_1544 Column_1545 Column_1546 Column_1547 Column_1548 Column_1549 Column_1550 Column_1551 Column_1552 Column_1553 Column_1554 Column_1555 Column_1556 Column_1557 Column_1558 Column_1559 Column_1560 Column_1561 Column_1562 Column_1563 Column_1564 Column_1565 Column_1566 Column_1567 Column_1568 Column_1569 Column_1570 Column_1571 Column_1572 Column_1573 Column_1574 Column_1575 Column_1576 Column_1577 Column_1578 Column_1579 Column_1580 Column_1581 Column_1582 Column_1583 Column_1584 Column_1585 Column_1586 Column_1587 Column_1588 Column_1589 Column_1590 Column_1591 Column_1592 Column_1593 Column_1594 Column_1595 Column_1596 Column_1597 Column_1598 Column_1599 Column_1600 Column_1601 Column_1602 Column_1603 Column_1604 Column_1605 Column_1606 Column_1607 Column_1608 Column_1609 Column_1610 Column_1611 Column_1612 Column_1613 Column_1614 Column_1615 Column_1616 Column_1617 Column_1618 Column_1619 Column_1620 Column_1621 Column_1622 Column_1623 Column_1624 Column_1625 Column_1626 Column_1627 Column_1628 Column_1629 Column_1630 Column_1631 Column_1632 Column_1633 Column_1634 Column_1635 Column_1636 Column_1637 Column_1638 Column_1639 Column_1640 Column_1641 Column_1642 Column_1643 Column_1644 Column_1645 Column_1646 Column_1647 Column_1648 Column_1649 Column_1650 Column_1651 Column_1652 Column_1653 Column_1654 Column_1655 Column_1656 Column_1657 Column_1658 Column_1659 Column_1660 Column_1661 Column_1662 Column_1663 Column_1664 Column_1665 Column_1666 Column_1667 Column_1668 Column_1669 Column_1670 Column_1671 Column_1672 Column_1673 Column_1674 Column_1675 Column_1676 Column_1677 Column_1678 Column_1679 Column_1680 Column_1681 Column_1682 Column_1683 Column_1684 Column_1685 Column_1686 Column_1687 Column_1688 Column_1689 Column_1690 Column_1691 Column_1692 Column_1693 Column_1694 Column_1695 Column_1696 Column_1697 Column_1698 Column_1699 Column_1700 Column_1701 Column_1702 Column_1703 Column_1704 Column_1705 Column_1706 Column_1707 Column_1708 Column_1709 Column_1710 Column_1711 Column_1712 Column_1713 Column_1714 Column_1715 Column_1716 Column_1717 Column_1718 Column_1719 Column_1720 Column_1721 Column_1722 Column_1723 Column_1724 Column_1725 Column_1726 Column_1727 Column_1728 Column_1729 Column_1730 Column_1731 Column_1732 Column_1733 Column_1734 Column_1735 Column_1736 Column_1737 Column_1738 Column_1739 Column_1740 Column_1741 Column_1742 Column_1743 Column_1744 Column_1745 Column_1746 Column_1747 Column_1748 Column_1749 Column_1750 Column_1751 Column_1752 Column_1753 Column_1754 Column_1755 Column_1756 Column_1757 Column_1758 Column_1759 Column_1760 Column_1761 Column_1762 Column_1763 Column_1764 Column_1765 Column_1766 Column_1767 Column_1768 Column_1769 Column_1770 Column_1771 Column_1772 Column_1773 Column_1774 Column_1775 Column_1776 Column_1777 Column_1778 Column_1779 Column_1780 Column_1781 Column_1782 Column_1783 Column_1784 Column_1785 Column_1786 Column_1787 Column_1788 Column_1789 Column_1790 Column_1791 Column_1792 Column_1793 Column_1794 Column_1795 Column_1796 Column_1797 Column_1798 Column_1799 Column_1800 Column_1801 Column_1802 Column_1803 Column_1804 Column_1805 Column_1806 Column_1807 Column_1808 Column_1809 Column_1810 Column_1811 Column_1812 Column_1813 Column_1814 Column_1815 Column_1816 Column_1817 Column_1818 Column_1819 Column_1820 Column_1821 Column_1822 Column_1823 Column_1824 Column_1825 Column_1826 Column_1827 Column_1828 Column_1829 Column_1830 Column_1831 Column_1832 Column_1833 Column_1834 Column_1835 Column_1836 Column_1837 Column_1838 Column_1839 Column_1840 Column_1841 Column_1842 Column_1843 Column_1844 Column_1845 Column_1846 Column_1847 Column_1848 Column_1849 Column_1850 Column_1851 Column_1852 Column_1853 Column_1854 Column_1855 Column_1856 Column_1857 Column_1858 Column_1859 Column_1860 Column_1861 Column_1862 Column_1863 Column_1864 Column_1865 Column_1866 Column_1867 Column_1868 Column_1869 Column_1870 Column_1871 Column_1872 Column_1873 Column_1874 Column_1875 Column_1876 Column_1877 Column_1878 Column_1879 Column_1880 Column_1881 Column_1882 Column_1883 Column_1884 Column_1885 Column_1886 Column_1887 Column_1888 Column_1889 Column_1890 Column_1891 Column_1892 Column_1893 Column_1894 Column_1895 Column_1896 Column_1897 Column_1898 Column_1899 Column_1900 Column_1901 Column_1902 Column_1903 Column_1904 Column_1905 Column_1906 Column_1907 Column_1908 Column_1909 Column_1910 Column_1911 Column_1912 Column_1913 Column_1914 Column_1915 Column_1916 Column_1917 Column_1918 Column_1919 Column_1920 Column_1921 Column_1922 Column_1923 Column_1924 Column_1925 Column_1926 Column_1927 Column_1928 Column_1929 Column_1930 Column_1931 Column_1932 Column_1933 Column_1934 Column_1935 Column_1936 Column_1937 Column_1938 Column_1939 Column_1940 Column_1941 Column_1942 Column_1943 Column_1944 Column_1945 Column_1946 Column_1947 Column_1948 Column_1949 Column_1950 Column_1951 Column_1952 Column_1953 Column_1954 Column_1955 Column_1956 Column_1957 Column_1958 Column_1959 Column_1960 Column_1961 Column_1962 Column_1963 Column_1964 Column_1965 Column_1966 Column_1967 Column_1968 Column_1969 Column_1970 Column_1971 Column_1972 Column_1973 Column_1974 Column_1975 Column_1976 Column_1977 Column_1978 Column_1979 Column_1980 Column_1981 Column_1982 Column_1983 Column_1984 Column_1985 Column_1986 Column_1987 Column_1988 Column_1989 Column_1990 Column_1991 Column_1992 Column_1993 Column_1994 Column_1995 Column_1996 Column_1997 Column_1998 Column_1999 Column_2000 Column_2001 Column_2002 Column_2003 Column_2004 Column_2005 Column_2006 Column_2007 Column_2008 Column_2009 Column_2010 Column_2011 Column_2012 Column_2013 Column_2014 Column_2015 Column_2016 Column_2017 Column_2018 Column_2019 Column_2020 Column_2021 Column_2022 Column_2023 Column_2024 Column_2025 Column_2026 Column_2027 Column_2028 Column_2029 Column_2030 Column_2031 Column_2032 Column_2033 Column_2034 Column_2035 Column_2036 Column_2037 Column_2038 Column_2039 Column_2040 Column_2041 Column_2042 Column_2043 Column_2044 Column_2045 Column_2046 Column_2047
feature_infos=none [0:1] [0:1] none [0:1] [0:1] none none none none [0:1] none none [0:1] [0:1] none none none none [0:1] [0:1] none none none none [0:1] none none none [0:1] none none [0:1] none [0:1] none none [0:1] [0:1] [0:1] none [0:1] none [0:1] none [0:1] none none none [0:1] none none none none none none none [0:1] [0:1] none none none none none none [0:1] none none none none none none none none [0:1] none none none none none [0:1] none none [0:1] none none [0:1] [0:1] none none [0:1] none [0:1] none [0:1] none none [0:1] none none none none [0:1] none none none none [0:1] [0:1] [0:1] [0:1] none none [0:1] [0:1] [0:1] [0:1] [0:1] none [0:1] none [0:1] [0:1] [0:1] none none none none none none [0:1] none none none none [0:1] none none [0:1] none none none none none none [0:1] none [0:1] [0:1] none [0:1] none [0:1] none none [0:1] none [0:1] none none [0:1] [0:1] none none none [0:1] none none [0:1] none none none none none none none none none none none none none none none [0:1] none none none none [0:1] none [0:1] [0:1] [0:1] none none none [0:1] [0:1] none [0:1] none none none none none none [0:1] none [0:1] none [0:1] none none none none [0:1] none none none none none [0:1] none none [0:1] [0:1] none none none [0:1] [0:1] none [0:1] none [0:1] none [0:1] none none none none [0:1] none none [0:1] none none none [0:1] none none none none none [0:1] none none none none none none [0:1] [0:1] none none none [0:1] [0:1] none [0:1] [0:1] none none none none none [0:1] [0:1] none none none none [0:1] none none none [0:1] none [0:1] none none none [0:1] [0:1] none none none none none none [0:1] none none none [0:1] none [0:1] none none [0:1] none none none [0:1] [0:1] none none none [0:1] none none [0:1] [0:1] none [0:1] none [0:1] none [0:1] none none none [0:1] none [0:1] none none [0:1] none none [0:1] none [0:1] none none none none none none [0:1] none [0:1] none none none none none none none [0:1] [0:1] none none none none [0:1] none none [0:1] [0:1] none none [0:1] none none none [0:1] [0:1] none none [0:1] [0:1] [0:1] [0:1] [0:1] none [0:1] [0:1] [0:1] none none [0:1] none [0:1] [0:1] none none none none none [0:1] none none none none none [0:1] [0:1] [0:1] none none [0:1] none none none none none none [0:1] [0:1] none none none none [0:1] none none [0:1] none [0:1] none none none none none none none [0:1] none [0:1] [0:1] [0:1] [0:1] none none [0:1] none [0:1] none none none [0:1] none none none none none [0:1] none none none none [0:1] [0:1] [0:1] none none none none [0:1] [0:1] none [0:1] none none none none [0:1] [0:1] none [0:1] [0:1] none none none [0:1] none [0:1] [0:1] none [0:1] [0:1] none none none [0:1] none none [0:1] none [0:1] [0:1] none none none none [0:1] none none [0:1] [0:1] none none none none none none none [0:1] none none none [0:1] [0:1] none [0:1] [0:1] none none none none none none none none [0:1] none none none none [0:1] none none [0:1] none none none [0:1] none none none [0:1] none [0:1] [0:1] [0:1] none [0:1] none [0:1] [0:1] [0:1] none [0:1] [0:1] none none none [0:1] [0:1] none none [0:1] [0:1] [0:1] none none none [0:1] none none none none none [0:1] [0:1] none [0:1] [0:1] [0:1] none [0:1] none none [0:1] none none none [0:1] none none none none none none [0:1] none none [0:1] none none none none none none none none none none none none none [0:1] none none none none none [0:1] none none none none none none none [0:1] none none [0:1] none [0:1] none none none none none none none [0:1] none [0:1] [0:1] none none [0:1] none none none none none none none none none [0:1] [0:1] none none none none none [0:1] [0:1] [0:1] none none [0:1] [0:1] [0:1] none none none none none none [0:1] none [0:1] [0:1] none [0:1] [0:1] [0:1] [0:1] none none none [0:1] none none none [0:1] none none none none [0:1] none [0:1] [0:1] none [0:1] [0:1] [0:1] [0:1] none [0:1] [0:1] [0:1] [0:1] none none [0:1] none [0:1] none [0:1] none [0:1] none none none none none [0:1] none none [0:1] none none none [0:1] [0:1] [0:1] none [0:1] none [0:1] none none none [0:1] none none none [0:1] none none none none [0:1] none none none [0:1] none none [0:1] [0:1] none none none none none [0:1] [0:1] none none [0:1] [0:1] [0:1] none [0:1] [0:1] none [0:1] none [0:1] [0:1] none none none [0:1] none none none [0:1] none [0:1] none [0:1] [0:1] none none [0:1] [0:1] none [0:1] none none none none none none [0:1] none none none none none none none none none none none none [0:1] none [0:1] none none [0:1] none none none [0:1] none none [0:1] none [0:1] [0:1] none none [0:1] [0:1] [0:1] none none none none none none none [0:1] none none none none none none none [0:1] none none none none none none none [0:1] none [0:1] [0:1] none [0:1] [0:1] none [0:1] none none none none none [0:1] [0:1] none [0:1] none [0:1] [0:1] none none [0:1] none [0:1] [0:1] none [0:1] none [0:1] none none none none none [0:1] none none none [0:1] none [0:1] none none [0:1] [0:1] none none [0:1] none none [0:1] [0:1] [0:1] none none none none [0:1] none [0:1] [0:1] none none none none none none none none [0:1] none [0:1] [0:1] none none [0:1] none none [0:1] none [0:1] none none [0:1] [0:1] [0:1] [0:1] none none [0:1] [0:1] none [0:1] none [0:1] none none none none [0:1] none none none none none [0:1] none [0:1] none [0:1] [0:1] none none none none none [0:1] [0:1] [0:1] none none none none none [0:1] none none [0:1] none [0:1] none none none [0:1] [0:1] none [0:1] none [0:1] [0:1] none none [0:1] none [0:1] none [0:1] none none none none none none [0:1] none none none [0:1] none [0:1] none none none none [0:1] none none none [0:1] [0:1] none none none [0:1] [0:1] [0:1] [0:1] [0:1] [0:1] none none [0:1] [0:1] [0:1] none [0:1] none none none none [0:1] [0:1] none none none none none none none none [0:1] [0:1] [0:1] none none none none [0:1] none none [0:1] [0:1] [0:1] [0:1] none none none none none none [0:1] [0:1] [0:1] none [0:1] none [0:1] none [0:1] [0:1] none none none [0:1] none [0:1] none none none [0:1] none none none none none none none none none none none none none [0:1] none none none [0:1] none none [0:1] [0:1] none [0:1] none [0:1] [0:1] none none none [0:1] none [0:1] none [0:1] none none [0:1] none none [0:1] none [0:1] none none [0:1] none [0:1] [0:1] [0:1] none none [0:1] [0:1] none none [0:1] [0:1] [0:1] none [0:1] none none none none none [0:1] [0:1] none none [0:1] [0:1] none none none none [0:1] [0:1] none none [0:1] none [0:1] none [0:1] none [0:1] none none none none none none [0:1] none [0:1] none none none none none none none [0:1] none none none [0:1] none [0:1] none [0:1] none [0:1] none none none [0:1] none none none [0:1] none [0:1] none none none [0:1] [0:1] none [0:1] none none none [0:1] none none none none none [0:1] [0:1] [0:1] none [0:1] [0:1] [0:1] [0:1] none [0:1] none [0:1] [0:1] [0:1] none [0:1] none none none [0:1] [0:1] none none none none [0:1] none none none none [0:1] none none [0:1] none [0:1] [0:1] [0:1] none [0:1] [0:1] none none none none none none none [0:1] none none [0:1] none [0:1] [0:1] [0:1] none [0:1] [0:1] [0:1] none none none [0:1] none none none none none [0:1] [0:1] none none none [0:1] none none none [0:1] none [0:1] none none [0:1] none none [0:1] none none [0:1] none none [0:1] none [0:1] none none none none none none none [0:1] none none none none none none none [0:1] [0:1] [0:1] none none [0:1] none none none none none none [0:1] none none none none [0:1] none [0:1] [0:1] [0:1] none none none none [0:1] none none [0:1] [0:1] none none none none none [0:1] none none none [0:1] none [0:1] none [0:1] [0:1] none none [0:1] none [0:1] none [0:1] none none none none [0:1] [0:1] none none none [0:1] none none [0:1] none none none [0:1] none [0:1] [0:1] none none [0:1] [0:1] [0:1] [0:1] none [0:1] [0:1] [0:1] none none none none [0:1] [0:1] [0:1] none none [0:1] none [0:1] none none none [0:1] none [0:1] none none none [0:1] none none [0:1] none none [0:1] [0:1] none none none [0:1] none [0:1] [0:1] none none none [0:1] [0:1] none none none none none none [0:1] none none [0:1] none none none [0:1] none none none [0:1] none [0:1] none none none none none none none [0:1] none [0:1] none none [0:1] [0:1] none [0:1] none [0:1] none none [0:1] none none none none none [0:1] [0:1] none none none none none [0:1] none none none none none none none none none none none none none none none none none none none none none [0:1] none none [0:1] [0:1] [0:1] none [0:1] [0:1] [0:1] none none none none none none none [0:1] [0:1] none none none [0:1] [0:1] none [0:1] none none [0:1] none none none none [0:1] none none [0:1] none [0:1] [0:1] [0:1] none none [0:1] [0:1] [0:1] [0:1] [0:1] [0:1] none none none none [0:1] none [0:1] none none none none none none none none none [0:1] none [0:1] [0:1] none [0:1] none none [0:1] none none none none none none none [0:1] none none [0:1] none none [0:1] none [0:1] none none none [0:1] none none none [0:1] none none none none none none [0:1] none [0:1] [0:1] none none none none none none [0:1] none none none none [0:1] none none [0:1] none none [0:1] none [0:1] [0:1] [0:1] none none [0:1] none [0:1] none none none none none none none none none [0:1] none none none [0:1] none none none none none [0:1] none none none [0:1] [0:1] [0:1] none none none none [0:1] none none none none [0:1] none [0:1] none [0:1] [0:1] none none none none none [0:1] none [0:1] none none [0:1] none none none [0:1] none [0:1] none [0:1] [0:1] none none [0:1] none none [0:1] none none none none none [0:1] none [0:1] none none [0:1] none [0:1] none [0:1] none none [0:1] none none none none none none [0:1] [0:1] none [0:1] none [0:1] none [0:1] none none none [0:1] none none none none none none none [0:1] [0:1] none none none [0:1] none [0:1] none none [0:1] none none none [0:1] [0:1] [0:1] none none [0:1] none none [0:1] none [0:1] none none none none none [0:1] [0:1] none none none none [0:1] none none none [0:1] none none none none [0:1] [0:1] [0:1] none none none [0:1] none [0:1] none none none [0:1] none none none none none none none none none none none none [0:1] [0:1] none none none none none none none none none [0:1] none [0:1] none none none [0:1] [0:1] none none none none none none none [0:1] none none none none [0:1] [0:1] [0:1] none none [0:1] none [0:1] none none [0:1] none none [0:1] none none [0:1] none [0:1] [0:1] none none none none [0:1] none none none none [0:1] [0:1] none none none none [0:1] [0:1] none [0:1] none none [0:1] none none [0:1] [0:1] [0:1] none [0:1] [0:1] [0:1] [0:1] none [0:1] none none none none none [0:1] [0:1] [0:1] none none none none none none [0:1] none none none [0:1] none [0:1] [0:1] none none none [0:1] [0:1] [0:1] none [0:1] none none none none [0:1] none none [0:1] none none [0:1] none none none none [0:1] none none none none none none none [0:1] [0:1] none [0:1] [0:1] none none [0:1] none none [0:1] [0:1] none [0:1] none none [0:1] [0:1] none none none none none none none [0:1] [0:1] none none none [0:1]
tree_sizes=3023 3736 3449 3505 3815 3326 3520 3951 3974 3559 3598 3640 3560 4157 4018 3988 3230 2479 2909 3370 3155 2829 2571 3044 3103 2946 3066 3083 2390 3135 2893 3085 2634 2950 2562 2632 2249 2809 2564 2771 2283 2987 2023 2156 2509 2068 2201 2556 2126 2483 2011 2454 2038 1998 2112 2335 1643 1983 1945 2355 1971 1602 1720 1658 1809 1700 1489 1896 1923 1052 1090 1579 1731 1800 1866 1532 1294 1486 1798 1622 750 1506 1416 1620 1133 1150 1077

Tree=0
num_leaves=31
num_cat=0
split_feature=1617 491 1993 980 1482 161 629 1445 323 222 1722 961 361 1845 45 673 959 443 216 1136 629 523 656 1266 310 623 675 785 674 1609
split_gain=68.7692 38.6664 25.3935 13.249 15.1762 13.1788 10.1857 8.93311 8.08618 7.10487 6.45898 5.42296 6.6434 5.21497 3.06238 2.96882 2.6402 3.24264 1.81197 3.83014 1.7069 1.51877 1.43355 1.16584 1.10838 0.567172 0.550779 0.267586 0.187493 0.166867
threshold=1.0000000180025095e-35 1.0000000180025095e-35 1.0000000180025095e-35 1.0000000180025095e-35 1.0000000180025095e-35 1.0000000180025095e-35 1.0000000180025095e-35 1.0000000180025095e-35 1.0000000180025095e-35 1.0000000180025095e-35 1.0000000180025095e-35 1.0000000180025095e-35 1.0000000180025095e-35 1.0000000180025095e-35 1.0000000180025095e-35 1.0000000180025095e-35 1.0000000180025095e-35 1.0000000180025095e-35 1.0000000180025095e-35 1.0000000180025095e-35 1.0000000180025095e-35 1.0000000180025095e-35 1.0000000180025095e-35 1.0000000180025095e-35 1.0000000180025095e-35 1.0000000180025095e-35 1.0000000180025095e-35 1.0000000180025095e-35 1.0000000180025095e-35 1.0000000180025095e-35
decision_type=2 2 2 2 2 2 2 2 2 2 2 2 2 2 2 2 2 2 2 2 2 2 2 2 2 2 2 2 2 2
left_child=1 8 3 4 6 -2 10 -4 9 11 15 12 24 -7 21 23 17 22 26 20 -20 25 29 -3 -1 -5 -6 -8 -11 -10
right_child=5 2 7 14 18 13 27 -9 16 28 -12 -13 -14 -15 -16 -17 -18 -19 19 -21 -22 -23 -24 -25 -26 -27 -28 -29 -30 -31
leaf_value=7.2543196420397544 7.1974317193291713 7.5240145234398579 7.184979148374369 7.4672710203923831 7.4687095234602703 7.2693814036056992 7.419381300520886 7.4148803462081219 7.4161411357722979 7.3979678392881478 7.377086568932655 7.4300717457291796 7.4197799073788113 7.4285883814509823 7.3368632262563764 7.5801895584751069 7.4674941394691965 7.3016072129265392 7.4496291165646298 7.2855499211272905 7.3579148640538081 7.3697912463633841 7.3655748320340528 7.4556826045197662 7.3445647285125215 7.4107871578226954 7.4036654382944107 7.3849379779843742 7.4247609612529191 7.4571847473110653
leaf_weight=35 36 68 6.9999999999999982 10.000000000000004 6.0000000000000018 4.9999999999999973 8.9999999999999982 6 7.0000000000000053 11 4.9999999999999991 5.9999999999999991 6.9999999999999991 11 10.999999999999998 38 11.999999999999998 4.9999999999999991 10.000000000000002 4.9999999999999991 4.9999999999999991 5.9999999999999991 5.9999999999999991 12.999999999999998 8.9999999999999982 8 5 6.9999999999999991 8 7
leaf_count=35 36 68 7 10 6 5 9 6 7 11 5 6 7 11 11 38 12 5 10 5 5 6 6 13 9 8 5 7 8 7
internal_value=7.40367 7.42935 7.46626 7.47961 7.49676 7.24586 7.51766 7.27703 7.35813 7.33056 7.53206 7.30477 7.28924 7.36844 7.39555 7.53909 7.41543 7.38751 7.40139 7.37484 7.41613 7.42559 7.4171 7.51505 7.26841 7.4467 7.4451 7.40367 7.40971 7.44241
internal_weight=384 332 219 206 171 52 140 13 113 76 124 57 51 16 35 119 37 25 31 20 15 24 20 81 44 18 11 16 19 14
internal_count=384 332 219 206 171 52 140 13 113 76 124 57 51 16 35 119 37 25 31 20 15 24 20 81 44 18 11 16 19 14
is_linear=0
shrinkage=1


Tree=1
num_leaves=36
num_cat=0
split_feature=1617 491 58 1249 1480 1441 161 1452 898 623 1845 909 926 896 57 673 934 289 780 1136 1928 216 216 1410 486 1104 1480 389 366 29 80 1482 922 699 675
split_gain=50.809 28.1786 25.2244 10.0482 12.7938 11.3762 9.39087 6.62883 5.50459 4.4557 4.17617 4.08196 4.6959 5.04173 3.2446 3.19868 3.0426 2.80435 2.23977 2.21591 3.07516 1.24465 1.0457 0.97802 0.66967 0.771421 0.939385 1.03099 0.58468 0.574214 0.354649 0.334884 0.326687 0.318843 0.220021
threshold=1.0000000180025095e-35 1.0000000180025095e-35 1.0000000180025095e-35 1.0000000180025095e-35 1.0000000180025095e-35 1.0000000180025095e-35 1.0000000180025095e-35 1.0000000180025095e-35 1.0000000180025095e-35 1.0000000180025095e-35 1.0000000180025095e-35 1.0000000180025095e-35 1.0000000180025095e-35 1.0000000180025095e-35 1.0000000180025095e-35 1.0000000180025095e-35 1.0000000180025095e-35 1.0000000180025095e-35 1.0000000180025095e-35 1.0000000180025095e-35 1.0000000180025095e-35 1.0000000180025095e-35 1.0000000180025095e-35 1.0000000180025095e-35 1.0000000180025095e-35 1.0000000180025095e-35 1.0000000180025095e-35 1.0000000180025095e-35 1.0000000180025095e-35 1.0000000180025095e-35 1.0000000180025095e-35 1.0000000180025095e-35 1.0000000180025095e-35 1.0000000180025095e-35 1.0000000180025095e-35
decision_type=2 2 2 2 2 2 2 2 2 2 2 2 2 2 2 2 2 2 2 2 2 2 2 2 2 2 2 2 2 2 2 2 2 2 2
left_child=1 7 3 4 11 9 34 22 14 18 -8 12 13 15 23 33 17 31 21 20 32 -6 30 24 25 26 -9 29 -10 -28 -1 -7 -14 -3 -2
right_child=6 2 -4 -5 5 16 10 8 28 -11 -12 -13 19 -15 -16 -17 -18 -19 -20 -21 -22 -23 -24 -25 -26 -27 27 -29 -30 -31 -32 -33 -34 -35 -36
leaf_value=-0.13894552074589991 -0.18715189018728873 -0.082880295436441417 -0.17822749788081002 0.18380427323094659 0.10411339387960171 0.082527468319123054 -0.12061136430938529 -0.056453814334692445 -0.041883877308030337 0.0037438244502087325 0.021833515115687947 0.11091841208105799 0.030670676079235699 0.081821606053219531 -0.087733511677296372 0.024234982414459552 -0.073938378464450158 -0.040512845570271745 0.17083135089010223 -0.017922735727546095 0.1333525705058424 0.019252376582699533 -0.020659060202212851 0.046833196239607487 0.041620445420326509 0.028447298499328522 -0.02713704027083123 0.044672299664143579 -0.13215412353561024 0.021674140420183327 -0.063680738862144079 0.020626672216377033 -0.014022268681242078 -0.024691068834705673 -0.07143600026956054
leaf_weight=12.000000000000004 31 26 7.9999999999999991 12.999999999999998 61 8.0000000000000053 4.9999999999999973 6.9999999999999991 6.9999999999999982 8.9999999999999982 11 4.9999999999999991 5.0000000000000018 4.9999999999999991 5.9999999999999991 7.9999999999999991 6.9999999999999991 6.9999999999999991 19 8.0000000000000018 6.9999999999999991 5.9999999999999991 4.9999999999999991 11.999999999999998 5.9999999999999991 9.9999999999999982 20.000000000000007 5.9999999999999991 6 4.9999999999999991 11 5.9999999999999991 5 5.9999999999999991 4.9999999999999991
leaf_count=12 31 26 8 13 61 8 5 7 7 9 11 5 5 5 6 8 7 7 19 8 7 6 5 12 6 10 20 6 6 5 11 6 5 6 5
internal_value=-0.000376127 0.0216676 0.0531796 0.063952 0.0538759 0.0834602 -0.13605 -0.0391159 -0.01668 0.107903 -0.031966 0.00407741 -0.00683102 -0.0356209 0.000690301 -0.0544847 -0.00100554 0.02786 0.118241 0.0430401 0.0711044 0.0976581 -0.0999805 0.0117695 0.002044 -0.0043941 -0.0145771 -0.00127808 -0.0987317 -0.0158047 -0.113043 0.0638401 0.00882179 -0.0748955 -0.176989
internal_weight=384 332 219 211 198 123 52 113 85 95 16 75 70 45 72 40 28 21 86 25 17 67 28 66 54 48 38 31 13 25 23 14 10 32 36
internal_count=384 332 219 211 198 123 52 113 85 95 16 75 70 45 72 40 28 21 86 25 17 67 28 66 54 48 38 31 13 25 23 14 10 32 36
is_linear=0
shrinkage=0.151392


Tree=2
num_leaves=34
num_cat=0
split_feature=1617 491 831 119 959 703 780 1482 739 377 1452 898 656 1582 277 1088 1946 743 249 699 950 777 486 699 1056 1480 747 366 57 389 430 116 1056
split_gain=38.0409 21.4491 17.3711 8.31606 6.81971 5.98234 7.29932 6.59128 5.73626 5.11939 5.06616 4.38853 3.8091 3.02504 2.98239 2.92042 2.60992 1.73047 2.69541 1.28122 1.18229 1.26176 1.15172 0.690897 0.61334 0.608982 0.725803 0.461987 0.368419 0.323039 0.121579 0.0774823 0.0364368
threshold=1.0000000180025095e-35 1.0000000180025095e-35 1.0000000180025095e-35 1.0000000180025095e-35 1.0000000180025095e-35 1.0000000180025095e-35 1.0000000180025095e-35 1.0000000180025095e-35 1.0000000180025095e-35 1.0000000180025095e-35 1.0000000180025095e-35 1.0000000180025095e-35 1.0000000180025095e-35 1.0000000180025095e-35 1.0000000180025095e-35 1.0000000180025095e-35 1.0000000180025095e-35 1.0000000180025095e-35 1.0000000180025095e-35 1.0000000180025095e-35 1.0000000180025095e-35 1.0000000180025095e-35 1.0000000180025095e-35 1.0000000180025095e-35 1.0000000180025095e-35 1.0000000180025095e-35 1.0000000180025095e-35 1.0000000180025095e-35 1.0000000180025095e-35 1.0000000180025095e-35 1.0000000180025095e-35 1.0000000180025095e-35 1.0000000180025095e-35
decision_type=2 2 2 2 2 2 2 2 2 2 2 2 2 2 2 2 2 2 2 2 2 2 2 2 2 2 2 2 2 2 2 2 2
left_child=1 10 3 5 -2 6 8 22 9 23 15 16 17 -6 -15 31 19 18 32 25 21 -9 -8 -3 -14 26 -12 -13 -18 30 -27 -1 -7
right_child=4 2 -4 -5 13 12 7 20 -10 -11 11 27 24 14 -16 -17 28 -19 -20 -21 -22 -23 -24 -25 -26 29 -28 -29 -30 -31 -32 -33 -34
leaf_value=-0.0044713251160494911 -0.15446979649759876 -0.071600173795224639 -0.12911421186317934 0.17817351671478379 -0.10833083248438809 0.077719027391317044 0.11474556824932403 0.070560916854251143 0.076278175997903749 0.057114293178370343 -0.050112465360774343 -0.03717914146911213 0.028887299131419034 0.082581472693779523 -0.045629109483458587 -0.12617194263473944 -0.018189026445716548 0.0023752336233150671 0.15201135828974782 0.051020153040986622 -0.039224913239280797 -0.012025495747602954 0.025274056595921898 -0.021811336357072882 -0.025862964611948789 0.0099431539962873336 0.0072548487497532616 -0.11792157687681348 -0.078284912848822011 0.039861247768154681 -0.012368737454389683 -0.032837807388227579 0.035158766036541278
leaf_weight=6.0000000000000018 35 27 9.9999999999999982 9.9999999999999982 5.0000000000000009 39 28 4.9999999999999991 10.999999999999998 8.9999999999999982 6.9999999999999973 6.9999999999999982 7.9999999999999982 5 7 15.999999999999998 6.9999999999999982 4.9999999999999991 17 13.999999999999998 9 8 5.9999999999999991 12.999999999999998 6 18.000000000000007 9 6 6 5.9999999999999991 4.9999999999999991 6 7.9999999999999991
leaf_count=6 35 27 10 10 5 39 28 5 11 9 7 7 8 5 7 16 7 5 17 14 9 8 6 13 6 18 9 6 6 6 5 6 8
internal_value=-0.000513055 0.0185571 0.0460554 0.0558934 -0.117912 0.0475998 0.0243986 0.0625653 -0.0120488 -0.0348227 -0.0344615 -0.0148137 0.0782415 -0.0320006 0.0117347 -0.0876882 0.000673461 0.0924098 0.098887 0.0148153 -0.00202234 0.0249457 0.102086 -0.0579301 0.00421104 0.00121448 -0.020383 -0.0880783 -0.0548104 0.0142339 0.00381968 -0.0227759 0.0728476
internal_weight=384 332 219 209 52 199 116 56 60 49 113 85 83 17 12 28 72 69 64 59 22 13 34 40 14 45 16 13 13 29 23 12 47
internal_count=384 332 219 209 52 199 116 56 60 49 113 85 83 17 12 28 72 69 64 59 22 13 34 40 14 45 16 13 13 29 23 12 47
is_linear=0
shrinkage=0.151392


Tree=3
num_leaves=34
num_cat=0
split_feature=1617 1970 377 58 574 1423 1136 1452 959 693 959 1152 486 152 123 314 652 1097 656 489 1160 394 1306 407 1441 1480 1385 41 693 1101 875 541 753
split_gain=28.2175 15.9725 10.8832 7.42768 7.27484 8.07532 7.91648 5.5539 4.87876 3.82711 3.77671 4.86484 3.65285 3.29914 2.45456 1.95967 2.16897 1.9577 1.93958 1.93502 1.62811 1.54177 1.49732 1.21486 1.18139 1.14267 1.22219 0.54045 0.328949 0.301031 0.199452 0.149252 0.106391
threshold=1.0000000180025095e-35 1.0000000180025095e-35 1.0000000180025095e-35 1.0000000180025095e-35 1.0000000180025095e-35 1.0000000180025095e-35 1.0000000180025095e-35 1.0000000180025095e-35 1.0000000180025095e-35 1.0000000180025095e-35 1.0000000180025095e-35 1.0000000180025095e-35 1.0000000180025095e-35 1.0000000180025095e-35 1.0000000180025095e-35 1.0000000180025095e-35 1.0000000180025095e-35 1.0000000180025095e-35 1.0000000180025095e-35 1.0000000180025095e-35 1.0000000180025095e-35 1.0000000180025095e-35 1.0000000180025095e-35 1.0000000180025095e-35 1.0000000180025095e-35 1.0000000180025095e-35 1.0000000180025095e-35 1.0000000180025095e-35 1.0000000180025095e-35 1.0000000180025095e-35 1.0000000180025095e-35 1.0000000180025095e-35 1.0000000180025095e-35
decision_type=2 2 2 2 2 2 2 2 2 2 2 2 2 2 2 2 2 2 2 2 2 2 2 2 2 2 2 2 2 2 2 2 2
left_child=1 2 3 7 5 6 9 25 -2 12 11 -9 24 15 -10 16 18 22 20 21 -13 31 30 28 -3 26 -1 -18 -7 -11 -12 -4 -14
right_child=8 4 19 -5 -6 23 -8 10 14 29 17 13 32 -15 -16 -17 27 -19 -20 -21 -22 -23 -24 -25 -26 -27 -28 -29 -30 -31 -32 -33 -34
leaf_value=-0.053622497326040845 -0.13260505052295279 0.13074900133139353 0.096945284492633996 -0.16052147662912727 -0.063783783149301179 -0.081926998360512232 -0.036231440713155642 -0.12447051537639729 0.010753960877083839 4.2967635318892483e-05 -0.022108169703232042 -0.033717060696310051 0.044447156850077878 0.08747843710017103 -0.097300689412789076 -0.066527661318765155 0.0088443979767598904 0.10222443923081623 -0.054636844348741193 -0.018846197359630681 0.031369883496545771 -0.0018341981840864832 0.072317882963430072 0.016603751216335776 0.053848627889154864 -0.009759524086892608 -0.14101005820308921 0.069532468263364566 -0.01595950746419417 0.038981072991019459 0.005546610264359644 0.040835018601787815 0.011881654266675538
leaf_weight=17.000000000000007 35 56 19 6.9999999999999991 8.9999999999999982 4.9999999999999982 10.999999999999998 6.9999999999999991 12.000000000000002 8 8.0000000000000071 13.000000000000002 7.9999999999999973 4.9999999999999991 4.9999999999999991 12.999999999999998 7.9999999999999982 5.9999999999999991 20 4.9999999999999991 18 4.9999999999999991 4.9999999999999991 5.9999999999999991 10.999999999999998 5.9999999999999991 6.9999999999999991 6 5 11 11 8.0000000000000018 8
leaf_count=17 35 56 19 7 9 5 11 7 12 8 8 13 8 5 5 13 8 6 20 5 18 5 5 6 11 6 7 6 5 11 11 8 8
internal_value=-0.000513996 0.0159057 -0.012047 -0.0295842 0.0548295 0.0642401 0.0783572 -0.0209155 -0.101629 0.0914061 -0.0056458 -0.0212374 0.10527 -0.00906759 -0.0285096 -0.0178917 -0.00590527 0.0387781 -0.0206818 0.0592434 0.00318669 0.0723235 0.0144308 -0.0318797 0.120657 -0.0765525 -0.0902816 0.0421571 -0.0596574 0.0251098 -0.00662919 0.0855505 0.0326473
internal_weight=384 332 194 157 138 129 113 150 52 102 120 90 83 83 17 78 65 30 51 37 31 32 24 16 67 30 24 14 10 19 19 27 16
internal_count=384 332 194 157 138 129 113 150 52 102 120 90 83 83 17 78 65 30 51 37 31 32 24 16 67 30 24 14 10 19 19 27 16
is_linear=0
shrinkage=0.151392


Tree=4
num_leaves=37
num_cat=0
split_feature=1617 1224 322 1260 1436 1423 1136 491 249 959 561 1982 715 1452 743 1236 1099 83 1044 1163 1236 80 1088 1480 875 43 43 699 1569 1333 1405 1163 675 407 119 656
split_gain=20.8965 12.5381 6.84029 7.40808 5.88262 5.83784 5.74071 5.56247 4.96614 3.4478 3.1713 2.68427 2.35288 2.81488 2.59392 2.28951 1.97191 1.8095 1.80277 1.76011 1.57511 2.06803 1.50874 1.41553 1.93255 1.47672 1.01582 0.955724 0.946526 0.748829 0.711638 0.694093 0.620562 0.439922 0.139493 0.0973874
threshold=1.0000000180025095e-35 1.0000000180025095e-35 1.0000000180025095e-35 1.0000000180025095e-35 1.0000000180025095e-35 1.0000000180025095e-35 1.0000000180025095e-35 1.0000000180025095e-35 1.0000000180025095e-35 1.0000000180025095e-35 1.0000000180025095e-35 1.0000000180025095e-35 1.0000000180025095e-35 1.0000000180025095e-35 1.0000000180025095e-35 1.0000000180025095e-35 1.0000000180025095e-35 1.0000000180025095e-35 1.0000000180025095e-35 1.0000000180025095e-35 1.0000000180025095e-35 1.0000000180025095e-35 1.0000000180025095e-35 1.0000000180025095e-35 1.0000000180025095e-35 1.0000000180025095e-35 1.0000000180025095e-35 1.0000000180025095e-35 1.0000000180025095e-35 1.0000000180025095e-35 1.0000000180025095e-35 1.0000000180025095e-35 1.0000000180025095e-35 1.0000000180025095e-35 1.0000000180025095e-35 1.0000000180025095e-35
decision_type=2 2 2 2 2 2 2 2 2 2 2 2 2 2 2 2 2 2 2 2 2 2 2 2 2 2 2 2 2 2 2 2 2 2 2 2
left_child=1 2 3 4 7 6 12 11 10 32 19 15 13 -3 18 17 -11 23 29 20 21 33 -13 27 -25 -26 -7 31 -5 34 -14 -1 -2 -9 -15 -12
right_child=9 5 -4 28 -6 26 -8 8 -10 16 35 22 30 14 -16 -17 -18 -19 -20 -21 -22 -23 -24 24 25 -27 -28 -29 -30 -31 -32 -33 -34 -35 -36 -37
leaf_value=-0.027900125025745185 -0.12294267027428936 -0.0032287531489859252 -0.11331628584019458 -0.13074491672794172 -0.11006195877396373 -0.059008592460558264 -0.035705145714400359 -0.045920941459430077 0.15288026308128105 0.0094004680446241468 -0.041105420025994578 -0.010565781586111062 0.037616046797835867 0.10138869229550262 0 -0.072335970478764555 -0.087393625605528991 -0.047150208748890685 0.023359500662660505 0.098299540019860132 0.064957990032968205 0.038312560496442105 -0.12047296574835298 -0.0079235622285447858 0.092976211356267796 0.0098396074666956459 0.0075005658460015126 0.035060263037908511 -0.027488045513461176 0.030103896569252324 -0.026489259804338902 0.024627201797818406 -0.034932768205114276 0.0033763830125526713 0.17364856349644547 -0.0069011672748805356
leaf_weight=25.000000000000004 30 6.9999999999999991 10.999999999999998 7.9999999999999982 6.9999999999999991 8 9.9999999999999982 9.9999999999999982 5.9999999999999991 12.000000000000002 8.9999999999999982 6 5.9999999999999982 50 5.9999999999999991 6.9999999999999991 4.9999999999999991 9.9999999999999982 7.9999999999999991 8.9999999999999982 15.999999999999998 21 4.9999999999999982 12.999999999999998 12 9 9 7.9999999999999991 5 4.9999999999999991 5 4.9999999999999991 4.9999999999999991 4.9999999999999991 5.9999999999999991 4.9999999999999991
leaf_count=25 30 7 11 8 7 8 10 10 6 12 9 6 6 50 6 7 5 10 8 9 16 21 5 13 12 9 9 8 5 5 5 5 5 5 6 5
internal_value=-0.000709587 0.013417 -0.00871004 -0.00162864 0.00649713 0.0520189 0.0654327 0.0124825 0.0414169 -0.0877272 0.0277921 -0.0112442 0.0770886 0.0857064 0.0940293 -0.00151896 -0.025725 0.00627093 0.102061 0.042588 0.0287221 0.00915675 -0.0743491 0.015179 0.0365662 0.0626703 -0.0265445 -0.00465813 -0.102542 0.110868 0.00790953 -0.0175202 -0.113835 -0.0305041 0.116283 -0.0325779
internal_weight=384 332 212 201 188 120 103 181 81 52 75 100 93 82 75 89 17 82 69 61 52 36 11 72 34 21 17 38 13 61 11 30 35 15 56 14
internal_count=384 332 212 201 188 120 103 181 81 52 75 100 93 82 75 89 17 82 69 61 52 36 11 72 34 21 17 38 13 61 11 30 35 15 56 14
is_linear=0
shrinkage=0.151392


Tree=5
num_leaves=32
num_cat=0
split_feature=1452 1370 58 1366 1367 881 1879 1993 1076 231 703 1951 1750 1951 1199 1722 2020 43 743 736 310 656 1586 708 708 1019 1019 319 2021 1586 268
split_gain=8.57041 9.05755 9.69849 10.0584 6.74966 5.5308 4.62539 4.02381 3.52689 3.35026 3.22564 2.76404 2.652 2.5179 2.22438 2.59499 1.7504 1.65409 1.34027 1.16632 1.0459 1.0163 0.82153 0.760793 0.687386 0.96764 0.641558 0.294348 0.286083 0.266769 0.0981138
threshold=1.0000000180025095e-35 1.0000000180025095e-35 1.0000000180025095e-35 1.0000000180025095e-35 1.0000000180025095e-35 1.0000000180025095e-35 1.0000000180025095e-35 1.0000000180025095e-35 1.0000000180025095e-35 1.0000000180025095e-35 1.0000000180025095e-35 1.0000000180025095e-35 1.0000000180025095e-35 1.0000000180025095e-35 1.0000000180025095e-35 1.0000000180025095e-35 1.0000000180025095e-35 1.0000000180025095e-35 1.0000000180025095e-35 1.0000000180025095e-35 1.0000000180025095e-35 1.0000000180025095e-35 1.0000000180025095e-35 1.0000000180025095e-35 1.0000000180025095e-35 1.0000000180025095e-35 1.0000000180025095e-35 1.0000000180025095e-35 1.0000000180025095e-35 1.0000000180025095e-35 1.0000000180025095e-35
decision_type=2 2 2 2 2 2 2 2 2 2 2 2 2 2 2 2 2 2 2 2 2 2 2 2 2 2 2 2 2 2 2
left_child=11 2 3 5 6 8 12 13 9 10 16 14 -5 -7 15 -1 20 -8 19 -14 22 23 24 29 -2 -26 -23 -3 -15 -12 -17
right_child=1 27 -4 4 -6 7 17 -9 -10 -11 21 -13 18 28 -16 30 -18 -19 -20 -21 -22 26 -24 -25 25 -27 -28 -29 -30 -31 -32
leaf_value=0.016680634029205089 -0.064479176374868732 -0.093863268264767291 -0.12155403758784886 -0.028181378200947953 0.13931740154981384 0.11013399851287979 -0.053734540387021586 -0.053833144029895828 0.089347597829646727 0.065767065888531734 0.024717198236077098 0.019228266217016125 0.08224772437101717 0.034741621482697362 -0.12324644277238855 -0.047586608348245366 0.028392497132520053 0.021962547773728851 0 0.013078919105425678 0.0029763545740586397 0.008874296700084985 0.0010001761469895132 0.07028942103182928 -0.045071876937614573 0.0064664843967343231 -0.04968778165252042 -0.038246270028792183 -0.0036239314918540236 -0.0084793140783559449 -0.098588838153603642
leaf_weight=9.9999999999999982 44 14 8.9999999999999982 5.9999999999999991 17 15.999999999999998 12 4.9999999999999991 4.9999999999999991 7.9999999999999991 11.000000000000005 7.9999999999999991 48 8.0000000000000018 11.999999999999998 16.000000000000004 6.9999999999999991 10 5.9999999999999991 7.9999999999999991 9.9999999999999982 7.9999999999999982 6.9999999999999991 5.9999999999999991 29 9.9999999999999982 5 10 5.9999999999999991 6.9999999999999991 5.9999999999999991
leaf_count=10 44 14 9 6 17 16 12 5 5 8 11 8 48 8 12 16 7 10 6 8 10 8 7 6 29 10 5 10 6 7 6
internal_value=-0.000840119 0.00819585 0.0154212 0.0205393 0.0571707 -0.000262849 0.0382413 0.0520351 -0.0126264 -0.0174275 -0.023162 -0.0565764 0.0573207 0.0728299 -0.0709477 -0.0436004 -0.0363132 -0.0199906 0.0665657 0.0735639 -0.0415471 0.0144065 -0.0465945 0.0319626 -0.0506874 -0.0319137 -0.0170219 -0.0768783 0.0193414 0.0116464 -0.0705089
internal_weight=384 332 308 299 107 192 90 35 157 152 144 52 68 30 44 32 107 22 62 56 100 37 90 24 83 39 13 24 14 18 22
internal_count=384 332 308 299 107 192 90 35 157 152 144 52 68 30 44 32 107 22 62 56 100 37 90 24 83 39 13 24 14 18 22
is_linear=0
shrinkage=0.151392


Tree=6
num_leaves=34
num_cat=0
split_feature=1617 1970 58 1260 407 119 1249 389 766 323 161 80 1911 1136 465 888 1951 1845 113 1057 1325 161 693 1568 1472 1569 896 1747 323 92 703 675 113
split_gain=11.9425 7.56783 5.05575 5.00914 3.82981 3.54273 3.45417 4.01037 2.79802 3.77273 2.45857 2.43068 1.84886 1.83949 3.84524 3.09313 2.33835 1.65863 1.51451 1.48939 1.41157 1.32599 1.06823 0.957063 1.31964 0.759061 0.632893 0.631227 0.494048 0.644517 0.312263 0.282035 0.100461
threshold=1.0000000180025095e-35 1.0000000180025095e-35 1.0000000180025095e-35 1.0000000180025095e-35 1.0000000180025095e-35 1.0000000180025095e-35 1.0000000180025095e-35 1.0000000180025095e-35 1.0000000180025095e-35 1.0000000180025095e-35 1.0000000180025095e-35 1.0000000180025095e-35 1.0000000180025095e-35 1.0000000180025095e-35 1.0000000180025095e-35 1.0000000180025095e-35 1.0000000180025095e-35 1.0000000180025095e-35 1.0000000180025095e-35 1.0000000180025095e-35 1.0000000180025095e-35 1.0000000180025095e-35 1.0000000180025095e-35 1.0000000180025095e-35 1.0000000180025095e-35 1.0000000180025095e-35 1.0000000180025095e-35 1.0000000180025095e-35 1.0000000180025095e-35 1.0000000180025095e-35 1.0000000180025095e-35 1.0000000180025095e-35 1.0000000180025095e-35
decision_type=2 2 2 2 2 2 2 2 2 2 2 2 2 2 2 2 2 2 2 2 2 2 2 2 2 2 2 2 2 2 2 2 2
left_child=1 2 3 4 8 6 7 13 9 11 31 21 23 14 15 16 28 -12 -15 -6 27 -1 -18 24 30 -5 -7 -13 29 -3 -11 -2 -17
right_child=10 5 -4 25 19 26 -8 -9 -10 12 17 20 -14 18 -16 32 22 -19 -20 -21 -22 -23 -24 -25 -26 -27 -28 -29 -30 -31 -32 -33 -34
leaf_value=-0.077148121077375093 -0.093914929934761165 0.01410728557974939 -0.10706955623155469 -0.11070251402406681 -0.0032740140631632867 0.1415146812249122 0.092739423444969202 0.11201061804405962 0.083190144039552993 -0.029359127859865018 -0.069896379091066038 -0.03547907304531716 -0.047252595963407591 -0.090350579567863923 0.090552399939840933 -0.047913379321714827 -0.067897592681463642 0.019277573570531351 0.010755430930338259 0.065428399285641065 0.032007418295622307 -0.0066693424052791444 0.0026537961363134349 0.066956960906978627 0.039715115896861032 -0.020952192494674577 0.045787057801558957 0.0078228947211026051 0.077330846180046806 0.060167788047888839 0.0086529510694439739 -0.028146683407273127 -0.012972191168728876
leaf_weight=26 31 27 8.9999999999999982 7.9999999999999982 8.9999999999999982 5.9999999999999982 13.999999999999998 6.9999999999999991 4.9999999999999991 9.9999999999999982 4.9999999999999973 25 5.9999999999999991 4.9999999999999982 10.999999999999998 17.000000000000004 5.0000000000000009 11 5 25 11.999999999999998 8.9999999999999982 13 9.9999999999999982 20 5 7 8.9999999999999982 5.9999999999999991 8.9999999999999982 5.9999999999999991 4.9999999999999991 5.9999999999999991
leaf_count=26 31 27 9 8 9 6 14 7 5 10 5 25 6 5 11 17 5 11 5 25 12 9 13 10 20 5 7 9 6 9 6 5 6
internal_value=-0.00078517 0.00988677 -0.00932674 -0.00316774 0.00411121 0.0366908 0.0274567 0.0172852 -0.00720807 -0.0121447 -0.066575 -0.0322626 0.0189756 0.00836115 0.0153644 0.00293866 0.0211389 -0.0133759 -0.0464569 0.0478524 -0.00812925 -0.0610133 -0.022009 0.0298455 0.0155825 -0.0858444 0.106233 -0.0238736 0.0401404 0.0290703 -0.0150807 -0.087508 -0.0414658
internal_weight=384 332 194 185 172 138 125 111 138 133 52 81 52 104 94 83 60 16 10 34 46 35 18 46 36 13 13 34 42 36 16 36 23
internal_count=384 332 194 185 172 138 125 111 138 133 52 81 52 104 94 83 60 16 10 34 46 35 18 46 36 13 13 34 42 36 16 36 23
is_linear=0
shrinkage=0.151392


Tree=7
num_leaves=39
num_cat=0
split_feature=1617 1970 58 1260 119 407 1249 323 703 465 766 323 694 699 80 161 1405 1911 1582 1325 1747 1057 92 1480 161 694 191 1445 699 896 1482 471 875 703 191 1978 743 80
split_gain=9.01647 5.86708 3.92579 3.94624 2.85535 2.80951 2.60527 3.24982 2.43543 2.80128 2.23148 2.79586 1.89787 2.64767 1.82697 1.76764 1.7059 1.39975 1.32495 1.18015 1.33424 1.11648 1.09597 1.06502 0.969334 0.611345 0.563723 0.511388 0.505685 0.500806 0.412463 0.349197 0.227766 0.180017 0.161839 0.136587 0.12445 0.117496
threshold=1.0000000180025095e-35 1.0000000180025095e-35 1.0000000180025095e-35 1.0000000180025095e-35 1.0000000180025095e-35 1.0000000180025095e-35 1.0000000180025095e-35 1.0000000180025095e-35 1.0000000180025095e-35 1.0000000180025095e-35 1.0000000180025095e-35 1.0000000180025095e-35 1.0000000180025095e-35 1.0000000180025095e-35 1.0000000180025095e-35 1.0000000180025095e-35 1.0000000180025095e-35 1.0000000180025095e-35 1.0000000180025095e-35 1.0000000180025095e-35 1.0000000180025095e-35 1.0000000180025095e-35 1.0000000180025095e-35 1.0000000180025095e-35 1.0000000180025095e-35 1.0000000180025095e-35 1.0000000180025095e-35 1.0000000180025095e-35 1.0000000180025095e-35 1.0000000180025095e-35 1.0000000180025095e-35 1.0000000180025095e-35 1.0000000180025095e-35 1.0000000180025095e-35 1.0000000180025095e-35 1.0000000180025095e-35 1.0000000180025095e-35 1.0000000180025095e-35
decision_type=2 2 2 2 2 2 2 2 2 2 2 2 2 2 2 2 2 2 2 2 2 2 2 2 2 2 2 2 2 2 2 2 2 2 2 2 2 2
left_child=1 2 3 5 6 10 7 8 9 16 11 14 13 33 24 -2 27 19 -17 20 -16 -7 36 -11 -1 -5 -18 30 -14 -6 34 -15 -23 -13 -3 -33 -10 -30
right_child=15 4 -4 25 29 21 -8 -9 22 23 -12 12 28 31 17 18 26 -19 -20 -21 -22 32 -24 -25 -26 -27 -28 -29 37 -31 -32 35 -34 -35 -36 -37 -38 -39
leaf_value=-0.06646843655824955 -0.075485904734624826 -0.024695184650863424 -0.094311057353038089 -0.11189992482488022 0.12627403963776224 -0.0028838786348436159 0.080779106793083616 0.085211168041926466 0.020558279164022003 0.00054860358157138344 0.074719802382814657 -0.067857210881543534 0.081920335257882448 0.055734485340912153 -0.027036059136829452 -0.06277959755704314 -0.024458066095505413 -0.062989785499288312 0.01688794137332806 0.044122360898242889 0.042088363135013365 0.014014515828670455 0.073283476282207868 0.080768953892805376 -0.0058746187188269102 -0.031533849244073667 -0.085051947391510674 0.029361233403648327 0.0037208536150438436 0.040643884916180692 0.018501059216377805 -0.0029818418280275253 0.063700781680495561 -0.015982926581924566 0 0.023346787845783847 -0.0044964657043134971 0.034820001468152749
leaf_weight=26 36 23.000000000000004 8.9999999999999982 4.9999999999999973 5.9999999999999982 8.9999999999999982 13.999999999999998 10.999999999999998 7 6.9999999999999982 4.9999999999999991 8.0000000000000018 6.0000000000000009 5.0000000000000009 24.000000000000004 4.9999999999999973 11 5.9999999999999991 11 9.9999999999999982 5.9999999999999991 5.0000000000000027 12 7 8.9999999999999982 8 8 5.9999999999999991 5.9999999999999991 7 5.9999999999999991 7 20 4.9999999999999991 6.9999999999999991 6 6 9
leaf_count=26 36 23 9 5 6 9 14 11 7 7 5 8 6 5 24 5 11 6 11 10 6 5 12 7 9 8 8 6 6 7 6 7 20 5 7 6 6 9
internal_value=-0.000533717 0.00873349 -0.00817725 -0.00274138 0.0323364 0.00370978 0.0240477 0.0151883 0.00550631 -0.00820977 -0.00597511 -0.0104012 0.016365 -0.00728998 -0.0277293 -0.0577044 -0.0225596 -0.00677743 -0.0122473 0.00445256 -0.0106558 0.0411782 0.0442449 0.047538 -0.0526585 -0.07613 -0.0573901 -0.00420521 0.0490147 0.0947605 -0.0116712 0.028537 0.056402 -0.0544854 -0.0190754 0.0100235 0.00919717 0.0254443
internal_weight=384 332 194 185 138 172 125 111 100 75 138 133 52 31 81 52 61 46 16 40 30 34 25 14 35 13 19 42 21 13 36 18 25 13 30 13 13 15
internal_count=384 332 194 185 138 172 125 111 100 75 138 133 52 31 81 52 61 46 16 40 30 34 25 14 35 13 19 42 21 13 36 18 25 13 30 13 13 15
is_linear=0
shrinkage=0.151392


Tree=8
num_leaves=38
num_cat=0
split_feature=1617 1260 875 1912 407 1097 708 579 1670 1057 816 441 1441 579 1306 1582 1057 743 1443 1357 652 1723 1569 329 715 465 1917 552 807 881 675 652 1568 699 80 249 249
split_gain=6.78499 4.52281 3.66303 4.01561 3.3647 3.32013 2.72045 3.22172 3.06628 2.4512 1.65142 3.44847 1.39479 1.2505 1.1663 1.05883 1.02974 0.991395 0.953942 0.724077 1.75762 0.963817 0.526795 0.521654 0.624674 0.45033 0.73627 0.404905 0.433474 0.347972 0.238738 0.181333 0.176166 0.112735 0.0540179 0.0487708 0.0329188
threshold=1.0000000180025095e-35 1.0000000180025095e-35 1.0000000180025095e-35 1.0000000180025095e-35 1.0000000180025095e-35 1.0000000180025095e-35 1.0000000180025095e-35 1.0000000180025095e-35 1.0000000180025095e-35 1.0000000180025095e-35 1.0000000180025095e-35 1.0000000180025095e-35 1.0000000180025095e-35 1.0000000180025095e-35 1.0000000180025095e-35 1.0000000180025095e-35 1.0000000180025095e-35 1.0000000180025095e-35 1.0000000180025095e-35 1.0000000180025095e-35 1.0000000180025095e-35 1.0000000180025095e-35 1.0000000180025095e-35 1.0000000180025095e-35 1.0000000180025095e-35 1.0000000180025095e-35 1.0000000180025095e-35 1.0000000180025095e-35 1.0000000180025095e-35 1.0000000180025095e-35 1.0000000180025095e-35 1.0000000180025095e-35 1.0000000180025095e-35 1.0000000180025095e-35 1.0000000180025095e-35 1.0000000180025095e-35 1.0000000180025095e-35
decision_type=2 2 2 2 2 2 2 2 2 2 2 2 2 2 2 2 2 2 2 2 2 2 2 2 2 2 2 2 2 2 2 2 2 2 2 2 2
left_child=1 2 5 4 6 14 8 9 10 25 11 19 23 30 32 -15 -6 18 33 21 29 -4 -3 36 -25 26 -8 -10 -29 -21 -2 -9 34 -18 -1 -22 -11
right_child=13 22 3 -5 16 -7 7 31 27 12 -12 -13 -14 15 -16 -17 17 -19 -20 20 35 -23 -24 24 -26 -27 -28 28 -30 -31 -32 -33 -34 -35 -36 -37 -38
leaf_value=-0.008993304749221321 -0.07013626267483665 -0.088659845873403406 -0.038080534291230046 0.090551360225979857 -0.0025402346681528344 -0.10537875264355623 0.00090981321470526635 0.089946538226646777 0.007805828888274669 0.0027031823447433876 0.04478991662316438 -0.11272835205559119 -0.027938845010839236 -0.056387438203982655 0.04843869543418812 0.014794526692308831 0.052978057432985115 -0.0040122110873322082 0.0084025361064198872 -0.011211793708722197 0.0099248820765034471 0.019422345093646709 -0.015608113696158476 0.070311818223654551 0.0041761145846527488 0.00033114656164954837 -0.06029618786422207 0.0016534311993937542 0.0578011890067162 -0.059391418157997797 -0.017594913445267139 0.030370255152144896 -0.0034117390763201776 0.096086597451000122 -0.041091532257396902 0.040833234809391633 0.020697288234817784
leaf_weight=5.0000000000000036 31 8.9999999999999982 41 13.999999999999998 8.9999999999999982 7.9999999999999991 6.0000000000000027 12.000000000000002 15.999999999999998 6.9999999999999982 4.9999999999999991 7.9999999999999991 5.9999999999999991 4.9999999999999973 4.9999999999999991 11 31 5.9999999999999991 8.9999999999999982 10.999999999999998 5.0000000000000009 5.9999999999999991 4.9999999999999991 15.000000000000002 4.9999999999999991 8.0000000000000018 10.999999999999998 4.9999999999999991 10.999999999999998 4.9999999999999991 4.9999999999999991 5.9999999999999991 11 7.9999999999999991 6 10 7
leaf_count=5 31 9 41 14 9 8 6 12 16 7 5 8 6 5 5 11 31 6 9 11 5 6 5 15 5 8 11 5 11 5 5 6 11 8 6 10 7
internal_value=-0.000188742 0.00784394 0.0118004 0.0175949 0.012968 -0.0327742 0.00335265 0.0242053 -0.0108031 0.00719707 -0.0249375 -0.0302719 0.0299325 -0.0497902 -0.00384724 -0.011195 0.0428992 0.0505048 0.0574633 -0.018484 0 -0.02986 -0.0696031 0.0417158 0.0566526 -0.0280946 -0.0405617 0.0279042 0.0435541 -0.0328863 -0.0647818 0.0767605 -0.0199485 0.0672864 -0.0318227 0.0341623 0.0142899
internal_weight=384 332 318 283 269 35 206 83 123 65 91 86 40 52 27 16 63 54 48 78 31 47 14 34 20 25 17 32 16 16 36 18 22 39 11 15 14
internal_count=384 332 318 283 269 35 206 83 123 65 91 86 40 52 27 16 63 54 48 78 31 47 14 34 20 25 17 32 16 16 36 18 22 39 11 15 14
is_linear=0
shrinkage=0.151392


Tree=9
num_leaves=35
num_cat=0
split_feature=1357 1619 323 708 233 739 361 116 92 527 703 1181 673 301 1840 1114 959 1325 739 165 1526 2021 807 1028 1039 888 753 1928 1567 950 1978 1984 211 1039
split_gain=4.2536 4.24007 4.49551 3.98298 3.72322 3.49207 1.92795 1.9758 1.81866 1.59597 2.26121 2.41824 1.75365 1.40665 1.61733 1.39136 0.831239 1.82056 0.77776 0.630317 0.557137 0.847708 0.501336 0.486157 0.440222 0.430113 0.419106 0.390301 0.369058 0.261515 0.180154 0.138798 0.125366 0.0578797
threshold=1.0000000180025095e-35 1.0000000180025095e-35 1.0000000180025095e-35 1.0000000180025095e-35 1.0000000180025095e-35 1.0000000180025095e-35 1.0000000180025095e-35 1.0000000180025095e-35 1.0000000180025095e-35 1.0000000180025095e-35 1.0000000180025095e-35 1.0000000180025095e-35 1.0000000180025095e-35 1.0000000180025095e-35 1.0000000180025095e-35 1.0000000180025095e-35 1.0000000180025095e-35 1.0000000180025095e-35 1.0000000180025095e-35 1.0000000180025095e-35 1.0000000180025095e-35 1.0000000180025095e-35 1.0000000180025095e-35 1.0000000180025095e-35 1.0000000180025095e-35 1.0000000180025095e-35 1.0000000180025095e-35 1.0000000180025095e-35 1.0000000180025095e-35 1.0000000180025095e-35 1.0000000180025095e-35 1.0000000180025095e-35 1.0000000180025095e-35 1.0000000180025095e-35
decision_type=2 2 2 2 2 2 2 2 2 2 2 2 2 2 2 2 2 2 2 2 2 2 2 2 2 2 2 2 2 2 2 2 2 2
left_child=1 2 3 5 9 6 7 28 30 10 11 13 33 14 20 16 17 -4 27 -12 21 23 -17 29 -14 -5 -16 -6 -1 -2 -3 -7 -24 -13
right_child=4 8 15 25 18 31 -8 -9 -10 -11 19 12 24 -15 26 22 -18 -19 -20 -21 -22 -23 32 -25 -26 -27 -28 -29 -30 -31 -32 -33 -34 -35
leaf_value=-0.08391096665132905 0.032305545098440441 -0.016732199487931292 0.0053650416856409833 0.0010459497256691782 0.045303533931338666 0.03384328982979036 0.008258379591730711 -0.0073274159986442267 0.068626708042268433 -0.061612625060958569 0.07237971179203545 0 0.093797510383180946 0.053263661740685628 -0.051470354249772497 0 0.026976915581421269 -0.085980687770731562 0.019836646440595171 0.0047323227746620894 -0.034349343298669135 -0.025239881600693355 0.053470479898735962 -0.017623136505007395 0.020330219256090201 0.046342079957617091 -0.013594926307052108 0.11382127416375834 -0.028178979158649611 0 0.012777545724071183 0 0.021196827195159657 0.014337184827222991
leaf_weight=61 25 7.9999999999999991 11.000000000000005 13.000000000000002 11.000000000000002 5.9999999999999982 6.9999999999999991 10.999999999999998 15 4.9999999999999991 13.000000000000002 13 7.9999999999999982 4.9999999999999991 22 8.9999999999999982 4.9999999999999991 5.9999999999999991 9.0000000000000018 4.9999999999999991 5.9999999999999991 10.999999999999998 11 4.9999999999999991 5 5.9999999999999991 13.999999999999998 6.9999999999999991 6.9999999999999991 6.9999999999999991 6.0000000000000009 5 13 13
leaf_count=61 25 8 11 13 11 6 7 11 15 5 13 13 8 5 22 9 5 6 9 5 6 11 11 5 5 6 14 7 7 7 6 5 13 13
internal_value=-0.000142638 -0.0153726 -0.0245376 -0.041196 0.0163208 -0.0534441 -0.0635872 -0.0701827 0.0359366 0.00684445 0.0101232 0.00280646 0.0334776 -0.0101622 -0.0151481 0.0106082 -0.0173692 -0.032882 0.0658221 0.05708 0.00143285 0.00762683 0.029569 0.0187099 0.0741163 0.0196454 -0.0389013 0.0830236 -0.0795459 0.0256403 -0.00320927 0.0219611 0.0400834 0.00805745
internal_weight=384 200 171 116 184 97 86 79 29 157 152 134 39 95 90 55 22 17 27 18 54 48 33 37 13 19 36 18 68 32 14 11 24 26
internal_count=384 200 171 116 184 97 86 79 29 157 152 134 39 95 90 55 22 17 27 18 54 48 33 37 13 19 36 18 68 32 14 11 24 26
is_linear=0
shrinkage=0.151392


Tree=10
num_leaves=35
num_cat=0
split_feature=1617 1970 58 119 1160 377 152 329 1440 1088 1365 1366 1472 1245 1488 888 1266 41 161 1232 1405 1480 1199 1480 1480 926 1569 785 694 1039 1480 780 1480 747
split_gain=3.2327 3.01224 1.95856 1.91316 1.80959 1.6179 1.70327 1.53125 1.57405 1.63603 2.5335 3.14344 2.06858 1.18809 1.04001 3.15989 1.52139 0.931888 0.896205 2.37262 0.888145 0.764152 0.639753 0.617208 0.452909 0.428265 0.379798 0.372133 0.350493 0.279969 0.208791 0.202654 0.130764 0.0320727
threshold=1.0000000180025095e-35 1.0000000180025095e-35 1.0000000180025095e-35 1.0000000180025095e-35 1.0000000180025095e-35 1.0000000180025095e-35 1.0000000180025095e-35 1.0000000180025095e-35 1.0000000180025095e-35 1.0000000180025095e-35 1.0000000180025095e-35 1.0000000180025095e-35 1.0000000180025095e-35 1.0000000180025095e-35 1.0000000180025095e-35 1.0000000180025095e-35 1.0000000180025095e-35 1.0000000180025095e-35 1.0000000180025095e-35 1.0000000180025095e-35 1.0000000180025095e-35 1.0000000180025095e-35 1.0000000180025095e-35 1.0000000180025095e-35 1.0000000180025095e-35 1.0000000180025095e-35 1.0000000180025095e-35 1.0000000180025095e-35 1.0000000180025095e-35 1.0000000180025095e-35 1.0000000180025095e-35 1.0000000180025095e-35 1.0000000180025095e-35 1.0000000180025095e-35
decision_type=2 2 2 2 2 2 2 2 2 2 2 2 2 2 2 2 2 2 2 2 2 2 2 2 2 2 2 2 2 2 2 2 2 2
left_child=1 2 5 4 13 6 7 8 9 20 11 12 -11 14 15 16 22 23 27 -20 28 -17 24 29 -3 -7 -13 -2 -1 -9 -16 -5 -18 -12
right_child=18 3 -4 31 -6 25 -8 17 -10 10 33 26 -14 -15 30 21 32 -19 19 -21 -22 -23 -24 -25 -26 -27 -28 -29 -30 -31 -32 -33 -34 -35
leaf_value=-0.028078524241121328 -0.05600946127691657 -0.0074261552620846633 -0.067187847738566689 0.036136670344066923 0.076797667697442493 0.0050563417658665739 0.061298541298517639 -0.034023756601580524 0.043237776948891089 -0.093028701299051234 0.024869139227778364 -0.017333681535302528 0.0062237138372209467 0.05468266207721293 0.014640183513687503 -0.018039396162932004 -0.027793651294806241 0.064194527592302347 0.065656210064119661 -0.040880595108260816 0.028865061673474815 -0.073807895529030776 0.05818518759276451 0.028982851762990286 0.029515206577257189 0.039849128198819209 0.021623467186509315 -0.014754664748242857 0.0039991599536276278 0.0033541049774119718 0.051366159969066696 0.10019718996896232 -0.0024088951342345543 0.0056537640628288918
leaf_weight=17 26 10.000000000000002 8.9999999999999982 7.9999999999999982 7.9999999999999991 15.999999999999998 4.9999999999999991 7.0000000000000036 5.9999999999999991 30 4.9999999999999973 15.000000000000002 4.9999999999999991 9.9999999999999982 12 15.999999999999998 9 4.9999999999999991 4.9999999999999973 11 12.999999999999998 10.000000000000002 12.999999999999998 9 18 19 5.9999999999999991 9.9999999999999982 11.000000000000002 7 8 5 11 9
leaf_count=17 26 10 9 8 8 16 5 7 6 30 5 15 5 10 12 16 9 5 5 11 13 10 13 9 18 19 6 10 11 7 8 5 11 9
internal_value=0.000169201 0.005773 -0.00632426 0.0226944 0.0159843 -0.00245405 -0.00941703 -0.0129229 -0.0205362 -0.0249614 -0.0386435 -0.052654 -0.0789911 0.0102277 0.00482036 -0.00245747 0.0162454 0.0175254 -0.0340084 -0.00255041 -0.000421186 -0.0444665 0.032436 0.00165335 0.0163206 0.025683 -0.00451236 -0.0465764 -0.0157022 -0.0167498 0.0339378 0.0736048 -0.0162359 0.0160402
internal_weight=384 332 194 138 125 185 150 145 117 111 70 56 35 117 107 87 61 28 52 16 41 26 41 23 28 35 21 36 28 14 20 13 20 14
internal_count=384 332 194 138 125 185 150 145 117 111 70 56 35 117 107 87 61 28 52 16 41 26 41 23 28 35 21 36 28 14 20 13 20 14
is_linear=0
shrinkage=0.151392


Tree=11
num_leaves=35
num_cat=0
split_feature=892 1453 1366 1077 1758 1049 1163 623 1226 1911 1573 231 165 388 650 1912 689 1167 1266 1382 1039 1255 803 789 1866 43 1349 552 263 807 1586 950 743 1366
split_gain=2.89759 2.62259 1.96146 3.86163 3.44933 3.14389 3.61261 2.33603 1.51685 1.50444 1.369 1.26528 1.12945 1.7685 1.30931 0.950391 0.842578 0.851159 0.805493 0.79217 0.644672 0.574906 0.55489 0.58673 0.496313 0.484487 0.285884 0.313638 0.157739 0.105705 0.0988371 0.232277 0.0851203 0.0397268
threshold=1.0000000180025095e-35 1.0000000180025095e-35 1.0000000180025095e-35 1.0000000180025095e-35 1.0000000180025095e-35 1.0000000180025095e-35 1.0000000180025095e-35 1.0000000180025095e-35 1.0000000180025095e-35 1.0000000180025095e-35 1.0000000180025095e-35 1.0000000180025095e-35 1.0000000180025095e-35 1.0000000180025095e-35 1.0000000180025095e-35 1.0000000180025095e-35 1.0000000180025095e-35 1.0000000180025095e-35 1.0000000180025095e-35 1.0000000180025095e-35 1.0000000180025095e-35 1.0000000180025095e-35 1.0000000180025095e-35 1.0000000180025095e-35 1.0000000180025095e-35 1.0000000180025095e-35 1.0000000180025095e-35 1.0000000180025095e-35 1.0000000180025095e-35 1.0000000180025095e-35 1.0000000180025095e-35 1.0000000180025095e-35 1.0000000180025095e-35 1.0000000180025095e-35
decision_type=2 2 2 2 2 2 2 2 2 2 2 2 2 2 2 2 2 2 2 2 2 2 2 2 2 2 2 2 2 2 2 2 2 2
left_child=1 2 5 4 7 6 10 8 9 18 11 12 13 14 21 33 17 19 20 22 -4 26 23 -16 29 -9 27 30 -14 -8 31 -1 -20 -3
right_child=-2 15 3 -5 -6 -7 24 25 -10 -11 -12 -13 28 -15 16 -17 -18 -19 32 -21 -22 -23 -24 -25 -26 -27 -28 -29 -30 -31 -32 -33 -34 -35
leaf_value=0 -0.066003879842940566 -0.088862740403192642 0.026764704953753729 -0.079103398607922829 -0.04654846739461279 -0.099335014167885649 0.0025069630075716057 -0.045158651759641448 0.085823313460962794 -0.034409813348443223 0.040967053211643671 0.040302645274346273 0.044625627124290065 -0.090129621069600929 -0.030760032022261796 0 0.022750223695168804 0.025894324902715361 0.014622270760342858 -0.069859955215836406 0.06228130767885124 0.045108739554244992 0.015602457914392532 0.0035266700582906683 0.072318289107952308 0.0043354637465769274 0.027276007066635403 0.021395376371549948 0.0039089710149893412 0.031935062207850556 0 -0.03447247411212262 -0.0041670944429190995 -0.029887529545026822
leaf_weight=8.0000000000000071 11.999999999999998 6.0000000000000018 31 5.9999999999999991 10.999999999999998 4.9999999999999991 5.0000000000000027 5.9999999999999973 14.999999999999998 4.9999999999999991 9.9999999999999982 7.9999999999999991 4.9999999999999982 4.9999999999999991 76 5.9999999999999991 6.9999999999999991 4.9999999999999991 12.000000000000002 7.9999999999999991 31 5.9999999999999991 5.9999999999999991 11.999999999999998 9.9999999999999982 8 4.9999999999999991 4.9999999999999991 5 18 6.9999999999999991 8 5.9999999999999991 5
leaf_count=8 12 6 31 6 11 5 5 6 15 5 10 8 5 5 76 6 7 5 12 8 31 6 6 12 10 8 5 5 5 18 7 8 6 5
internal_value=0.00051541 0.00311396 0.00607446 0.0206192 0.026936 -0.00249969 0.000715345 0.0349725 0.043029 0.0331368 -0.00756825 -0.0109261 -0.013989 -0.0172855 -0.0134401 -0.0510009 -0.0215547 -0.0250234 0.0384208 -0.0281996 0.0464236 0.00981278 -0.0228341 -0.0259598 0.0451143 -0.0195669 0.000339926 -0.00580455 0.0301504 0.0269434 -0.0137529 -0.0195921 0.00791996 -0.073377
internal_weight=384 372 355 131 125 224 219 114 100 85 186 176 168 158 153 17 114 107 80 102 62 39 94 88 33 14 33 28 10 23 23 16 18 11
internal_count=384 372 355 131 125 224 219 114 100 85 186 176 168 158 153 17 114 107 80 102 62 39 94 88 33 14 33 28 10 23 23 16 18 11
is_linear=0
shrinkage=0.151392


Tree=12
num_leaves=34
num_cat=0
split_feature=1453 713 58 1645 843 1445 327 1758 1288 366 314 1009 249 881 787 1039 1611 1978 776 1750 680 1266 1982 191 1480 1004 1586 715 881 1926 715 1928 1226
split_gain=2.2362 2.34677 1.9768 2.12015 3.28524 1.81168 1.34284 1.26523 1.1674 1.41927 1.9207 1.77075 1.94861 1.24894 1.07062 1.05756 1.01732 0.9294 0.732106 0.715805 0.813057 0.697461 0.654004 0.622073 0.616379 0.486585 0.430593 0.34915 0.1856 0.412395 0.135403 0.0535874 0.0408396
threshold=1.0000000180025095e-35 1.0000000180025095e-35 1.0000000180025095e-35 1.0000000180025095e-35 1.0000000180025095e-35 1.0000000180025095e-35 1.0000000180025095e-35 1.0000000180025095e-35 1.0000000180025095e-35 1.0000000180025095e-35 1.0000000180025095e-35 1.0000000180025095e-35 1.0000000180025095e-35 1.0000000180025095e-35 1.0000000180025095e-35 1.0000000180025095e-35 1.0000000180025095e-35 1.0000000180025095e-35 1.0000000180025095e-35 1.0000000180025095e-35 1.0000000180025095e-35 1.0000000180025095e-35 1.0000000180025095e-35 1.0000000180025095e-35 1.0000000180025095e-35 1.0000000180025095e-35 1.0000000180025095e-35 1.0000000180025095e-35 1.0000000180025095e-35 1.0000000180025095e-35 1.0000000180025095e-35 1.0000000180025095e-35 1.0000000180025095e-35
decision_type=2 2 2 2 2 2 2 2 2 2 2 2 2 2 2 2 2 2 2 2 2 2 2 2 2 2 2 2 2 2 2 2 2
left_child=1 2 3 6 5 7 8 14 9 10 11 12 17 22 19 31 -2 18 28 -5 21 26 23 -11 -16 27 -21 -25 29 30 -1 -12 -14
right_child=16 -3 -4 4 -6 -7 -8 -9 -10 13 15 -13 32 -15 24 -17 -18 -19 -20 20 -22 -23 -24 25 -26 -27 -28 -29 -30 -31 -32 -33 -34
leaf_value=0.0042495232275361824 -0.078584189454685191 -0.061518566231462353 -0.056541243702081398 -0.017490622349695069 0.068626700632809803 0.069049107023753345 -0.054360336641920214 -0.040778356645889122 0.056456951466047914 0.0029092958312047167 -0.010312687213815935 -0.04564822634986223 0.037091321313610578 0.025998203238800362 -0.036761668825510442 -0.068185758687321102 -0.0066149085409518199 0.049366618815885166 0.039100804693491142 0.06211389045380767 -0.019704442797180321 0.0089299919089775495 -0.068949577048150495 -0.042759165054119468 0.0069214677800883513 0.010208446918911093 0.0058614131207449923 -0.0073859529493510642 0.012436882656968858 -0.032199444791983611 -0.018139740573934211 0.0038845041517444195 0.078427060659234757
leaf_weight=34 9 9.9999999999999982 8.9999999999999982 6.9999999999999991 26 7.9999999999999991 7.9999999999999991 10.999999999999998 5.9999999999999991 20 12.000000000000005 6.9999999999999991 12 10.999999999999998 12 6.9999999999999991 9 9.9999999999999982 8.9999999999999982 18.000000000000004 4.9999999999999991 15.999999999999998 4.9999999999999991 27 13 4.9999999999999991 4.9999999999999991 10.999999999999998 11.999999999999998 8.9999999999999982 4.9999999999999991 6.9999999999999991 9
leaf_count=34 9 10 9 7 26 8 8 11 6 20 12 7 12 11 12 7 9 10 9 18 5 16 5 27 13 5 5 11 12 9 5 7 9
internal_value=0.000345836 0.0030833 0.00534273 0.00737079 0.0233341 0.00938888 -0.00127191 0.00201531 0.00119124 -0.000930407 0.00850829 0.017562 0.0231039 -0.0167731 0.00946201 -0.0265699 -0.0483634 0.0111295 0.00389732 0.0218202 0.0289665 0.0363372 -0.0245512 -0.0183784 -0.0149348 -0.0282148 0.05217 -0.0339289 -0.00247642 -0.00690421 0.000142248 -0.00457826 0.0617141
internal_weight=384 366 356 347 121 95 226 87 218 212 133 107 100 79 76 26 18 79 69 51 44 39 68 63 25 43 23 38 60 48 39 19 21
internal_count=384 366 356 347 121 95 226 87 218 212 133 107 100 79 76 26 18 79 69 51 44 39 68 63 25 43 23 38 60 48 39 19 21
is_linear=0
shrinkage=0.151392


Tree=13
num_leaves=40
num_cat=0
split_feature=329 694 719 1050 323 249 652 1619 1816 377 1866 464 816 708 249 1911 1978 80 1019 745 1232 974 80 1019 1670 389 715 785 1019 1910 1066 80 2047 1445 1581 92 1810 1357 389
split_gain=2.00705 2.82411 2.17966 1.94658 2.27393 1.84648 1.4974 2.20647 2.13732 1.46471 1.30524 1.25274 0.950461 1.18754 0.891931 0.92656 0.930398 1.10276 1.26895 0.843702 0.808794 0.971861 0.666118 0.574556 0.436886 0.595566 0.363367 0.366354 0.293311 0.268186 0.267476 0.251151 0.227819 0.132665 0.11523 0.100018 0.0807939 0.585117 0.0706146
threshold=1.0000000180025095e-35 1.0000000180025095e-35 1.0000000180025095e-35 1.0000000180025095e-35 1.0000000180025095e-35 1.0000000180025095e-35 1.0000000180025095e-35 1.0000000180025095e-35 1.0000000180025095e-35 1.0000000180025095e-35 1.0000000180025095e-35 1.0000000180025095e-35 1.0000000180025095e-35 1.0000000180025095e-35 1.0000000180025095e-35 1.0000000180025095e-35 1.0000000180025095e-35 1.0000000180025095e-35 1.0000000180025095e-35 1.0000000180025095e-35 1.0000000180025095e-35 1.0000000180025095e-35 1.0000000180025095e-35 1.0000000180025095e-35 1.0000000180025095e-35 1.0000000180025095e-35 1.0000000180025095e-35 1.0000000180025095e-35 1.0000000180025095e-35 1.0000000180025095e-35 1.0000000180025095e-35 1.0000000180025095e-35 1.0000000180025095e-35 1.0000000180025095e-35 1.0000000180025095e-35 1.0000000180025095e-35 1.0000000180025095e-35 1.0000000180025095e-35 1.0000000180025095e-35
decision_type=2 2 2 2 2 2 2 2 2 2 2 2 2 2 2 2 2 2 2 2 2 2 2 2 2 2 2 2 2 2 2 2 2 2 2 2 2 2 2
left_child=2 5 3 4 6 10 7 8 12 19 26 -3 13 22 15 16 17 24 -19 23 21 36 -1 -10 25 -6 27 30 32 38 -2 -16 -24 35 -25 -9 37 -8 -15
right_child=1 11 -4 -5 14 -7 20 33 9 -11 -12 -13 -14 29 31 -17 -18 18 -20 -21 -22 -23 28 34 -26 -27 -28 -29 -30 -31 -32 -33 -34 -35 -36 -37 -38 -39 -40
leaf_value=-0.049288640911396793 -0.045280513106234439 0.090808326502556963 0.047685403634308114 0.058619554302450028 0.056835182760667749 0.055171327910307606 -0.036804580735158368 -0.0046800426836928659 -0.077049277238338792 0.012565368506192191 0.030023092486853295 0.0080515817471772753 0.039872661193519503 -0.0074854446473331254 0.066716984001153848 -0.043635088914874887 0.041489319146951358 0.01862472433346532 -0.065501992442372398 -0.0018426740173242587 -0.03480014775639164 0.064538228552908541 -0.03078019548986994 -0.044640874630398793 -0.0058204434559974523 -0.003739196606952102 0.0019147407881845049 0.0014928662859440638 0.011062277947180919 0.032167434585110226 -0.0084756118192924473 0.017752377185707529 0.0013881095630867723 0.035522477850682674 -0.011172414181170594 0.016707964209028581 0.01599079136754741 0.016017925301951445 0.010131462575824837
leaf_weight=21 17 13.000000000000002 13.999999999999998 6.9999999999999991 7 10.999999999999998 5.000000000000008 6.0000000000000009 30 6.9999999999999991 13.999999999999998 6.9999999999999991 4.9999999999999991 11.000000000000005 4.9999999999999973 5.9999999999999991 12.999999999999998 4.9999999999999973 8 6.9999999999999991 4.9999999999999991 5.9999999999999991 13.000000000000005 28 9 5 11.999999999999998 6.9999999999999991 6.9999999999999991 5.9999999999999991 9.0000000000000018 9 5.9999999999999991 5.9999999999999991 5.9999999999999991 9 4.9999999999999991 11 5.9999999999999991
leaf_count=21 17 13 14 7 7 11 5 6 30 7 14 7 5 11 5 6 13 5 8 7 5 6 13 28 9 5 12 7 7 6 9 9 6 6 6 9 5 11 6
internal_value=0.000169416 0.0196807 -0.00586852 -0.00898399 -0.0112713 0.00432793 -0.0191271 -0.0246374 -0.0309594 -0.0482242 -0.00673279 0.0664876 -0.0118705 -0.0169766 0.0125033 0.00254384 0.0105823 -0.00283129 -0.0343993 -0.0546271 0.0100503 0.0210254 -0.0303427 -0.0599095 0.0176535 0.0342466 -0.0194187 -0.0271721 -0.0116354 0.0100731 -0.0348518 0.0433885 -0.0209611 0.019253 -0.0402622 0.00788642 0.00257968 -0.00240589 -5.31333e-05
internal_weight=384 90 294 280 273 70 206 174 153 78 59 20 75 70 67 53 47 34 13 71 32 27 47 64 21 12 45 33 26 23 26 14 19 21 34 15 21 16 17
internal_count=384 90 294 280 273 70 206 174 153 78 59 20 75 70 67 53 47 34 13 71 32 27 47 64 21 12 45 33 26 23 26 14 19 21 34 15 21 16 17
is_linear=0
shrinkage=0.151392


Tree=14
num_leaves=39
num_cat=0
split_feature=479 1226 694 1911 699 747 1747 1019 1245 323 1260 1754 130 165 388 944 389 548 843 1171 800 32 679 843 896 878 1645 926 301 1745 585 366 1199 1912 1912 1324 499 1816
split_gain=1.80834 1.71153 1.83627 1.70257 1.78895 1.68176 1.42431 1.75432 1.25843 1.17317 1.05572 1.01463 0.87873 0.788446 1.41148 0.73138 0.576476 0.811612 0.52679 0.522633 0.475599 0.470737 0.42188 0.38241 0.3547 0.445831 0.471652 0.472666 0.346415 0.314188 0.310366 0.286913 0.188288 0.186148 0.18126 0.110086 0.0630963 0.0188341
threshold=1.0000000180025095e-35 1.0000000180025095e-35 1.0000000180025095e-35 1.0000000180025095e-35 1.0000000180025095e-35 1.0000000180025095e-35 1.0000000180025095e-35 1.0000000180025095e-35 1.0000000180025095e-35 1.0000000180025095e-35 1.0000000180025095e-35 1.0000000180025095e-35 1.0000000180025095e-35 1.0000000180025095e-35 1.0000000180025095e-35 1.0000000180025095e-35 1.0000000180025095e-35 1.0000000180025095e-35 1.0000000180025095e-35 1.0000000180025095e-35 1.0000000180025095e-35 1.0000000180025095e-35 1.0000000180025095e-35 1.0000000180025095e-35 1.0000000180025095e-35 1.0000000180025095e-35 1.0000000180025095e-35 1.0000000180025095e-35 1.0000000180025095e-35 1.0000000180025095e-35 1.0000000180025095e-35 1.0000000180025095e-35 1.0000000180025095e-35 1.0000000180025095e-35 1.0000000180025095e-35 1.0000000180025095e-35 1.0000000180025095e-35 1.0000000180025095e-35
decision_type=2 2 2 2 2 2 2 2 2 2 2 2 2 2 2 2 2 2 2 2 2 2 2 2 2 2 2 2 2 2 2 2 2 2 2 2 2 2
left_child=1 3 8 4 6 -4 7 11 13 32 16 12 22 14 15 28 17 20 33 31 21 24 29 -5 25 26 -9 -28 -3 30 -1 36 -6 35 -12 -11 -18 -13
right_child=-2 2 5 23 9 -7 -8 10 -10 18 34 37 -14 -15 -16 -17 19 -19 -20 -21 -22 -23 -24 -25 -26 -27 27 -29 -30 -31 -32 -33 -34 -35 -36 -37 -38 -39
leaf_value=-0.054028149983353028 0.074420320364664075 0.0006166816470702999 0.091981712138949012 -0.058461073874273288 0.00039883029388063866 0.0033816567023645682 0.048311491296834118 -0.043133354458605763 0.048924019787083835 0.034225173574004369 -0.055260054317267118 0.010251722418332519 0.016276932301146928 0.036794796753796259 -0.071914955992392102 -0.039404822928591057 0.023258726486286147 0.041795319013971419 0.075484654766507703 -0.017178384730942749 0.028815522418897142 0.02505752008750977 -0.0006638273561700073 -0.013868746746721681 0.014588505519175806 0.01257403028052112 -0.035699176162400745 0 0.036816015050992017 -0.0090686076510521213 -0.0068067487686213927 0.003008188184973191 -0.029538959725357947 0 -0.0088432317719778358 0.00364092875681941 0.056190436337265344 0
leaf_weight=43 4.9999999999999991 38 10 14 10.999999999999998 9 6.9999999999999991 17 9.9999999999999982 20.000000000000007 5.9999999999999982 7.9999999999999982 4.9999999999999991 6.9999999999999991 4.9999999999999991 6.9999999999999991 14.000000000000002 5.9999999999999991 4.9999999999999991 4.9999999999999991 4.9999999999999991 4.9999999999999991 5.9999999999999991 10 5.9999999999999991 6.9999999999999991 9.9999999999999982 25 4.9999999999999991 6.9999999999999991 4.9999999999999991 9.0000000000000018 4.9999999999999991 5.9999999999999991 5 4.9999999999999991 4.9999999999999991 6
leaf_count=43 5 38 10 14 11 9 7 17 10 20 6 8 5 7 5 7 14 6 5 5 5 5 6 10 6 7 10 25 5 7 5 9 5 6 5 5 5 6
internal_value=0.000449556 -0.00095814 0.0168283 -0.00672059 -0.00296702 0.0558206 -0.00920966 -0.0117856 0.00486051 0.0214988 -0.000358078 -0.0289324 -0.0365845 -0.00360791 -0.0103368 -0.000857576 0.00417571 -0.00264247 0.036023 0.0203403 -0.00758149 -0.0112567 -0.0415977 -0.0434017 -0.0150626 -0.0187657 -0.0236167 -0.0115726 0.00688281 -0.0456007 -0.0499543 0.0283408 -0.0108584 0.0242045 -0.0406349 0.0294873 0.0379792 0.00636094
internal_weight=384 379 91 288 264 19 212 205 72 52 125 80 66 62 55 50 114 81 36 33 75 70 61 24 65 59 52 35 43 55 48 28 16 31 11 25 19 14
internal_count=384 379 91 288 264 19 212 205 72 52 125 80 66 62 55 50 114 81 36 33 75 70 61 24 65 59 52 35 43 55 48 28 16 31 11 25 19 14
is_linear=0
shrinkage=0.151392


Tree=15
num_leaves=38
num_cat=0
split_feature=479 1729 58 1226 959 377 152 41 1366 1866 1 1934 407 896 1597 341 944 366 465 888 1232 652 478 1670 1163 1028 1008 161 1028 161 1066 80 329 1357 1261 708 1009
split_gain=1.44806 1.2889 1.54379 1.21328 1.50266 1.40585 1.12309 0.923967 0.879261 1.79381 1.92945 1.33123 1.1457 1.36224 0.881202 0.819336 0.743337 0.936449 1.39532 1.03233 0.604057 0.536326 0.48405 0.455496 0.428624 0.301724 0.281627 0.42006 0.220376 0.309078 0.206178 0.19725 0.191656 0.186444 0.138084 0.0754891 0.0442886
threshold=1.0000000180025095e-35 1.0000000180025095e-35 1.0000000180025095e-35 1.0000000180025095e-35 1.0000000180025095e-35 1.0000000180025095e-35 1.0000000180025095e-35 1.0000000180025095e-35 1.0000000180025095e-35 1.0000000180025095e-35 1.0000000180025095e-35 1.0000000180025095e-35 1.0000000180025095e-35 1.0000000180025095e-35 1.0000000180025095e-35 1.0000000180025095e-35 1.0000000180025095e-35 1.0000000180025095e-35 1.0000000180025095e-35 1.0000000180025095e-35 1.0000000180025095e-35 1.0000000180025095e-35 1.0000000180025095e-35 1.0000000180025095e-35 1.0000000180025095e-35 1.0000000180025095e-35 1.0000000180025095e-35 1.0000000180025095e-35 1.0000000180025095e-35 1.0000000180025095e-35 1.0000000180025095e-35 1.0000000180025095e-35 1.0000000180025095e-35 1.0000000180025095e-35 1.0000000180025095e-35 1.0000000180025095e-35 1.0000000180025095e-35
decision_type=2 2 2 2 2 2 2 2 2 2 2 2 2 2 2 2 2 2 2 2 2 2 2 2 2 2 2 2 2 2 2 2 2 2 2 2 2
left_child=1 2 3 5 16 6 8 -6 9 10 14 12 13 26 15 30 17 31 19 -19 25 32 -3 -21 28 -14 27 -10 29 33 -1 -5 34 -7 36 -12 -11
right_child=-2 22 -4 4 7 24 -8 -9 11 21 35 -13 20 -15 -16 -17 -18 18 -20 23 -22 -23 -24 -25 -26 -27 -28 -29 -30 -31 -32 -33 -34 -35 -36 -37 -38
leaf_value=-0.061904358798371813 0.066842913842340312 0.071820149191098928 -0.059726370021664067 0.013129824084627867 0.087503011356802871 -0.016165189297368526 0.047860389740580524 0.011084696863428197 -0.015025825404817379 -0.0076678464723787055 0.021359558098601301 0.056692241859162516 0.027168046079335911 0.024305526273807193 0.0086146707399104294 -0.00074388003660815427 -0.034978553665314542 0.016445581871329416 0.026166982112394571 -0.060947066881792196 -0.016422477411676316 0.034434265977635693 0.0073665448290415013 -0.0027814266137902652 0.047192763327135061 -0.0036044080014053606 -0.006153299811681388 -0.057819163763237418 0.029542988209357902 0.028537567732326491 -0.014846199867987195 0.047479465226859183 0.015748401142256695 0.011268715379038272 0.0085436821628377384 0.0004858447264052339 -0.022586679287391633
leaf_weight=44 4.9999999999999991 4.9999999999999982 7.9999999999999991 11 6.9999999999999973 14.000000000000005 4.9999999999999991 8 12.000000000000002 27 5.0000000000000009 5.9999999999999991 27 8.9999999999999982 4.9999999999999991 6.9999999999999991 6.9999999999999991 7.0000000000000027 18 10.999999999999998 11.999999999999998 6.9999999999999991 6 4.9999999999999991 7.9999999999999991 7.9999999999999991 7.9999999999999991 15.999999999999998 6.9999999999999991 4.9999999999999991 4.9999999999999991 11 5.9999999999999991 5.9999999999999991 5.9999999999999991 12 7.9999999999999991
leaf_count=44 5 5 8 11 7 14 5 8 12 27 5 6 27 9 5 7 7 7 18 11 12 7 6 5 8 8 8 16 7 5 5 11 6 6 6 12 8
internal_value=0.000655146 -0.000602167 -0.00230516 -0.0005977 0.014914 -0.00553176 -0.0100643 0.0547926 -0.0118722 -0.0198275 -0.0341639 -0.000795871 -0.00605895 -0.0228339 -0.0463773 -0.0516825 0.00461995 0.0103725 -0.00312027 -0.0269049 0.0100509 0.00121164 0.0454169 -0.0463016 0.0198151 0.0199813 -0.0357781 -0.0426106 0.00970935 0.00151411 -0.0583061 0.0339 -0.00490368 -0.00697782 -0.0089633 0.00925602 -0.012701
internal_weight=384 379 368 360 85 275 235 15 230 132 78 98 92 45 61 56 70 63 41 23 47 54 11 16 40 35 36 28 32 25 49 22 47 20 41 17 35
internal_count=384 379 368 360 85 275 235 15 230 132 78 98 92 45 61 56 70 63 41 23 47 54 11 16 40 35 36 28 32 25 49 22 47 20 41 17 35
is_linear=0
shrinkage=0.151392


Tree=16
num_leaves=31
num_cat=0
split_feature=1076 1436 329 1114 1911 361 699 29 1581 377 1066 896 1152 1619 944 1762 739 1801 489 92 715 781 216 959 341 652 80 673 739 1325
split_gain=0.932909 1.28645 1.40288 1.47708 1.3604 1.15242 1.23579 1.03627 1.22016 0.992028 0.930082 0.886678 0.836022 0.771387 0.755848 0.585558 0.56277 0.557809 0.540361 0.4156 0.403862 0.456025 0.349013 0.318866 0.292398 0.206686 0.265133 0.162142 0.0738029 0.0358661
threshold=1.0000000180025095e-35 1.0000000180025095e-35 1.0000000180025095e-35 1.0000000180025095e-35 1.0000000180025095e-35 1.0000000180025095e-35 1.0000000180025095e-35 1.0000000180025095e-35 1.0000000180025095e-35 1.0000000180025095e-35 1.0000000180025095e-35 1.0000000180025095e-35 1.0000000180025095e-35 1.0000000180025095e-35 1.0000000180025095e-35 1.0000000180025095e-35 1.0000000180025095e-35 1.0000000180025095e-35 1.0000000180025095e-35 1.0000000180025095e-35 1.0000000180025095e-35 1.0000000180025095e-35 1.0000000180025095e-35 1.0000000180025095e-35 1.0000000180025095e-35 1.0000000180025095e-35 1.0000000180025095e-35 1.0000000180025095e-35 1.0000000180025095e-35 1.0000000180025095e-35
decision_type=2 2 2 2 2 2 2 2 2 2 2 2 2 2 2 2 2 2 2 2 2 2 2 2 2 2 2 2 2 2
left_child=1 2 4 14 5 6 7 8 9 10 11 13 -8 16 20 -5 17 24 -9 -15 21 22 -4 -13 -1 26 -14 -6 -11 -24
right_child=-2 -3 3 15 27 -7 12 18 -10 28 -12 23 25 19 -16 -17 -18 -19 -20 -21 -22 -23 29 -25 -26 -27 -28 -29 -30 -31
leaf_value=-0.042517223598874852 0.045569536241796826 -0.050332508404729047 0.034679262774425665 0.072980133783943274 -0.045424083675307633 0.046646388991632246 -0.021266831904471113 0.0014299582069245479 0.024766581288063756 0.028880750739429101 0.025120152553394788 -0.0063444016081925826 0.0029779162924373844 -0.019100849892561254 -0.038695186183477483 0.0088161400618246514 -0.0045007068017631552 0.00016149665901779597 0.058711802242822075 0.018552312441124378 -0.010582492622735787 -0.0098564686000249015 0.010821072232414299 0.032378822145012177 -0.0034967476509960424 0.04665375294426076 0.030728521693069694 -0.014969224525001818 0.0045305930674513408 -0.0011127308092648783
leaf_weight=74 7.9999999999999991 8.9999999999999982 26 11.000000000000002 15 8.9999999999999982 7.9999999999999991 8.9999999999999982 17 6.9999999999999973 7.9999999999999991 8.9999999999999982 17 11 4.9999999999999991 5.9999999999999991 17 7.9999999999999991 4.9999999999999991 11 11.999999999999998 8.9999999999999982 7.9999999999999973 5.9999999999999991 5.9999999999999991 8.9999999999999982 15.999999999999998 12 8 8
leaf_count=74 8 9 26 11 15 9 8 9 17 7 8 9 17 11 5 6 17 8 5 11 12 9 8 6 6 9 16 12 8 8
internal_value=0.000907594 -0.000292487 0.00122013 0.0180133 -0.00390299 -0.000287371 -0.00250138 -0.00798989 -0.0112043 -0.0153007 -0.0190886 -0.0220581 0.0181172 -0.0261638 0.00698556 0.0549994 -0.031453 -0.0362427 0.0284108 0 0.0121309 0.0179773 0.0244717 0.0106958 -0.0399511 0.0266898 0.0180167 -0.0347243 0.0191474 0.00473156
internal_weight=384 376 367 85 282 255 246 196 182 165 150 142 50 127 68 17 105 88 14 22 63 51 42 15 80 42 33 27 15 16
internal_count=384 376 367 85 282 255 246 196 182 165 150 142 50 127 68 17 105 88 14 22 63 51 42 15 80 42 33 27 15 16
is_linear=0
shrinkage=0.151392


Tree=17
num_leaves=23
num_cat=0
split_feature=110 479 909 719 590 152 1488 361 1982 1480 699 2030 890 114 377 249 1306 787 80 1357 1019 80
split_gain=1.20438 1.07131 0.870901 0.776762 0.722776 1.6581 0.704913 0.901417 1.07218 0.835214 0.787908 0.644584 0.651047 0.843145 0.685536 0.860956 0.606396 0.496873 0.291976 0.260229 0.119872 0.10525
threshold=1.0000000180025095e-35 1.0000000180025095e-35 1.0000000180025095e-35 1.0000000180025095e-35 1.0000000180025095e-35 1.0000000180025095e-35 1.0000000180025095e-35 1.0000000180025095e-35 1.0000000180025095e-35 1.0000000180025095e-35 1.0000000180025095e-35 1.0000000180025095e-35 1.0000000180025095e-35 1.0000000180025095e-35 1.0000000180025095e-35 1.0000000180025095e-35 1.0000000180025095e-35 1.0000000180025095e-35 1.0000000180025095e-35 1.0000000180025095e-35 1.0000000180025095e-35 1.0000000180025095e-35
decision_type=2 2 2 2 2 2 2 2 2 2 2 2 2 2 2 2 2 2 2 2 2 2
left_child=1 2 3 4 5 6 7 8 11 20 -9 12 13 14 15 16 -1 -17 19 -16 -8 -15
right_child=-2 -3 -4 -5 -6 -7 9 10 -10 -11 -12 -13 -14 21 18 17 -18 -19 -20 -21 -22 -23
leaf_value=-0.017627616775174021 -0.055519726226466427 0.059237755433560732 0.046528635783940495 0.032116603063161643 -0.045355232463902134 0.0702481800814799 -0.011993842779804862 0.059098378091215424 -0.051636584511667007 0.050241567526351436 -0.003089264061505349 0.039750089988689209 0.031742503379997226 -0.01435595230772118 -0.022346909416028887 0.009007493699992139 0.02706318300227082 -0.015237040514906082 0.028446001800221325 0.012946425631915165 0.010917026801737055 -0.050922748269618463
leaf_weight=126 5.9999999999999991 4.9999999999999991 6.9999999999999991 13.999999999999998 5.9999999999999991 4.9999999999999991 8.9999999999999982 6.9999999999999973 8.9999999999999982 10.000000000000002 8 4.9999999999999991 7.9999999999999991 6.9999999999999973 4.9999999999999973 77 4.9999999999999991 23 15.999999999999998 11 6.9999999999999991 8
leaf_count=126 6 5 7 14 6 5 9 7 9 10 8 5 8 7 5 77 5 23 16 11 7 8
internal_value=0.00100799 0.00229178 0.00111178 -2.0337e-05 -0.00155004 -0.000438436 -0.00200648 -0.00407564 -0.00601476 0.0207698 0.0293239 -0.00413912 -0.00528423 -0.00666625 -0.00442484 -0.00737148 -0.0153537 0.00306423 0.0154548 0 -0.00108871 -0.0390529
internal_weight=384 378 373 366 352 346 341 315 300 26 15 291 286 278 263 231 131 100 32 16 16 15
internal_count=384 378 373 366 352 346 341 315 300 26 15 291 286 278 263 231 131 100 32 16 16 15
is_linear=0
shrinkage=0.151392


Tree=18
num_leaves=27
num_cat=0
split_feature=479 1729 58 1436 1280 329 249 361 377 39 34 548 1385 959 1581 1445 1136 478 1306 1472 893 881 693 1099 552 959
split_gain=0.899773 0.833534 1.05718 1.01906 0.77759 0.795242 0.986942 0.877955 0.892697 0.937141 0.925184 0.650844 0.664691 0.658057 1.07058 0.912177 0.610871 0.466769 0.354324 0.337364 0.331039 0.212885 0.204205 0.192861 0.173962 0.0601566
