tree
version=v4
num_class=1
num_tree_per_iteration=1
label_index=0
max_feature_idx=2047
objective=regression
feature_names=Column_0 Column_1 Column_2 Column_3 Column_4 Column_5 Column_6 Column_7 Column_8 Column_9 Column_10 Column_11 Column_12 Column_13 Column_14 Column_15 Column_16 Column_17 Column_18 Column_19 Column_20 Column_21 Column_22 Column_23 Column_24 Column_25 Column_26 Column_27 Column_28 Column_29 Column_30 Column_31 Column_32 Column_33 Column_34 Column_35 Column_36 Column_37 Column_38 Column_39 Column_40 Column_41 Column_42 Column_43 Column_44 Column_45 Column_46 Column_47 Column_48 Column_49 Column_50 Column_51 Column_52 Column_53 Column_54 Column_55 Column_56 Column_57 Column_58 Column_59 Column_60 Column_61 Column_62 Column_63 Column_64 Column_65 Column_66 Column_67 Column_68 Column_69 Column_70 Column_71 Column_72 Column_73 Column_74 Column_75 Column_76 Column_77 Column_78 Column_79 Column_80 Column_81 Column_82 Column_83 Column_84 Column_85 Column_86 Column_87 Column_88 Column_89 Column_90 Column_91 Column_92 Column_93 Column_94 Column_95 Column_96 Column_97 Column_98 Column_99 Column_100 Column_101 Column_102 Column_103 Column_104 Column_105 Column_106 Column_107 Column_108 Column_109 Column_110 Column_111 Column_112 Column_113 Column_114 Column_115 Column_116 Column_117 Column_118 Column_119 Column_120 Column_121 Column_122 Column_123 Column_124 Column_125 Column_126 Column_127 Column_128 Column_129 Column_130 Column_131 Column_132 Column_133 Column_134 Column_135 Column_136 Column_137 Column_138 Column_139 Column_140 Column_141 Column_142 Column_143 Column_144 Column_145 Column_146 Column_147 Column_148 Column_149 Column_150 Column_151 Column_152 Column_153 Column_154 Column_155 Column_156 Column_157 Column_158 Column_159 Column_160 Column_161 Column_162 Column_163 Column_164 Column_165 Column_166 Column_167 Column_168 Column_169 Column_170 Column_171 Column_172 Column_173 Column_174 Column_175 Column_176 Column_177 Column_178 Column_179 Column_180 Column_181 Column_182 Column_183 Column_184 Column_185 Column_186 Column_187 Column_188 Column_189 Column_190 Column_191 Column_192 Column_193 Column_194 Column_195 Column_196 Column_197 Column_198 Column_199 Column_200 Column_201 Column_202 Column_203 Column_204 Column_205 Column_206 Column_207 Column_208 Column_209 Column_210 Column_211 Column_212 Column_213 Column_214 Column_215 Column_216 Column_217 Column_218 Column_219 Column_220 Column_221 Column_222 Column_223 Column_224 Column_225 Column_226 Column_227 Column_228 Column_229 Column_230 Column_231 Column_232 Column_233 Column_234 Column_235 Column_236 Column_237 Column_238 Column_239 Column_240 Column_241 Column_242 Column_243 Column_244 Column_245 Column_246 Column_247 Column_248 Column_249 Column_250 Column_251 Column_252 Column_253 Column_254 Column_255 Column_256 Column_257 Column_258 Column_259 Column_260 Column_261 Column_262 Column_263 Column_264 Column_265 Column_266 Column_267 Column_268 Column_269 Column_270 Column_271 Column_272 Column_273 Column_274 Column_275 Column_276 Column_277 Column_278 Column_279 Column_280 Column_281 Column_282 Column_283 Column_284 Column_285 Column_286 Column_287 Column_288 Column_289 Column_290 Column_291 Column_292 Column_293 Column_294 Column_295 Column_296 Column_297 Column_298 Column_299 Column_300 Column_301 Column_302 Column_303 Column_304 Column_305 Column_306 Column_307 Column_308 Column_309 Column_310 Column_311 Column_312 Column_313 Column_314 Column_315 Column_316 Column_317 Column_318 Column_319 Column_320 Column_321 Column_322 Column_323 Column_324 Column_325 Column_326 Column_327 Column_328 Column_329 Column_330 Column_331 Column_332 Column_333 Column_334 Column_335 Column_336 Column_337 Column_338 Column_339 Column_340 Column_341 Column_342 Column_343 Column_344 Column_345 Column_346 Column_347 Column_348 Column_349 Column_350 Column_351 Column_352 Column_353 Column_354 Column_355 Column_356 Column_357 Column_358 Column_359 Column_360 Column_361 Column_362 Column_363 Column_364 Column_365 Column_366 Column_367 Column_368 Column_369 Column_370 Column_371 Column_372 Column_373 Column_374 Column_375 Column_376 Column_377 Column_378 Column_379 Column_380 Column_381 Column_382 Column_383 Column_384 Column_385 Column_386 Column_387 Column_388 Column_389 Column_390 Column_391 Column_392 Column_393 Column_394 Column_395 Column_396 Column_397 Column_398 Column_399 Column_400 Column_401 Column_402 Column_403 Column_404 Column_405 Column_406 Column_407 Column_408 Column_409 Column_410 Column_411 Column_412 Column_413 Column_414 Column_415 Column_416 Column_417 Column_418 Column_419 Column_420 Column_421 Column_422 Column_423 Column_424 Column_425 Column_426 Column_427 Column_428 Column_429 Column_430 Column_431 Column_432 Column_433 Column_434 Column_435 Column_436 Column_437 Column_438 Column_439 Column_440 Column_441 Column_442 Column_443 Column_444 Column_445 Column_446 Column_447 Column_448 Column_449 Column_450 Column_451 Column_452 Column_453 Column_454 Column_455 Column_456 Column_457 Column_458 Column_459 Column_460 Column_461 Column_462 Column_463 Column_464 Column_465 Column_466 Column_467 Column_468 Column_469 Column_470 Column_471 Column_472 Column_473 Column_474 Column_475 Column_476 Column_477 Column_478 Column_479 Column_480 Column_481 Column_482 Column_483 Column_484 Column_485 Column_486 Column_487 Column_488 Column_489 Column_490 Column_491 Column_492 Column_493 Column_494 Column_495 Column_496 Column_497 Column_498 Column_499 Column_500 Column_501 Column_502 Column_503 Column_504 Column_505 Column_506 Column_507 Column_508 Column_509 Column_510 Column_511 Column_512 Column_513 Column_514 Column_515 Column_516 Column_517 Column_518 Column_519 Column_520 Column_521 Column_522 Column_523 Column_524 Column_525 Column_526 Column_527 Column_528 Column_529 Column_530 Column_531 Column_532 Column_533 Column_534 Column_535 Column_536 Column_537 Column_538 Column_539 Column_540 Column_541 Column_542 Column_543 Column_544 Column_545 Column_546 Column_547 Column_548 Column_549 Column_550 Column_551 Column_552 Column_553 Column_554 Column_555 Column_556 Column_557 Column_558 Column_559 Column_560 Column_561 Column_562 Column_563 Column_564 Column_565 Column_566 Column_567 Column_568 Column_569 Column_570 Column_571 Column_572 Column_573 Column_574 Column_575 Column_576 Column_577 Column_578 Column_579 Column_580 Column_581 Column_582 Column_583 Column_584 Column_585 Column_586 Column_587 Column_588 Column_589 Column_590 Column_591 Column_592 Column_593 Column_594 Column_595 Column_596 Column_597 Column_598 Column_599 Column_600 Column_601 Column_602 Column_603 Column_604 Column_605 Column_606 Column_607 Column_608 Column_609 Column_610 Column_611 Column_612 Column_613 Column_614 Column_615 Column_616 Column_617 Column_618 Column_619 Column_620 Column_621 Column_622 Column_623 Column_624 Column_625 Column_626 Column_627 Column_628 Column_629 Column_630 Column_631 Column_632 Column_633 Column_634 Column_635 Column_636 Column_637 Column_638 Column_639 Column_640 Column_641 Column_642 Column_643 Column_644 Column_645 Column_646 Column_647 Column_648 Column_649 Column_650 Column_651 Column_652 Column_653 Column_654 Column_655 Column_656 Column_657 Column_658 Column_659 Column_660 Column_661 Column_662 Column_663 Column_664 Column_665 Column_666 Column_667 Column_668 Column_669 Column_670 Column_671 Column_672 Column_673 Column_674 Column_675 Column_676 Column_677 Column_678 Column_679 Column_680 Column_681 Column_682 Column_683 Column_684 Column_685 Column_686 Column_687 Column_688 Column_689 Column_690 Column_691 Column_692 Column_693 Column_694 Column_695 Column_696 Column_697 Column_698 Column_699 Column_700 Column_701 Column_702 Column_703 Column_704 Column_705 Column_706 Column_707 Column_708 Column_709 Column_710 Column_711 Column_712 Column_713 Column_714 Column_715 Column_716 Column_717 Column_718 Column_719 Column_720 Column_721 Column_722 Column_723 Column_724 Column_725 Column_726 Column_727 Column_728 Column_729 Column_730 Column_731 Column_732 Column_733 Column_734 Column_735 Column_736 Column_737 Column_738 Column_739 Column_740 Column_741 Column_742 Column_743 Column_744 Column_745 Column_746 Column_747 Column_748 Column_749 Column_750 Column_751 Column_752 Column_753 Column_754 Column_755 Column_756 Column_757 Column_758 Column_759 Column_760 Column_761 Column_762 Column_763 Column_764 Column_765 Column_766 Column_767 Column_768 Column_769 Column_770 Column_771 Column_772 Column_773 Column_774 Column_775 Column_776 Column_777 Column_778 Column_779 Column_780 Column_781 Column_782 Column_783 Column_784 Column_785 Column_786 Column_787 Column_788 Column_789 Column_790 Column_791 Column_792 Column_793 Column_794 Column_795 Column_796 Column_797 Column_798 Column_799 Column_800 Column_801 Column_802 Column_803 Column_804 Column_805 Column_806 Column_807 Column_808 Column_809 Column_810 Column_811 Column_812 Column_813 Column_814 Column_815 Column_816 Column_817 Column_818 Column_819 Column_820 Column_821 Column_822 Column_823 Column_824 Column_825 Column_826 Column_827 Column_828 Column_829 Column_830 Column_831 Column_832 Column_833 Column_834 Column_835 Column_836 Column_837 Column_838 Column_839 Column_840 Column_841 Column_842 Column_843 Column_844 Column_845 Column_846 Column_847 Column_848 Column_849 Column_850 Column_851 Column_852 Column_853 Column_854 Column_855 Column_856 Column_857 Column_858 Column_859 Column_860 Column_861 Column_862 Column_863 Column_864 Column_865 Column_866 Column_867 Column_868 Column_869 Column_870 Column_871 Column_872 Column_873 Column_874 Column_875 Column_876 Column_877 Column_878 Column_879 Column_880 Column_881 Column_882 Column_883 Column_884 Column_885 Column_886 Column_887 Column_888 Column_889 Column_890 Column_891 Column_892 Column_893 Column_894 Column_895 Column_896 Column_897 Column_898 Column_899 Column_900 Column_901 Column_902 Column_903 Column_904 Column_905 Column_906 Column_907 Column_908 Column_909 Column_910 Column_911 Column_912 Column_913 Column_914 Column_915 Column_916 Column_917 Column_918 Column_919 Column_920 Column_921 Column_922 Column_923 Column_924 Column_925 Column_926 Column_927 Column_928 Column_929 Column_930 Column_931 Column_932 Column_933 Column_934 Column_935 Column_936 Column_937 Column_938 Column_939 Column_940 Column_941 Column_942 Column_943 Column_944 Column_945 Column_946 Column_947 Column_948 Column_949 Column_950 Column_951 Column_952 Column_953 Column_954 Column_955 Column_956 Column_957 Column_958 Column_959 Column_960 Column_961 Column_962 Column_963 Column_964 Column_965 Column_966 Column_967 Column_968 Column_969 Column_970 Column_971 Column_972 Column_973 Column_974 Column_975 Column_976 Column_977 Column_978 Column_979 Column_980 Column_981 Column_982 Column_983 Column_984 Column_985 Column_986 Column_987 Column_988 Column_989 Column_990 Column_991 Column_992 Column_993 Column_994 Column_995 Column_996 Column_997 Column_998 Column_999 Column_1000 Column_1001 Column_1002 Column_1003 Column_1004 Column_1005 Column_1006 Column_1007 Column_1008 Column_1009 Column_1010 Column_1011 Column_1012 Column_1013 Column_1014 Column_1015 Column_1016 Column_1017 Column_1018 Column_1019 Column_1020 Column_1021 Column_1022 Column_1023 Column_1024 Column_1025 Column_1026 Column_1027 Column_1028 Column_1029 Column_1030 Column_1031 Column_1032 Column_1033 Column_1034 Column_1035 Column_1036 Column_1037 Column_1038 Column_1039 Column_1040 Column_1041 Column_1042 Column_1043 Column_1044 Column_1045 Column_1046 Column_1047 Column_1048 Column_1049 Column_1050 Column_1051 Column_1052 Column_1053 Column_1054 Column_1055 Column_1056 Column_1057 Column_1058 Column_1059 Column_1060 Column_1061 Column_1062 Column_1063 Column_1064 Column_1065 Column_1066 Column_1067 Column_1068 Column_1069 Column_1070 Column_1071 Column_1072 Column_1073 Column_1074 Column_1075 Column_1076 Column_1077 Column_1078 Column_1079 Column_1080 Column_1081 Column_1082 Column_1083 Column_1084 Column_1085 Column_1086 Column_1087 Column_1088 Column_1089 Column_1090 Column_1091 Column_1092 Column_1093 Column_1094 Column_1095 Column_1096 Column_1097 Column_1098 Column_1099 Column_1100 Column_1101 Column_1102 Column_1103 Column_1104 Column_1105 Column_1106 Column_1107 Column_1108 Column_1109 Column_1110 Column_1111 Column_1112 Column_1113 Column_1114 Column_1115 Column_1116 Column_1117 Column_1118 Column_1119 Column_1120 Column_1121 Column_1122 Column_1123 Column_1124 Column_1125 Column_1126 Column_1127 Column_1128 Column_1129 Column_1130 Column_1131 Column_1132 Column_1133 Column_1134 Column_1135 Column_1136 Column_1137 Column_1138 Column_1139 Column_1140 Column_1141 Column_1142 Column_1143 Column_1144 Column_1145 Column_1146 Column_1147 Column_1148 Column_1149 Column_1150 Column_1151 Column_1152 Column_1153 Column_1154 Column_1155 Column_1156 Column_1157 Column_1158 Column_1159 Column_1160 Column_1161 Column_1162 Column_1163 Column_1164 Column_1165 Column_1166 Column_1167 Column_1168 Column_1169 Column_1170 Column_1171 Column_1172 Column_1173 Column_1174 Column_1175 Column_1176 Column_1177 Column_1178 Column_1179 Column_1180 Column_1181 Column_1182 Column_1183 Column_1184 Column_1185 Column_1186 Column_1187 Column_1188 Column_1189 Column_1190 Column_1191 Column_1192 Column_1193 Column_1194 Column_1195 Column_1196 Column_1197 Column_1198 Column_1199 Column_1200 Column_1201 Column_1202 Column_1203 Column_1204 Column_1205 Column_1206 Column_1207 Column_1208 Column_1209 Column_1210 Column_1211 Column_1212 Column_1213 Column_1214 Column_1215 Column_1216 Column_1217 Column_1218 Column_1219 Column_1220 Column_1221 Column_1222 Column_1223 Column_1224 Column_1225 Column_1226 Column_1227 Column_1228 Column_1229 Column_1230 Column_1231 Column_1232 Column_1233 Column_1234 Column_1235 Column_1236 Column_1237 Column_1238 Column_1239 Column_1240 Column_1241 Column_1242 Column_1243 Column_1244 Column_1245 Column_1246 Column_1247 Column_1248 Column_1249 Column_1250 Column_1251 Column_1252 Column_1253 Column_1254 Column_1255 Column_1256 Column_1257 Column_1258 Column_1259 Column_1260 Column_1261 Column_1262 Column_1263 Column_1264 Column_1265 Column_1266 Column_1267 Column_1268 Column_1269 Column_1270 Column_1271 Column_1272 Column_1273 Column_1274 Column_1275 Column_1276 Column_1277 Column_1278 Column_1279 Column_1280 Column_1281 Column_1282 Column_1283 Column_1284 Column_1285 Column_1286 Column_1287 Column_1288 Column_1289 Column_1290 Column_1291 Column_1292 Column_1293 Column_1294 Column_1295 Column_1296 Column_1297 Column_1298 Column_1299 Column_1300 Column_1301 Column_1302 Column_1303 Column_1304 Column_1305 Column_1306 Column_1307 Column_1308 Column_1309 Column_1310 Column_1311 Column_1312 Column_1313 Column_1314 Column_1315 Column_1316 Column_1317 Column_1318 Column_1319 Column_1320 Column_1321 Column_1322 Column_1323 Column_1324 Column_1325 Column_1326 Column_1327 Column_1328 Column_1329 Column_1330 Column_1331 Column_1332 Column_1333 Column_1334 Column_1335 Column_1336 Column_1337 Column_1338 Column_1339 Column_1340 Column_1341 Column_1342 Column_1343 Column_1344 Column_1345 Column_1346 Column_1347 Column_1348 Column_1349 Column_1350 Column_1351 Column_1352 Column_1353 Column_1354 Column_1355 Column_1356 Column_1357 Column_1358 Column_1359 Column_1360 Column_1361 Column_1362 Column_1363 Column_1364 Column_1365 Column_1366 Column_1367 Column_1368 Column_1369 Column_1370 Column_1371 Column_1372 Column_1373 Column_1374 Column_1375 Column_1376 Column_1377 Column_1378 Column_1379 Column_1380 Column_1381 Column_1382 Column_1383 Column_1384 Column_1385 Column_1386 Column_1387 Column_1388 Column_1389 Column_1390 Column_1391 Column_1392 Column_1393 Column_1394 Column_1395 Column_1396 Column_1397 Column_1398 Column_1399 Column_1400 Column_1401 Column_1402 Column_1403 Column_1404 Column_1405 Column_1406 Column_1407 Column_1408 Column_1409 Column_1410 Column_1411 Column_1412 Column_1413 Column_1414 Column_1415 Column_1416 Column_1417 Column_1418 Column_1419 Column_1420 Column_1421 Column_1422 Column_1423 Column_1424 Column_1425 Column_1426 Column_1427 Column_1428 Column_1429 Column_1430 Column_1431 Column_1432 Column_1433 Column_1434 Column_1435 Column_1436 Column_1437 Column_1438 Column_1439 Column_1440 Column_1441 Column_1442 Column_1443 Column_1444 Column_1445 Column_1446 Column_1447 Column_1448 Column_1449 Column_1450 Column_1451 Column_1452 Column_1453 Column_1454 Column_1455 Column_1456 Column_1457 Column_1458 Column_1459 Column_1460 Column_1461 Column_1462 Column_1463 Column_1464 Column_1465 Column_1466 Column_1467 Column_1468 Column_1469 Column_1470 Column_1471 Column_1472 Column_1473 Column_1474 Column_1475 Column_1476 Column_1477 Column_1478 Column_1479 Column_1480 Column_1481 Column_1482 Column_1483 Column_1484 Column_1485 Column_1486 Column_1487 Column_1488 Column_1489 Column_1490 Column_1491 Column_1492 Column_1493 Column_1494 Column_1495 Column_1496 Column_1497 Column_1498 Column_1499 Column_1500 Column_1501 Column_1502 Column_1503 Column_1504 Column_1505 Column_1506 Column_1507 Column_1508 Column_1509 Column_1510 Column_1511 Column_1512 Column_1513 Column_1514 Column_1515 Column_1516 Column_1517 Column_1518 Column_1519 Column_1520 Column_1521 Column_1522 Column_1523 Column_1524 Column_1525 Column_1526 Column_1527 Column_1528 Column_1529 Column_1530 Column_1531 Column_1532 Column_1533 Column_1534 Column_1535 Column_1536 Column_1537 Column_1538 Column_1539 Column_1540 Column_1541 Column_1542 Column_1543 Column_1544 Column_1545 Column_1546 Column_1547 Column_1548 Column_1549 Column_1550 Column_1551 Column_1552 Column_1553 Column_1554 Column_1555 Column_1556 Column_1557 Column_1558 Column_1559 Column_1560 Column_1561 Column_1562 Column_1563 Column_1564 Column_1565 Column_1566 Column_1567 Column_1568 Column_1569 Column_1570 Column_1571 Column_1572 Column_1573 Column_1574 Column_1575 Column_1576 Column_1577 Column_1578 Column_1579 Column_1580 Column_1581 Column_1582 Column_1583 Column_1584 Column_1585 Column_1586 Column_1587 Column_1588 Column_1589 Column_1590 Column_1591 Column_1592 Column_1593 Column_1594 Column_1595 Column_1596 Column_1597 Column_1598 Column_1599 Column_1600 Column_1601 Column_1602 Column_1603 Column_1604 Column_1605 Column_1606 Column_1607 Column_1608 Column_1609 Column_1610 Column_1611 Column_1612 Column_1613 Column_1614 Column_1615 Column_1616 Column_1617 Column_1618 Column_1619 Column_1620 Column_1621 Column_1622 Column_1623 Column_1624 Column_1625 Column_1626 Column_1627 Column_1628 Column_1629 Column_1630 Column_1631 Column_1632 Column_1633 Column_1634 Column_1635 Column_1636 Column_1637 Column_1638 Column_1639 Column_1640 Column_1641 Column_1642 Column_1643 Column_1644 Column_1645 Column_1646 Column_1647 Column_1648 Column_1649 Column_1650 Column_1651 Column_1652 Column_1653 Column_1654 Column_1655 Column_1656 Column_1657 Column_1658 Column_1659 Column_1660 Column_1661 Column_1662 Column_1663 Column_1664 Column_1665 Column_1666 Column_1667 Column_1668 Column_1669 Column_1670 Column_1671 Column_1672 Column_1673 Column_1674 Column_1675 Column_1676 Column_1677 Column_1678 Column_1679 Column_1680 Column_1681 Column_1682 Column_1683 Column_1684 Column_1685 Column_1686 Column_1687 Column_1688 Column_1689 Column_1690 Column_1691 Column_1692 Column_1693 Column_1694 Column_1695 Column_1696 Column_1697 Column_1698 Column_1699 Column_1700 Column_1701 Column_1702 Column_1703 Column_1704 Column_1705 Column_1706 Column_1707 Column_1708 Column_1709 Column_1710 Column_1711 Column_1712 Column_1713 Column_1714 Column_1715 Column_1716 Column_1717 Column_1718 Column_1719 Column_1720 Column_1721 Column_1722 Column_1723 Column_1724 Column_1725 Column_1726 Column_1727 Column_1728 Column_1729 Column_1730 Column_1731 Column_1732 Column_1733 Column_1734 Column_1735 Column_1736 Column_1737 Column_1738 Column_1739 Column_1740 Column_1741 Column_1742 Column_1743 Column_1744 Column_1745 Column_1746 Column_1747 Column_1748 Column_1749 Column_1750 Column_1751 Column_1752 Column_1753 Column_1754 Column_1755 Column_1756 Column_1757 Column_1758 Column_1759 Column_1760 Column_1761 Column_1762 Column_1763 Column_1764 Column_1765 Column_1766 Column_1767 Column_1768 Column_1769 Column_1770 Column_1771 Column_1772 Column_1773 Column_1774 Column_1775 Column_1776 Column_1777 Column_1778 Column_1779 Column_1780 Column_1781 Column_1782 Column_1783 Column_1784 Column_1785 Column_1786 Column_1787 Column_1788 Column_1789 Column_1790 Column_1791 Column_1792 Column_1793 Column_1794 Column_1795 Column_1796 Column_1797 Column_1798 Column_1799 Column_1800 Column_1801 Column_1802 Column_1803 Column_1804 Column_1805 Column_1806 Column_1807 Column_1808 Column_1809 Column_1810 Column_1811 Column_1812 Column_1813 Column_1814 Column_1815 Column_1816 Column_1817 Column_1818 Column_1819 Column_1820 Column_1821 Column_1822 Column_1823 Column_1824 Column_1825 Column_1826 Column_1827 Column_1828 Column_1829 Column_1830 Column_1831 Column_1832 Column_1833 Column_1834 Column_1835 Column_1836 Column_1837 Column_1838 Column_1839 Column_1840 Column_1841 Column_1842 Column_1843 Column_1844 Column_1845 Column_1846 Column_1847 Column_1848 Column_1849 Column_1850 Column_1851 Column_1852 Column_1853 Column_1854 Column_1855 Column_1856 Column_1857 Column_1858 Column_1859 Column_1860 Column_1861 Column_1862 Column_1863 Column_1864 Column_1865 Column_1866 Column_1867 Column_1868 Column_1869 Column_1870 Column_1871 Column_1872 Column_1873 Column_1874 Column_1875 Column_1876 Column_1877 Column_1878 Column_1879 Column_1880 Column_1881 Column_1882 Column_1883 Column_1884 Column_1885 Column_1886 Column_1887 Column_1888 Column_1889 Column_1890 Column_1891 Column_1892 Column_1893 Column_1894 Column_1895 Column_1896 Column_1897 Column_1898 Column_1899 Column_1900 Column_1901 Column_1902 Column_1903 Column_1904 Column_1905 Column_1906 Column_1907 Column_1908 Column_1909 Column_1910 Column_1911 Column_1912 Column_1913 Column_1914 Column_1915 Column_1916 Column_1917 Column_1918 Column_1919 Column_1920 Column_1921 Column_1922 Column_1923 Column_1924 Column_1925 Column_1926 Column_1927 Column_1928 Column_1929 Column_1930 Column_1931 Column_1932 Column_1933 Column_1934 Column_1935 Column_1936 Column_1937 Column_1938 Column_1939 Column_1940 Column_1941 Column_1942 Column_1943 Column_1944 Column_1945 Column_1946 Column_1947 Column_1948 Column_1949 Column_1950 Column_1951 Column_1952 Column_1953 Column_1954 Column_1955 Column_1956 Column_1957 Column_1958 Column_1959 Column_1960 Column_1961 Column_1962 Column_1963 Column_1964 Column_1965 Column_1966 Column_1967 Column_1968 Column_1969 Column_1970 Column_1971 Column_1972 Column_1973 Column_1974 Column_1975 Column_1976 Column_1977 Column_1978 Column_1979 Column_1980 Column_1981 Column_1982 Column_1983 Column_1984 Column_1985 Column_1986 Column_1987 Column_1988 Column_1989 Column_1990 Column_1991 Column_1992 Column_1993 Column_1994 Column_1995 Column_1996 Column_1997 Column_1998 Column_1999 Column_2000 Column_2001 Column_2002 Column_2003 Column_2004 Column_2005 Column_2006 Column_2007 Column_2008 Column_2009 Column_2010 Column_2011 Column_2012 Column_2013 Column_2014 Column_2015 Column_2016 Column_2017 Column_2018 Column_2019 Column_2020 Column_2021 Column_2022 Column_2023 Column_2024 Column_2025 Column_2026 Column_2027 Column_2028 Column_2029 Column_2030 Column_2031 Column_2032 Column_2033 Column_2034 Column_2035 Column_2036 Column_2037 Column_2038 Column_2039 Column_2040 Column_2041 Column_2042 Column_2043 Column_2044 Column_2045 Column_2046 Column_2047
feature_infos=none [0:1] none none none none none none none none none none none [0:1] [0:1] none none none none [0:1] none none none none none none none none none none none none none none none none none none none none none none none none none [0:1] none none none none none none none none none none none none none none none none none none none [0:1] none none none none none none none none none none none none none none [0:1] none none none none none none none none none none none [0:1] none none none none none none none none none none none none none none none none none none none none none none none none none none [0:1] none none none none none none none none none none [0:1] none none none none none none none none none none none none none none none none none none none none none none none none none none none none none [0:1] [0:1] none none none none none none none none none none none none none none none none none none none none none none [0:1] none none none none none none [0:1] none none none none none [0:1] none none none none none none none none none [0:1] none none none none none none none none [0:1] none none none none none none none none none none none none none none none none [0:1] none none none none none none none none none none none none none none none [0:1] none none none none none none none none none none none none none none none none none none none none none none none none none none none none none none none none none [0:1] none none none none none none none none none none none none none none none none none none none none none none none none none none none none none none [0:1] none none none none none none none [0:1] none none none none none none [0:1] none none none none none none none none none none none none none none none none none none none none [0:1] none [0:1] none none none none none none none none none none none none none [0:1] none none none none none none none none none none none none none none none none none none none none none none [0:1] none none none none none none none none none none none [0:1] none none none none none [0:1] none none none none none none none none none none none none [0:1] none [0:1] none none none none none none none none none none none none none none none none none none none none none none none none none none none none none none none none none none none [0:1] none none none none none [0:1] [0:1] none none none none none none none none none none none none none none none none none none none none none none none [0:1] none [0:1] [0:1] none none none [0:1] none none none none none none none none none none none none none none none none none none none none none none none none none none [0:1] [0:1] none none none none none none none none none none none none none none none none none none none [0:1] none none none none none none none none none none [0:1] none none none none none [0:1] none none none none none none none none none none none none none none none none none [0:1] none none none none none none none none none none none none none none none none none none none none none none none none none none none none none none none none none none none none none none none none none none none none none none none none none none none none none none none none none none none none none none none none none none none none none none [0:1] none [0:1] none none none [0:1] none none none none none none none none none none none none none none none none [0:1] none none none none none none none none none none none none none [0:1] none none none none none [0:1] [0:1] [0:1] none none none [0:1] none none none [0:1] none none none none [0:1] none none none none none none none [0:1] none [0:1] none none [0:1] none none none none none [0:1] none none none none none none none none none none none [0:1] none none none none none none none none none none none none none none none none none none none none none none none none none none none none none none none none none none none none none none none none [0:1] none none none none none none [0:1] none none none none none none [0:1] none none none none none none none none none none none none [0:1] none none none none none none none none none none none none none none none none none none none none none none none none none none none none none none none none none [0:1] none [0:1] none none none none none none none none none none none none none none none none none none none none none none none none none none none none none none none none none none none none none [0:1] none none none none none none [0:1] none none none none none none none none none none none none none none none none none none none none none none none none none none none none none none none none none none none none none [0:1] none none none none none none none none [0:1] none none none none none none none none none none none none none none [0:1] none none none none none none none none [0:1] none [0:1] none none none none none none none none none none none none none none none none none none none none none none none none none none none none none none none none none none none none none none none none none none none none none none none none none none none none none none none none none [0:1] none none none none none none none none none none none none none none none none none none none [0:1] none none none none none none none none none [0:1] [0:1] none none none none none none [0:1] [0:1] none none none none none none none [0:1] none none none none none none none none none none none none none none none none none none none none none [0:1] none none none none none none none none [0:1] none none none none none none none none none none [0:1] none none none none none [0:1] none none none none none none none none none none none none none none none none none none none none none none none none none none none none none none [0:1] none none none none none none [0:1] none none none none [0:1] none none [0:1] none none [0:1] none none none none none none none [0:1] none none none none none none none none none [0:1] none none none none none none none none none none none none none none none none none [0:1] none none none none none none none none none none none none none none none none none none none none none none none none [0:1] none [0:1] none none none none none none none none none [0:1] none none none none none none none none [0:1] none none none none none none none none none none none none none none none none none none none none [0:1] none none none none none none none none none none none none none none none none none none none none none none none none none none none none none none none none none none none none none none none none none none none none none none none none none none none none none none none none none none [0:1] none none none none none none none none none none none none none none none none none none none none none none none none none none none none none none none [0:1] none none none none none none none none [0:1] [0:1] none none none none none none none none none none none none none none none none none none none none none none none none none none none none none none none none none none none none none [0:1] none none none none [0:1] none none none none none none none none none none none none none none none none none none none none none none none none none none none none none none none none [0:1] none none none none none none none none none none none none none [0:1] none none none none none none none [0:1] none none none none none none none none none none [0:1] none none none [0:1] none none none none none none none [0:1] none none none none none none none none none none none none none none none none none none none [0:1] none none none none none none none none none none none none none none none none none none none none none none none none none none [0:1] [0:1] none none none none none none none none none none none none none none none none none none none none none none none none none none none none none none none [0:1] none none none none none none none none none none none none [0:1] [0:1] none none none none none none [0:1] none none none none none none none none none none none none none none none none none none none none none none none none none none none [0:1] none [0:1] none none none none none none none none none none none none none none none none none none none none none none none none none [0:1] none none [0:1] none none none none none none none none none none none none none none none none none none none none none none none none none none none none none none none none none none [0:1] none none [0:1] none none none none none none none none none [0:1] none none none none none none none none none none none none none none none none none none none none none none none none none none none none none none none none none none none none none none none none none none none none none none none none none none none none none none none none none [0:1] none none none none none none none none none none none none none none none none none none none none none none none none none none none none none none none none none none none none none none none none none none none none none none none none none none none none none none none [0:1] none none none none none [0:1] none none none none none none none none [0:1] none none none none none none none none none none none none none none [0:1] none none none none [0:1] none none none none none none none none none [0:1] [0:1] none none none none none none none none none [0:1] none none none none none none none none none none none none none none none none none none none none none none none none none none none none none none none none none none none none none none [0:1] none none none none none none [0:1] none none none none [0:1] none none none none none [0:1] none none none none [0:1] none none none none none none [0:1] none none none none none none none none none none [0:1] none none none none [0:1] none none none none none none none none none none none none none none none none none none [0:1] none none none none none none none none none none none none none none none none none none none none none none none none none none none none none none none none none none none none none none [0:1] none none none none none none none [0:1] none none none none none none none none none none none none [0:1] none none none none none none none none none none none none none none none none none
tree_sizes=644 681 765 744 851 679 768 679 768 768 769 857 773 858 768 768 847 853 767 766 679 751 770 776 863 780 748 775 853 774 867 781 749 772 751 777 874 778 859 681 749 771 783 856 778 692 778 865 770 870 857 787 695 788 784 962 588 681 742 846 677 687 689 779 768 775 695 693 734 778 695 777 863 581 867 757 782 756 862 852 608 603 763 774 851 742 787 737 670 766 868 690 674 776 855

Tree=0
num_leaves=6
num_cat=0
split_feature=1645 1923 489 420 80
split_gain=109.207 20.8589 7.32293 6.85879 3.98047
threshold=1.0000000180025095e-35 1.0000000180025095e-35 1.0000000180025095e-35 1.0000000180025095e-35 1.0000000180025095e-35
decision_type=2 2 2 2 2
left_child=1 2 -1 -2 -3
right_child=3 4 -4 -5 -6
leaf_value=7.1008476117718722 7.3274077022707615 6.9603984476057299 7.1976284674102695 7.2328005534299757 7.0726871660724662
leaf_weight=31 58 19 29 30 31
leaf_count=31 58 19 29 30 31
internal_value=7.18046 7.08546 7.14659 7.29838 7.01898
internal_weight=198 110 60 88 50
internal_count=198 110 60 88 50
is_linear=0
shrinkage=1


Tree=1
num_leaves=6
num_cat=0
split_feature=1645 721 465 1816 1683
split_gain=82.2185 17.0054 8.79842 4.05136 0.21549
threshold=1.0000000180025095e-35 1.0000000180025095e-35 1.0000000180025095e-35 1.0000000180025095e-35 1.0000000180025095e-35
decision_type=2 2 2 2 2
left_child=1 2 4 -2 -1
right_child=3 -3 -4 -5 -6
leaf_value=-0.016965737368352395 0.13735516379114979 -0.18177498688524418 -0.10565423214252022 0.065163890240895653 0.00035477161525699128
leaf_weight=34 40 25 31 48 20
leaf_count=34 40 25 31 48 20
internal_value=-0.000294823 -0.082853 -0.0479879 0.101895 -0.0103988
internal_weight=198 110 85 88 54
internal_count=198 110 85 88 54
is_linear=0
shrinkage=0.144767


Tree=2
num_leaves=7
num_cat=0
split_feature=1645 721 465 489 492 489
split_gain=61.9146 12.9263 6.63703 5.14513 18.5377 1.60156
threshold=1.0000000180025095e-35 1.0000000180025095e-35 1.0000000180025095e-35 1.0000000180025095e-35 1.0000000180025095e-35 1.0000000180025095e-35
decision_type=2 2 2 2 2 2
left_child=1 2 5 4 -2 -1
right_child=3 -3 -4 -5 -6 -7
leaf_value=-0.03406985376911096 -0.040333417896623751 -0.15840438421711439 -0.091769704759289583 0.12297087554579252 0.13649031899240052 0.013047585406460576
leaf_weight=25 23 25 31 44 21 29
leaf_count=25 23 25 31 44 21 29
internal_value=-0.000462279 -0.0721194 -0.0416732 0.0882013 0.0469508 -0.00895554
internal_weight=198 110 85 88 44 54
internal_count=198 110 85 88 44 54
is_linear=0
shrinkage=0.144767


Tree=3
num_leaves=7
num_cat=0
split_feature=694 1923 1970 65 1928 80
split_gain=46.8598 11.4519 8.61928 5.45366 3.90353 0.722721
threshold=1.0000000180025095e-35 1.0000000180025095e-35 1.0000000180025095e-35 1.0000000180025095e-35 1.0000000180025095e-35 1.0000000180025095e-35
decision_type=2 2 2 2 2 2
left_child=1 4 -2 -4 -1 -3
right_child=2 5 3 -5 -6 -7
leaf_value=-0.054038103725672498 0 -0.15828373809259319 0.1140078150114255 0.023132995778016127 0.025578848840474566 -0.08494539437174306
leaf_weight=28 31 19 53 22 19 26
leaf_count=28 31 19 53 22 19 26
internal_value=-0.000513387 -0.0748982 0.0640908 0.0897132 -0.0217137 -0.124816
internal_weight=198 92 106 75 47 45
internal_count=198 92 106 75 47 45
is_linear=0
shrinkage=0.144767


Tree=4
num_leaves=8
num_cat=0
split_feature=1366 207 489 492 1928 1923 1905
split_gain=38.8968 7.32016 7.11004 17.0472 1.46184 5.23803 0.250125
threshold=1.0000000180025095e-35 1.0000000180025095e-35 1.0000000180025095e-35 1.0000000180025095e-35 1.0000000180025095e-35 1.0000000180025095e-35 1.0000000180025095e-35
decision_type=2 2 2 2 2 2 2
left_child=1 4 3 -2 -1 -6 -4
right_child=2 -3 6 -5 5 -7 -8
leaf_value=-0.063545616228105298 -0.044079631941805586 -0.13162309637213299 0.068811935554107098 0.11491032492300521 0.030608963594583174 -0.060609199736396259 0.12445360519027708
leaf_weight=29 31 23 25 21 21 26 22
leaf_count=29 31 23 25 21 21 26 22
internal_value=-0.000735269 -0.0640255 0.0623057 0.0225199 -0.0387937 -0.0199357 0.101591
internal_weight=198 99 99 52 76 47 47
internal_count=198 99 99 52 76 47 47
is_linear=0
shrinkage=0.144767


Tree=5
num_leaves=6
num_cat=0
split_feature=721 1366 465 926 1970
split_gain=30.3079 26.3065 2.2201 3.07866 0.77682
threshold=1.0000000180025095e-35 1.0000000180025095e-35 1.0000000180025095e-35 1.0000000180025095e-35 1.0000000180025095e-35
decision_type=2 2 2 2 2
left_child=1 2 3 -1 -3
right_child=-2 4 -4 -5 -6
leaf_value=-0.042836173036806133 -0.12510718799782533 0.043900984613534401 -0.064616701639510984 0.02766983125427408 0.087502631297697822
leaf_weight=28 31 26 31 19 63
leaf_count=28 31 26 31 19 63
internal_value=-0.000520598 0.0243308 -0.0360826 -0.0138322 0.0770023
internal_weight=198 167 78 47 89
internal_count=198 167 78 47 89
is_linear=0
shrinkage=0.144767


Tree=6
num_leaves=7
num_cat=0
split_feature=721 1366 727 1928 1928 1199
split_gain=22.8004 19.7061 1.50281 4.98123 0.596641 0.737457
threshold=1.0000000180025095e-35 1.0000000180025095e-35 1.0000000180025095e-35 1.0000000180025095e-35 1.0000000180025095e-35 1.0000000180025095e-35
decision_type=2 2 2 2 2 2
left_child=1 2 3 -1 5 -3
right_child=-2 4 -4 -5 -6 -7
leaf_value=-0.05357087505663586 -0.10866625755680169 0.029940839798097075 -0.06068071643334403 0.029203014395540655 0.088740590747262635 0.069712329226822162
leaf_weight=30 31 32 23 25 29 28
leaf_count=30 31 32 23 25 29 28
internal_value=-0.000591823 0.0209468 -0.0313073 -0.0159249 0.0665488 0.0514919
internal_weight=198 167 78 55 89 60
internal_count=198 167 78 55 89 60
is_linear=0
shrinkage=0.144767


Tree=7
num_leaves=6
num_cat=0
split_feature=1923 249 1683 80 1905
split_gain=16.8585 8.37297 4.88697 4.71339 2.25364
threshold=1.0000000180025095e-35 1.0000000180025095e-35 1.0000000180025095e-35 1.0000000180025095e-35 1.0000000180025095e-35
decision_type=2 2 2 2 2
left_child=1 2 -1 -2 -3
right_child=3 4 -4 -5 -6
leaf_value=0.016697605606194505 -0.11298615116520322 0.037608696180633519 -0.06124650089300912 -0.025220670750709065 0.097079329501697495
leaf_weight=44 23 55 23 32 21
leaf_count=44 23 55 23 32 21
internal_value=-0.000478231 0.0256234 -0.011212 -0.0665321 0.0576015
internal_weight=198 143 67 55 76
internal_count=198 143 67 55 76
is_linear=0
shrinkage=0.144767


Tree=8
num_leaves=7
num_cat=0
split_feature=721 1366 926 160 687 841
split_gain=14.0331 12.5313 1.00923 2.91251 0.454745 0.478413
threshold=1.0000000180025095e-35 1.0000000180025095e-35 1.0000000180025095e-35 1.0000000180025095e-35 1.0000000180025095e-35 1.0000000180025095e-35
decision_type=2 2 2 2 2 2
left_child=1 2 -1 -4 5 -3
right_child=-2 4 3 -5 -6 -7
leaf_value=-0.044099428815111523 -0.085312186229724279 0.032292426845902875 0.025892859430281454 -0.042346533572810575 0.029506482673993806 0.072011647394099099
leaf_weight=32 31 21 22 24 28 40
leaf_count=32 31 21 22 24 28 40
internal_value=-0.00049797 0.0163705 -0.0252444 -0.00957736 0.0527597 0.0610276
internal_weight=198 167 78 46 89 61
internal_count=198 167 78 46 89 61
is_linear=0
shrinkage=0.144767


Tree=9
num_leaves=7
num_cat=0
split_feature=694 492 673 1923 561 1928
split_gain=11.2242 3.26766 6.77339 2.2518 1.99398 1.30867
threshold=1.0000000180025095e-35 1.0000000180025095e-35 1.0000000180025095e-35 1.0000000180025095e-35 1.0000000180025095e-35 1.0000000180025095e-35
decision_type=2 2 2 2 2 2
left_child=3 2 4 5 -2 -1
right_child=1 -3 -4 -5 -6 -7
leaf_value=-0.031433920438989842 0.0051738677224419478 0.075207124027029837 0.064651040580513019 -0.059186994413307402 -0.050573527436803038 0.014425196782726172
leaf_weight=28 31 24 32 45 19 19
leaf_count=28 31 24 32 45 19 19
internal_value=-0.000413229 0.0311369 0.0156074 -0.0368837 -0.0172292 -0.0125997
internal_weight=198 106 82 92 50 47
internal_count=198 106 82 92 50 47
is_linear=0
shrinkage=0.144767


Tree=10
num_leaves=7
num_cat=0
split_feature=694 420 1928 1923 926 80
split_gain=8.43595 3.0205 2.02483 1.67677 4.2538 0.626946
threshold=1.0000000180025095e-35 1.0000000180025095e-35 1.0000000180025095e-35 1.0000000180025095e-35 1.0000000180025095e-35 1.0000000180025095e-35
decision_type=2 2 2 2 2 2
left_child=3 2 -2 4 -1 -5
right_child=1 -3 -4 5 -6 -7
leaf_value=-0.046519898680217012 0.017746106590035778 -0.0074247227615394096 0.068645315071688973 -0.072067577219898094 0.035881971296926572 -0.028824190762439646
leaf_weight=27 39 34 33 19 20 26
leaf_count=27 39 34 33 19 20 26
internal_value=-0.000272033 0.0270607 0.0433438 -0.0319093 -0.0108501 -0.0511792
internal_weight=198 106 72 92 47 45
internal_count=198 106 72 92 47 45
is_linear=0
shrinkage=0.144767


Tree=11
num_leaves=8
num_cat=0
split_feature=492 489 249 926 721 1905 119
split_gain=7.5928 7.72058 4.71314 2.14611 3.49424 0.775807 0.737953
threshold=1.0000000180025095e-35 1.0000000180025095e-35 1.0000000180025095e-35 1.0000000180025095e-35 1.0000000180025095e-35 1.0000000180025095e-35 1.0000000180025095e-35
decision_type=2 2 2 2 2 2 2
left_child=1 3 6 -1 -5 -4 -3
right_child=-2 2 5 4 -6 -7 -8
leaf_value=-0.082735983436229815 0.067968700700967985 0.0012271421366113781 0.024579343304740174 0.0072470975577988185 -0.064868393637045385 0.066831004340615716 -0.032590709915109692
leaf_weight=22 26 22 32 28 23 19 26
leaf_count=22 26 22 32 28 23 19 26
internal_value=-0.000306465 -0.0118224 0.0142229 -0.0466361 -0.0266441 0.0438047 -0.0174267
internal_weight=198 172 99 73 51 51 48
internal_count=198 172 99 73 51 51 48
is_linear=0
shrinkage=0.144767


Tree=12
num_leaves=7
num_cat=0
split_feature=492 1905 652 1928 80 1923
split_gain=5.755 4.35867 2.1039 1.84931 2.91237 0.825457
threshold=1.0000000180025095e-35 1.0000000180025095e-35 1.0000000180025095e-35 1.0000000180025095e-35 1.0000000180025095e-35 1.0000000180025095e-35
decision_type=2 2 2 2 2 2
left_child=1 2 3 4 -1 -5
right_child=-2 -3 -4 5 -6 -7
leaf_value=-0.074762042401304268 0.059192271771320172 0.043088255436378953 0.0099352305147103661 0.010461703383048178 -0.013535564494762656 -0.026390166346506035
leaf_weight=31 26 24 35 26 37 19
leaf_count=31 26 24 35 26 37 19
internal_value=-0.00023011 -0.010274 -0.0198287 -0.0293061 -0.0439119 -0.00522962
internal_weight=198 172 148 113 68 45
internal_count=198 172 148 113 68 45
is_linear=0
shrinkage=0.144767


Tree=13
num_leaves=8
num_cat=0
split_feature=464 950 695 1039 407 780 1855
split_gain=3.71174 2.55634 4.23128 1.33915 1.03972 1.03257 0.062965
threshold=1.0000000180025095e-35 1.0000000180025095e-35 1.0000000180025095e-35 1.0000000180025095e-35 1.0000000180025095e-35 1.0000000180025095e-35 1.0000000180025095e-35
decision_type=2 2 2 2 2 2 2
left_child=1 2 -1 6 -5 -3 -4
right_child=-2 5 3 4 -6 -7 -8
leaf_value=-0.039133138650336408 0.050654972219624332 -0.051618230528591089 0.02392366526462078 -0.018043649957729654 0.024009382277342197 -0.010364642374595135 0.048048159445869945
leaf_weight=31 23 27 26 23 20 29 19
leaf_count=31 23 27 26 23 20 29 19
internal_value=-0.00013871 -0.00774789 0.00416871 0.0205526 0.00121778 -0.0324138 0.0371631
internal_weight=198 175 119 88 43 56 45
internal_count=198 175 119 88 43 56 45
is_linear=0
shrinkage=0.144767


Tree=14
num_leaves=7
num_cat=0
split_feature=721 1645 249 926 314 652
split_gain=3.79678 2.4899 1.12193 0.946425 0.51245 1.03613
threshold=1.0000000180025095e-35 1.0000000180025095e-35 1.0000000180025095e-35 1.0000000180025095e-35 1.0000000180025095e-35 1.0000000180025095e-35
decision_type=2 2 2 2 2 2
left_child=1 2 3 -1 5 -3
right_child=-2 4 -4 -5 -6 -7
leaf_value=-0.03958552980942108 -0.044222101561096884 0.051804243496890515 0.018261655588996346 -0.0031994957968326972 0.0054578198398248729 0.011297033764288618
leaf_weight=23 31 29 21 41 23 30
leaf_count=23 31 29 21 41 23 30
internal_value=-3.6358e-05 0.00866932 -0.00834254 -0.0179327 0.026286 0.0332706
internal_weight=198 167 85 64 82 59
internal_count=198 167 85 64 82 59
is_linear=0
shrinkage=0.144767


Tree=15
num_leaves=7
num_cat=0
split_feature=492 1905 1810 727 1039 1683
split_gain=3.44443 2.40385 1.59935 1.27293 1.11849 0.919425
threshold=1.0000000180025095e-35 1.0000000180025095e-35 1.0000000180025095e-35 1.0000000180025095e-35 1.0000000180025095e-35 1.0000000180025095e-35
decision_type=2 2 2 2 2 2
left_child=1 2 5 4 -4 -1
right_child=-2 -3 3 -5 -6 -7
leaf_value=-0.0095023718909669295 0.045948086453976064 0.031752362348634426 0.03394559718280564 -0.024839962261820583 -0.0079303117870603498 -0.042841426510501927
leaf_weight=36 26 24 25 23 22 42
leaf_count=36 26 24 25 23 22 42
internal_value=0 -0.00779586 -0.0149208 0.000697327 0.0145233 -0.0287625
internal_weight=198 172 148 70 47 78
internal_count=198 172 148 70 47 78
is_linear=0
shrinkage=0.144767


Tree=16
num_leaves=8
num_cat=0
split_feature=492 489 694 160 80 561 191
split_gain=2.60686 2.86105 2.09536 1.7861 0.963579 0.747181 0.552895
threshold=1.0000000180025095e-35 1.0000000180025095e-35 1.0000000180025095e-35 1.0000000180025095e-35 1.0000000180025095e-35 1.0000000180025095e-35 1.0000000180025095e-35
decision_type=2 2 2 2 2 2 2
left_child=1 4 3 -3 5 -1 -4
right_child=-2 2 6 -5 -6 -7 -8
leaf_value=-0.015625898978894433 0.040015061568326821 0.011028363721891919 0.013671294307555039 -0.042287584733394126 -0.0074903125511147691 -0.060370117521020429 0.047241419095682483
leaf_weight=19 26 27 33 20 33 21 19
leaf_count=19 26 27 33 20 33 21 19
internal_value=0 -0.00674078 0.00902524 -0.0123364 -0.0279757 -0.0424522 0.0284384
internal_weight=198 172 99 47 73 40 52
internal_count=198 172 99 47 73 40 52
is_linear=0
shrinkage=0.144767


Tree=17
num_leaves=8
num_cat=0
split_feature=492 489 1536 1181 1088 80 727
split_gain=1.98052 2.19864 1.13824 1.08699 0.603441 0.347414 0.289936
threshold=1.0000000180025095e-35 1.0000000180025095e-35 1.0000000180025095e-35 1.0000000180025095e-35 1.0000000180025095e-35 1.0000000180025095e-35 1.0000000180025095e-35
decision_type=2 2 2 2 2 2 2
left_child=1 3 6 5 -4 -1 -3
right_child=-2 2 4 -5 -6 -7 -8
leaf_value=-0.020852328033208967 0.034848134576083899 0.0024986220357820256 0.041794696090423314 -0.048971490606783831 0.0074523053519220568 0.0015766381648586966 -0.017779532814266964
leaf_weight=27 26 28 19 23 29 23 23
leaf_count=27 26 28 19 23 29 23 23
internal_value=0 -0.00590508 0.00789041 -0.0245313 0.0233257 -0.0105304 -0.00663576
internal_weight=198 172 99 73 48 50 51
internal_count=198 172 99 73 48 50 51
is_linear=0
shrinkage=0.144767


Tree=18
num_leaves=7
num_cat=0
split_feature=464 1905 926 950 14 14
split_gain=2.1709 1.73539 1.18114 0.852543 1.08174 0.292432
threshold=1.0000000180025095e-35 1.0000000180025095e-35 1.0000000180025095e-35 1.0000000180025095e-35 1.0000000180025095e-35 1.0000000180025095e-35
decision_type=2 2 2 2 2 2
left_child=1 2 -1 4 -4 -5
right_child=-2 -3 3 5 -6 -7
leaf_value=-0.033203745653524325 0.038913899163868636 0.027841285379426605 -0.0096713546810064128 -0.0050593752636537608 0.027182449663908041 -0.027960796321772452
leaf_weight=37 23 24 32 30 28 24
leaf_count=37 23 24 32 30 28 24
internal_value=0 -0.00575401 -0.0117336 -0.00382277 0.00758525 -0.0167038
internal_weight=198 175 151 114 60 54
internal_count=198 175 151 114 60 54
is_linear=0
shrinkage=0.144767


Tree=19
num_leaves=7
num_cat=0
split_feature=464 1905 807 14 1163 841
split_gain=1.65118 1.32128 1.10593 0.888122 1.63452 0.910794
threshold=1.0000000180025095e-35 1.0000000180025095e-35 1.0000000180025095e-35 1.0000000180025095e-35 1.0000000180025095e-35 1.0000000180025095e-35
decision_type=2 2 2 2 2 2
left_child=1 2 -1 4 5 -4
right_child=-2 -3 3 -5 -6 -7
leaf_value=-0.037542668261425938 0.033958993253247215 0.02427837325077711 -0.03665427598437114 0.013505295291719567 0.020576659408430151 -0.0026236582537320337
leaf_weight=23 23 24 39 37 21 31
leaf_count=23 23 24 39 37 21 31
internal_value=0 -0.00499701 -0.0102312 -0.00432816 -0.0120833 -0.0227251
internal_weight=198 175 151 128 91 70
internal_count=198 175 151 128 91 70
is_linear=0
shrinkage=0.144767


Tree=20
num_leaves=6
num_cat=0
split_feature=1114 721 407 694 1928
split_gain=1.27375 0.917149 1.8087 2.30807 0.87782
threshold=1.0000000180025095e-35 1.0000000180025095e-35 1.0000000180025095e-35 1.0000000180025095e-35 1.0000000180025095e-35
decision_type=2 2 2 2 2
left_child=1 2 3 -1 -5
right_child=-2 -3 -4 4 -6
leaf_value=-0.031337949042135327 0.027517262410520864 -0.02638701657301127 0.027497409617543118 -0.0055443176840437305 0.028435138498163693
leaf_weight=49 27 30 35 31 26
leaf_count=49 27 30 35 31 26
internal_value=0 -0.00471106 0.00018396 -0.00911341 0.0101707
internal_weight=198 171 141 106 57
internal_count=198 171 141 106 57
is_linear=0
shrinkage=0.144767


Tree=21
num_leaves=7
num_cat=0
split_feature=1457 1114 926 1536 496 366
split_gain=1.52895 1.45798 0.669147 1.19273 0.581514 0.235843
threshold=1.0000000180025095e-35 1.0000000180025095e-35 1.0000000180025095e-35 1.0000000180025095e-35 1.0000000180025095e-35 1.0000000180025095e-35
decision_type=2 2 2 2 2 2
left_child=1 2 3 -1 5 -4
right_child=-2 -3 4 -5 -6 -7
leaf_value=-0.045835680417665198 0.031411103694444921 0.02394983202124552 0.011970389039769104 0 -0.018074650870755996 -0.0041715255943938412
leaf_weight=23 25 27 34 20 36 33
leaf_count=23 25 27 34 20 36 33
internal_value=0 -0.00492272 -0.0108414 -0.0254714 -0.00389751 0.00379365
internal_weight=198 173 146 43 103 67
internal_count=198 173 146 43 103 67
is_linear=0
shrinkage=0.144767


Tree=22
num_leaves=7
num_cat=0
split_feature=1457 1114 1405 881 249 1928
split_gain=1.15996 1.10681 0.958803 1.12316 1.63102 1.08074
threshold=1.0000000180025095e-35 1.0000000180025095e-35 1.0000000180025095e-35 1.0000000180025095e-35 1.0000000180025095e-35 1.0000000180025095e-35
decision_type=2 2 2 2 2 2
left_child=1 2 3 4 -1 -6
right_child=-2 -3 -4 -5 5 -7
leaf_value=-0.044782442287320937 0.027372615260224532 0.020844895325574448 0.018239120218256036 0.0094726921963732037 -0.018703944247900752 0.020007193764085607
leaf_weight=36 25 27 19 29 43 19
leaf_count=36 25 27 19 29 43 19
internal_value=0 -0.00427435 -0.00944799 -0.0141447 -0.0214854 -0.00602083
internal_weight=198 173 146 127 98 62
internal_count=198 173 146 127 98 62
is_linear=0
shrinkage=0.144767


Tree=23
num_leaves=7
num_cat=0
split_feature=926 489 1199 496 2009 694
split_gain=1.01511 1.86366 1.08805 0.93894 1.07224 0.694454
threshold=1.0000000180025095e-35 1.0000000180025095e-35 1.0000000180025095e-35 1.0000000180025095e-35 1.0000000180025095e-35 1.0000000180025095e-35
decision_type=2 2 2 2 2 2
left_child=1 -1 3 4 5 -2
right_child=2 -3 -4 -5 -6 -7
leaf_value=-0.045843504220801766 0.0033734760679749592 0.0060366300633843059 0.026519598363424077 -0.023005883919361897 -0.015628371924490073 0.037139174176987061
leaf_weight=22 33 31 38 27 26 21
leaf_count=22 33 31 38 27 26 21
internal_value=7.02969e-05 -0.0163674 0.00648627 -0.000931094 0.00677437 0.0183137
internal_weight=198 53 145 107 80 54
internal_count=198 53 145 107 80 54
is_linear=0
shrinkage=0.144767


Tree=24
num_leaves=8
num_cat=0
split_feature=1866 80 950 1508 1157 1536 1923
split_gain=0.924817 0.826235 0.734702 1.25008 0.944683 0.303619 0.28335
threshold=1.0000000180025095e-35 1.0000000180025095e-35 1.0000000180025095e-35 1.0000000180025095e-35 1.0000000180025095e-35 1.0000000180025095e-35 1.0000000180025095e-35
decision_type=2 2 2 2 2 2 2
left_child=1 2 3 4 -1 6 -3
right_child=-2 5 -4 -5 -6 -7 -8
leaf_value=-0.03791857019288615 0.023130318363913799 -0.013434631975648367 -0.0358228287523931 0.02208359065931044 0.0026783196028266724 0.014085284558115165 0.0078802151897977343
leaf_weight=22 28 22 21 20 20 42 23
leaf_count=22 28 22 21 20 20 42 23
internal_value=3.42586e-05 -0.00396095 -0.0141352 -0.0049864 -0.0191333 0.00559219 -0.00216072
internal_weight=198 170 83 62 42 87 45
internal_count=198 170 83 62 42 87 45
is_linear=0
shrinkage=0.144767


Tree=25
num_leaves=7
num_cat=0
split_feature=1457 1928 926 716 1199 161
split_gain=0.833243 0.787269 1.01486 0.539426 0.466598 0.0154732
threshold=1.0000000180025095e-35 1.0000000180025095e-35 1.0000000180025095e-35 1.0000000180025095e-35 1.0000000180025095e-35 1.0000000180025095e-35
decision_type=2 2 2 2 2 2
left_child=1 2 -1 -3 5 -4
right_child=-2 3 4 -5 -6 -7
leaf_value=-0.034595173006919659 0.023270280389543728 0.014378303213041307 -0.004941303338443984 -0.010017264947423117 0.015185040174943768 -0.014238760880493584
leaf_weight=27 25 56 28 24 19 19
leaf_count=27 25 56 28 24 19 19
internal_value=1.00309e-05 -0.00354959 -0.0125197 0.0066234 -0.00192279 -0.00991187
internal_weight=198 173 93 80 66 47
internal_count=198 173 93 80 66 47
is_linear=0
shrinkage=0.144767


Tree=26
num_leaves=7
num_cat=0
split_feature=1866 80 489 1097 1039 694
split_gain=0.752462 0.643152 0.961315 0.295662 0.271139 0.328935
threshold=1.0000000180025095e-35 1.0000000180025095e-35 1.0000000180025095e-35 1.0000000180025095e-35 1.0000000180025095e-35 1.0000000180025095e-35
decision_type=2 2 2 2 2 2
left_child=1 2 3 -1 5 -3
right_child=-2 4 -4 -5 -6 -7
leaf_value=-0.012480543718258911 0.020793590860948244 0 0.0048110555191547798 -0.039289435213408858 -0.0049693116915083034 0.021717802442832872
leaf_weight=29 28 29 35 19 32 26
leaf_count=29 28 29 35 19 32 26
internal_value=0 -0.0036457 -0.0126286 -0.0254013 0.00475794 0.0108577
internal_weight=198 170 83 48 87 55
internal_count=198 170 83 48 87 55
is_linear=0
shrinkage=0.144767


Tree=27
num_leaves=7
num_cat=0
split_feature=1171 1866 1696 807 14 216
split_gain=0.630382 0.723356 0.730429 0.734207 0.326672 0.619265
threshold=1.0000000180025095e-35 1.0000000180025095e-35 1.0000000180025095e-35 1.0000000180025095e-35 1.0000000180025095e-35 1.0000000180025095e-35
decision_type=2 2 2 2 2 2
left_child=1 2 3 -1 5 -5
right_child=-2 -3 -4 4 -6 -7
leaf_value=-0.035567558791040219 0.020587517116686081 0.017579723213526136 0.01367988476923458 -0.023434734088044334 0.0058456500916285875 0.0017757505065942565
leaf_weight=20 24 26 25 38 29 36
leaf_count=20 24 26 25 38 29 36
internal_value=0 -0.00310136 -0.00720889 -0.0119103 -0.00613595 -0.0112384
internal_weight=198 174 148 123 103 74
internal_count=198 174 148 123 103 74
is_linear=0
shrinkage=0.144767


Tree=28
num_leaves=8
num_cat=0
split_feature=926 1617 119 703 1366 249 2009
split_gain=0.745397 0.587512 1.09663 0.671443 0.54521 0.529142 0.498527
threshold=1.0000000180025095e-35 1.0000000180025095e-35 1.0000000180025095e-35 1.0000000180025095e-35 1.0000000180025095e-35 1.0000000180025095e-35 1.0000000180025095e-35
decision_type=2 2 2 2 2 2 2
left_child=5 2 3 4 -2 -1 -4
right_child=1 -3 6 -5 -6 -7 -8
leaf_value=-0.025879093586935308 0.0098665017808149298 -0.012375597983226684 0.0075363042546799592 0.0014531430426063317 0.046617357926218239 0.0014622249120846728 -0.019201002204030426
leaf_weight=30 19 27 26 25 23 23 25
leaf_count=30 19 27 26 25 23 23 25
internal_value=0 0.005483 0.010014 0.0218678 0.0324552 -0.0141029 -0.00541181
internal_weight=198 145 118 67 42 53 51
internal_count=198 145 118 67 42 53 51
is_linear=0
shrinkage=0.144767


Tree=29
num_leaves=7
num_cat=0
split_feature=718 1457 1568 1928 407 716
split_gain=0.533598 0.481068 0.315049 0.359381 0.761639 0.473761
threshold=1.0000000180025095e-35 1.0000000180025095e-35 1.0000000180025095e-35 1.0000000180025095e-35 1.0000000180025095e-35 1.0000000180025095e-35
decision_type=2 2 2 2 2 2
left_child=1 2 3 4 -1 -5
right_child=-2 -3 -4 5 -6 -7
leaf_value=-0.025157619948955021 -0.020057121294710583 0.021869018931031964 0.013266406745020472 0.014923700605039359 0.0037652988226866582 -0.009720130743934019
leaf_weight=33 21 21 27 36 36 24
leaf_count=33 21 21 27 36 36 24
internal_value=1.02646e-05 0.00285435 0 -0.00313203 -0.0101768 0.00463322
internal_weight=198 177 156 129 69 60
internal_count=198 177 156 129 69 60
is_linear=0
shrinkage=0.144767


Tree=30
num_leaves=8
num_cat=0
split_feature=718 1171 407 1114 1163 216 694
split_gain=0.408415 0.5405 0.545297 1.0455 1.35384 0.929165 0.245721
threshold=1.0000000180025095e-35 1.0000000180025095e-35 1.0000000180025095e-35 1.0000000180025095e-35 1.0000000180025095e-35 1.0000000180025095e-35 1.0000000180025095e-35
decision_type=2 2 2 2 2 2 2
left_child=1 2 3 4 5 -1 -4
right_child=-2 -3 6 -5 -6 -7 -8
leaf_value=-0.040614884667145773 -0.017532212322484433 0.022226590411943397 0.02187159936014927 0.020731662021493992 0.012272710695858004 -0.0034337238540649052 0.00072613154951633617
leaf_weight=33 21 22 22 20 26 27 27
leaf_count=33 21 22 22 20 26 27 27
internal_value=6.26111e-06 0.00251141 -0.000498187 -0.00647084 -0.0136175 -0.0253289 0.0115002
internal_weight=198 177 155 106 86 60 49
internal_count=198 177 155 106 86 60 49
is_linear=0
shrinkage=0.144767


Tree=31
num_leaves=7
num_cat=0
split_feature=926 1157 950 119 420 496
split_gain=0.487667 0.716506 0.513031 0.529212 0.219804 0.0484778
threshold=1.0000000180025095e-35 1.0000000180025095e-35 1.0000000180025095e-35 1.0000000180025095e-35 1.0000000180025095e-35 1.0000000180025095e-35
decision_type=2 2 2 2 2 2
left_child=1 -1 3 4 -2 -4
right_child=2 -3 5 -5 -6 -7
leaf_value=-0.023350696971290476 0.025005987075054244 0.0092959895627598363 -0.00085556668670100659 -0.0047092303301789059 0.0047721415383887638 -0.010348661868949654
leaf_weight=34 39 19 33 26 23 24
leaf_count=34 39 19 33 26 23 24
internal_value=6.21734e-05 -0.0112876 0.00454995 0.0114264 0.0185198 -0.00564699
internal_weight=198 53 145 88 62 57
internal_count=198 53 145 88 62 57
is_linear=0
shrinkage=0.144767


Tree=32
num_leaves=7
num_cat=0
split_feature=464 249 843 401 489 1923
split_gain=0.372677 0.515286 0.711004 0.588459 0.20927 0.0159418
threshold=1.0000000180025095e-35 1.0000000180025095e-35 1.0000000180025095e-35 1.0000000180025095e-35 1.0000000180025095e-35 1.0000000180025095e-35
decision_type=2 2 2 2 2 2
left_child=1 2 -1 4 -3 -4
right_child=-2 3 5 -5 -6 -7
leaf_value=-0.027174332786327676 0.016282309966095494 0 0.0032013228818680382 -0.013007985111662125 0.016110023100790186 -0.0017632935954507954
leaf_weight=30 23 21 20 25 51 28
leaf_count=30 23 21 20 25 51 28
internal_value=1.27654e-05 -0.00221968 -0.0108643 0.00457742 0.0113423 0
internal_weight=198 175 78 97 72 48
internal_count=198 175 78 97 72 48
is_linear=0
shrinkage=0.144767


Tree=33
num_leaves=7
num_cat=0
split_feature=926 881 2009 401 1199 1039
split_gain=0.365751 0.703588 0.379462 0.715811 0.448607 0.214534
threshold=1.0000000180025095e-35 1.0000000180025095e-35 1.0000000180025095e-35 1.0000000180025095e-35 1.0000000180025095e-35 1.0000000180025095e-35
decision_type=2 2 2 2 2 2
left_child=1 -1 3 4 5 -2
right_child=2 -3 -4 -5 -6 -7
leaf_value=-0.021870721253546343 0.013552176212555681 0.010459043356078288 -0.0083799348953082376 -0.010069596906634764 0.032852112363714381 -0.0030270507157436045
leaf_weight=34 40 19 35 29 20 21
leaf_count=34 40 19 35 29 20 21
internal_value=0 -0.00984961 0.00386914 0.00813681 0.0151181 0.00754324
internal_weight=198 53 145 110 81 61
internal_count=198 53 145 110 81 61
is_linear=0
shrinkage=0.144767


Tree=34
num_leaves=7
num_cat=0
split_feature=464 2009 489 1508 926 1181
split_gain=0.276994 0.467829 0.867549 0.814509 0.0765195 0.0194651
threshold=1.0000000180025095e-35 1.0000000180025095e-35 1.0000000180025095e-35 1.0000000180025095e-35 1.0000000180025095e-35 1.0000000180025095e-35
decision_type=2 2 2 2 2 2
left_child=1 2 3 -1 -4 -5
right_child=-2 -3 4 5 -6 -7
leaf_value=-0.027702229795918843 0.014005956279191758 -0.016985882697351549 0.004934058213358572 0.0048746858743637222 0.017168056709213106 0
leaf_weight=27 23 32 29 25 41 21
leaf_count=27 23 32 29 25 41 21
internal_value=0 -0.00194706 0.00152178 -0.00911606 0.01291 0.00230428
internal_weight=198 175 143 73 70 46
internal_count=198 175 143 73 70 46
is_linear=0
shrinkage=0.144767


Tree=35
num_leaves=7
num_cat=0
split_feature=1171 1946 1114 881 1480 544
split_gain=0.315784 0.339059 0.306903 0.476878 1.25774 0.331291
threshold=1.0000000180025095e-35 1.0000000180025095e-35 1.0000000180025095e-35 1.0000000180025095e-35 1.0000000180025095e-35 1.0000000180025095e-35
decision_type=2 2 2 2 2 2
left_child=1 2 3 4 -1 -6
right_child=-2 -3 -4 -5 5 -7
leaf_value=-0.035205738878719868 0.01463166543631002 0.013984118927361138 0.0082411520993309426 0.0074204032487119147 -0.0092913737497118312 0.010338109106485109
leaf_weight=31 24 20 27 29 39 28
leaf_count=31 24 20 27 29 39 28
internal_value=0 -0.00213257 -0.00464071 -0.00772592 -0.0125741 -0.000596245
internal_weight=198 174 154 127 98 67
internal_count=198 174 154 127 98 67
is_linear=0
shrinkage=0.144767


Tree=36
num_leaves=8
num_cat=0
split_feature=1171 650 407 1181 1114 1163 216
split_gain=0.237295 0.286283 0.322278 0.666073 0.545213 0.975487 0.48733
threshold=1.0000000180025095e-35 1.0000000180025095e-35 1.0000000180025095e-35 1.0000000180025095e-35 1.0000000180025095e-35 1.0000000180025095e-35 1.0000000180025095e-35
decision_type=2 2 2 2 2 2 2
left_child=1 -1 4 -4 5 6 -3
right_child=-2 2 3 -5 -6 -7 -8
leaf_value=-0.017187277219857498 0.012759217285233226 -0.031353158509136038 0.028274245403635767 -0.0036505352883458766 0.01546096188399286 0.011973514842713575 -0.0037813291124820106
leaf_weight=19 24 31 20 29 20 27 28
leaf_count=19 24 31 20 29 20 27 28
internal_value=2.75654e-05 -0.00176738 0.000251841 0.00976808 -0.00404765 -0.00928202 -0.0195699
internal_weight=198 174 155 49 106 86 59
internal_count=198 174 155 49 106 86 59
is_linear=0
shrinkage=0.144767


Tree=37
num_leaves=7
num_cat=0
split_feature=926 322 1157 523 579 119
split_gain=0.233832 0.529703 0.428062 0.339612 0.138283 0.298138
threshold=1.0000000180025095e-35 1.0000000180025095e-35 1.0000000180025095e-35 1.0000000180025095e-35 1.0000000180025095e-35 1.0000000180025095e-35
decision_type=2 2 2 2 2 2
left_child=2 3 -1 4 5 -2
right_child=1 -3 -4 -5 -6 -7
leaf_value=-0.017207070456119595 0.023799035413570827 -0.014499118429842537 0.0078745069284752774 -0.0040300508850715441 0.0017698014404557859 0.001686398771532524
leaf_weight=34 36 25 19 34 26 24
leaf_count=34 36 25 19 34 26 24
internal_value=3.19115e-05 0.00318082 -0.00778359 0.00736629 0.0121666 0.015919
internal_weight=198 145 53 120 86 60
internal_count=198 145 53 120 86 60
is_linear=0
shrinkage=0.144767


Tree=38
num_leaves=8
num_cat=0
split_feature=1946 708 694 191 1181 950 950
split_gain=0.180264 0.356155 0.69654 0.723286 0.675061 0.336176 0.119653
threshold=1.0000000180025095e-35 1.0000000180025095e-35 1.0000000180025095e-35 1.0000000180025095e-35 1.0000000180025095e-35 1.0000000180025095e-35 1.0000000180025095e-35
decision_type=2 2 2 2 2 2 2
left_child=1 4 5 -4 6 -3 -1
right_child=-2 2 3 -5 -6 -7 -8
leaf_value=-0.0049045906867567794 0.012182367450999992 0.0027673414334358627 -0.0026984267999117439 0.030202441237271074 -0.027798555896140158 -0.01927915701111662 0.0080704300848992074
leaf_weight=33 20 27 22 28 23 23 22
leaf_count=33 20 27 22 28 23 23 22
internal_value=2.59169e-05 -0.00137472 0.00411488 0.0159015 -0.00864148 -0.007393 0
internal_weight=198 178 100 50 78 50 55
internal_count=198 178 100 50 78 50 55
is_linear=0
shrinkage=0.144767


Tree=39
num_leaves=6
num_cat=0
split_feature=780 14 950 191 694
split_gain=0.172982 0.451869 0.391072 0.366026 0.358038
threshold=1.0000000180025095e-35 1.0000000180025095e-35 1.0000000180025095e-35 1.0000000180025095e-35 1.0000000180025095e-35
decision_type=2 2 2 2 2
left_child=1 3 -3 -1 -2
right_child=4 2 -4 -5 -6
leaf_value=-0.00065848154776713811 -0.0030029914288292972 0.017542015931018434 -0.0059553713595490269 -0.02111135747465287 0.016755327942889857
leaf_weight=45 38 29 23 32 31
leaf_count=45 38 29 23 32 31
internal_value=0 -0.00297615 0.00689878 -0.0100005 0.00583292
internal_weight=198 129 52 77 69
internal_count=198 129 52 77 69
is_linear=0
shrinkage=0.144767


Tree=40
num_leaves=7
num_cat=0
split_feature=464 1163 407 216 249 694
split_gain=0.20585 0.307438 0.505254 0.45169 0.422212 0.080885
threshold=1.0000000180025095e-35 1.0000000180025095e-35 1.0000000180025095e-35 1.0000000180025095e-35 1.0000000180025095e-35 1.0000000180025095e-35
decision_type=2 2 2 2 2 2
left_child=1 2 3 4 -1 -4
right_child=-2 -3 5 -5 -6 -7
leaf_value=-0.031648906993284313 0.012076091598439679 0.011199218847888178 0.010457476759269937 0.00096552928738215433 -0.0049158698200827428 0
leaf_weight=26 23 28 30 35 29 27
leaf_count=26 23 28 30 35 29 27
internal_value=0 -0.00167635 -0.00449729 -0.0112052 -0.0190607 0.0056646
internal_weight=198 175 147 90 55 57
internal_count=198 175 147 90 55 57
is_linear=0
shrinkage=0.144767


Tree=41
num_leaves=7
num_cat=0
split_feature=1476 1917 721 1508 881 216
split_gain=0.196761 0.380277 0.234385 0.302161 0.470089 0.516373
threshold=1.0000000180025095e-35 1.0000000180025095e-35 1.0000000180025095e-35 1.0000000180025095e-35 1.0000000180025095e-35 1.0000000180025095e-35
decision_type=2 2 2 2 2 2
left_child=1 -1 3 4 5 -3
right_child=-2 2 -4 -5 -6 -7
leaf_value=-0.015919715259736421 0.012090372281751896 -0.013546034538136 -0.011830587287980077 0.018133972235517395 0.018276218651270451 0.008601037106238555
leaf_weight=29 22 51 20 22 21 33
leaf_count=29 22 51 20 22 21 33
internal_value=0 -0.0015801 0.00133843 0.0038618 0.000173607 -0.00453031
internal_weight=198 176 147 127 105 84
internal_count=198 176 147 127 105 84
is_linear=0
shrinkage=0.144767


Tree=42
num_leaves=7
num_cat=0
split_feature=1171 926 1163 1199 1236 119
split_gain=0.231864 0.418062 0.837956 0.301944 0.387902 0.22773
threshold=1.0000000180025095e-35 1.0000000180025095e-35 1.0000000180025095e-35 1.0000000180025095e-35 1.0000000180025095e-35 1.0000000180025095e-35
decision_type=2 2 2 2 2 2
left_child=1 2 -1 4 5 -3
right_child=-2 3 -4 -5 -6 -7
leaf_value=-0.032449959092134072 0.012595264822227505 0.014370569987473771 0.0063617105757411297 0.013675870866086258 -0.013588139172185782 -0.0017898181889306147
leaf_weight=21 24 26 19 32 35 41
leaf_count=21 24 26 19 32 35 41
internal_value=7.00032e-06 -0.0017656 -0.0142521 0.0020009 -0.00169763 0.00444911
internal_weight=198 174 40 134 102 67
internal_count=198 174 40 134 102 67
is_linear=0
shrinkage=0.144767


Tree=43
num_leaves=8
num_cat=0
split_feature=693 1866 1488 1171 1508 561 401
split_gain=0.218016 0.258781 0.371735 0.343122 0.431286 0.854488 0.500142
threshold=1.0000000180025095e-35 1.0000000180025095e-35 1.0000000180025095e-35 1.0000000180025095e-35 1.0000000180025095e-35 1.0000000180025095e-35 1.0000000180025095e-35
decision_type=2 2 2 2 2 2 2
left_child=1 2 3 4 5 -1 -6
right_child=-2 -3 -4 -5 6 -7 -8
leaf_value=-0.033963722723840066 -0.012476290749930178 0.015238856882871564 0.013818818894687192 0.011108591239474042 0.017542452203201383 0 -0.011424421845621317
leaf_weight=25 22 23 28 22 22 35 21
leaf_count=25 22 23 28 22 22 35 21
internal_value=4.11808e-06 0.00191112 -0.000181502 -0.00379686 -0.00747733 -0.0151863 0.00297981
internal_weight=198 176 153 125 103 60 43
internal_count=198 176 153 125 103 60 43
is_linear=0
shrinkage=0.144767


Tree=44
num_leaves=7
num_cat=0
split_feature=1951 780 14 561 322 1648
split_gain=0.138646 0.362468 0.38702 0.293446 0.100872 0.056807
threshold=1.0000000180025095e-35 1.0000000180025095e-35 1.0000000180025095e-35 1.0000000180025095e-35 1.0000000180025095e-35 1.0000000180025095e-35
decision_type=2 2 2 2 2 2
left_child=1 2 3 -1 -4 -3
right_child=-2 5 4 -5 -6 -7
leaf_value=-0.018043610463795205 -0.01040565286979222 0.014613978827510185 0.010707665947912164 0.00088381424740684915 -0.00082132684753846101 0.0037968196884989292
leaf_weight=39 20 32 30 24 22 31
leaf_count=39 20 32 30 24 22 31
internal_value=1.0527e-06 0.00148425 -0.0031694 -0.0107145 0.00555808 0.0101453
internal_weight=198 178 115 63 52 63
internal_count=198 178 115 63 52 63
is_linear=0
shrinkage=0.144767


Tree=45
num_leaves=6
num_cat=0
split_feature=716 708 1224 1224 1617
split_gain=0.167968 0.217255 0.57855 0.578115 0.172798
threshold=1.0000000180025095e-35 1.0000000180025095e-35 1.0000000180025095e-35 1.0000000180025095e-35 1.0000000180025095e-35
decision_type=2 2 2 2 2
left_child=1 3 -3 -1 -5
right_child=-2 2 -4 4 -6
leaf_value=0.009523116990972684 -0.0098322704190526213 -0.003686530968115909 0.020540216543607697 -0.018911502020256727 -0.0010860470776269779
leaf_weight=42 27 40 35 31 23
leaf_count=42 27 40 35 31 23
internal_value=2.55876e-06 0.00186465 0.00763607 -0.0024635 -0.0122834
internal_weight=198 171 75 96 54
internal_count=198 171 75 96 54
is_linear=0
shrinkage=0.144767


Tree=46
num_leaves=7
num_cat=0
split_feature=1866 881 1508 708 841 950
split_gain=0.162009 0.108851 0.242691 0.227995 0.231533 0.0995223
threshold=1.0000000180025095e-35 1.0000000180025095e-35 1.0000000180025095e-35 1.0000000180025095e-35 1.0000000180025095e-35 1.0000000180025095e-35
decision_type=2 2 2 2 2 2
left_child=1 2 3 -1 -5 -4
right_child=-2 -3 5 4 -6 -7
leaf_value=-0.017754126239788445 0.0096813374604583467 0.0064847610249807452 0.0098383554805604508 -0.010834948535339067 0.0052626173269727933 -0.0018457577418055102
leaf_weight=29 28 24 28 32 35 22
leaf_count=29 28 24 28 32 35 22
internal_value=0 -0.00165749 -0.00329082 -0.00757306 -0.00217113 0.00437007
internal_weight=198 170 146 96 67 50
internal_count=198 170 146 96 67 50
is_linear=0
shrinkage=0.144767


Tree=47
num_leaves=8
num_cat=0
split_feature=1457 650 1114 1245 1696 14 489
split_gain=0.167351 0.202534 0.215995 0.267135 0.432491 0.426091 0.185081
threshold=1.0000000180025095e-35 1.0000000180025095e-35 1.0000000180025095e-35 1.0000000180025095e-35 1.0000000180025095e-35 1.0000000180025095e-35 1.0000000180025095e-35
decision_type=2 2 2 2 2 2 2
left_child=1 -1 3 4 5 6 -3
right_child=-2 2 -4 -5 -6 -7 -8
leaf_value=-0.014534007598607646 0.010445123329171626 -0.026953503338730946 0.01319852656540685 0.010441572107403697 0.010892192559123116 0.0035961240209949844 -0.0079233036268522069
leaf_weight=19 25 23 20 25 23 28 35
leaf_count=19 25 23 20 25 23 28 35
internal_value=0 -0.00157343 0.000108115 -0.00190141 -0.00519375 -0.0100402 -0.0169235
internal_weight=198 173 154 134 109 86 58
internal_count=198 173 154 134 109 86 58
is_linear=0
shrinkage=0.144767


Tree=48
num_leaves=7
num_cat=0
split_feature=464 80 407 1928 1508 881
split_gain=0.188451 0.210041 0.451523 0.306102 0.567068 0.254629
threshold=1.0000000180025095e-35 1.0000000180025095e-35 1.0000000180025095e-35 1.0000000180025095e-35 1.0000000180025095e-35 1.0000000180025095e-35
decision_type=2 2 2 2 2 2
left_child=1 3 5 4 -1 -3
right_child=-2 2 -4 -5 -6 -7
leaf_value=-0.031438028069279554 0.011580738326847376 -0.0090086916669754324 0.020152347100918712 0.0037403995192506006 -0.00034636767592952783 0.0076984057653381689
leaf_weight=19 23 46 21 30 32 27
leaf_count=19 23 46 21 30 32 27
internal_value=0 -0.00157591 0.002841 -0.00694623 -0.0135973 -0.0024018
internal_weight=198 175 94 81 51 73
internal_count=198 175 94 81 51 73
is_linear=0
shrinkage=0.144767


Tree=49
num_leaves=8
num_cat=0
split_feature=1951 1488 780 1946 1152 959 1181
split_gain=0.150824 0.303597 0.310501 0.253579 0.312983 0.0347097 0.0054732
threshold=1.0000000180025095e-35 1.0000000180025095e-35 1.0000000180025095e-35 1.0000000180025095e-35 1.0000000180025095e-35 1.0000000180025095e-35 1.0000000180025095e-35
decision_type=2 2 2 2 2 2 2
left_child=1 2 3 4 -1 -4 -6
right_child=-2 -3 5 -5 6 -7 -8
leaf_value=0.0050001864636205215 -0.010880812789205489 0.015117408281994895 0.013523657178629491 0.0082779300616415349 -0.0090710470171185519 0.0022979312564663833 -0.017806502901014435
leaf_weight=23 20 26 21 20 45 19 24
leaf_count=23 20 26 21 20 45 19 24
internal_value=0 0.00152294 -0.000883108 -0.00495052 -0.00829698 0.00939204 -0.0131391
internal_weight=198 178 152 112 92 40 69
internal_count=198 178 152 112 92 40 69
is_linear=0
shrinkage=0.144767


Tree=50
num_leaves=8
num_cat=0
split_feature=961 716 1928 1508 1224 1224 366
split_gain=0.166593 0.755719 0.325715 0.133226 0.123363 0.0784787 0.0128155
threshold=1.0000000180025095e-35 1.0000000180025095e-35 1.0000000180025095e-35 1.0000000180025095e-35 1.0000000180025095e-35 1.0000000180025095e-35 1.0000000180025095e-35
decision_type=2 2 2 2 2 2 2
left_child=1 2 3 4 -1 -4 -5
right_child=-2 -3 5 6 -6 -7 -8
leaf_value=-0.00071191179192707759 0.011710342345806935 -0.023703560149038936 0.019459345611636581 0.0057172105051616672 -0.014746866622033334 0.0047319626427802198 0
leaf_weight=42 20 24 19 25 20 26 22
leaf_count=42 20 24 19 25 20 26 22
internal_value=1.85556e-05 -0.00132258 0.0023938 -0.00171884 -0.00615967 0.0123932 0.00360441
internal_weight=198 178 154 109 62 45 47
internal_count=198 178 154 109 62 45 47
is_linear=0
shrinkage=0.144767


Tree=51
num_leaves=7
num_cat=0
split_feature=961 1058 1928 1508 1224 1970
split_gain=0.126716 0.543137 0.212966 0.11232 0.056611 0.0264533
threshold=1.0000000180025095e-35 1.0000000180025095e-35 1.0000000180025095e-35 1.0000000180025095e-35 1.0000000180025095e-35 1.0000000180025095e-35
decision_type=2 2 2 2 2 2
left_child=1 2 3 5 -4 -1
right_child=-2 -3 4 -5 -6 -7
leaf_value=-0.00065750271553170487 0.01024572651231751 -0.016846797206060492 0.017042862334845747 0.004272192339156068 0.0032870504679112524 -0.0080318993664728194
leaf_weight=30 20 34 19 47 20 28
leaf_count=30 20 34 19 47 20 28
internal_value=3.5704e-05 -0.00111637 0.00269011 -0.00053387 0.0114203 -0.00490207
internal_weight=198 178 144 105 39 58
internal_count=198 178 144 105 39 58
is_linear=0
shrinkage=0.144767


Tree=52
num_leaves=6
num_cat=0
split_feature=464 2009 489 1199 1039
split_gain=0.141235 0.336342 0.467867 0.297627 0.249404
threshold=1.0000000180025095e-35 1.0000000180025095e-35 1.0000000180025095e-35 1.0000000180025095e-35 1.0000000180025095e-35
decision_type=2 2 2 2 2
left_child=1 2 3 -1 -4
right_child=-2 -3 4 -5 -6
leaf_value=-0.013226737167425199 0.010110666302267174 -0.014053523706786291 0.015310879993494276 0.0046059922467043364 -0.0022735954681269949
leaf_weight=45 23 32 50 28 20
leaf_count=45 23 32 50 28 20
internal_value=5.16427e-05 -0.00126988 0.00164197 -0.00611447 0.0100255
internal_weight=198 175 143 73 70
internal_count=198 175 143 73 70
is_linear=0
shrinkage=0.144767


Tree=53
num_leaves=7
num_cat=0
split_feature=1457 1856 959 1163 1645 708
split_gain=0.103603 0.162362 0.16664 0.0920428 0.140787 0.209787
threshold=1.0000000180025095e-35 1.0000000180025095e-35 1.0000000180025095e-35 1.0000000180025095e-35 1.0000000180025095e-35 1.0000000180025095e-35
decision_type=2 2 2 2 2 2
left_child=1 3 -3 4 5 -1
right_child=-2 2 -4 -5 -6 -7
leaf_value=0.0061739559636080112 0.008306170659219814 0.00064491788551849854 -0.014810349762199127 0.0086831392639937603 0.0063602491317738333 -0.010340206214939741
leaf_weight=20 25 21 28 26 35 43
leaf_count=20 25 21 28 26 35 43
internal_value=2.52519e-05 -0.00114087 -0.00801519 0.00148843 -0.00035674 -0.00463341
internal_weight=198 173 49 124 98 63
internal_count=198 173 49 124 98 63
is_linear=0
shrinkage=0.144767


Tree=54
num_leaves=7
num_cat=0
split_feature=1171 926 881 401 555 561
split_gain=0.117769 0.28327 0.521518 0.122681 0.132477 0.0818014
threshold=1.0000000180025095e-35 1.0000000180025095e-35 1.0000000180025095e-35 1.0000000180025095e-35 1.0000000180025095e-35 1.0000000180025095e-35
decision_type=2 2 2 2 2 2
left_child=1 2 -1 4 5 -3
right_child=-2 3 -4 -5 -6 -7
leaf_value=-0.025843282730447403 0.0090723187268575284 0.0063146789580071144 0.0045968770642047605 -0.0056283931822336307 0.013454125219422755 -0.0024152219783409247
leaf_weight=21 24 35 19 29 23 47
leaf_count=21 24 35 19 29 23 47
internal_value=7.29473e-05 -0.0011508 -0.0114604 0.00191671 0.00436063 0.00108053
internal_weight=198 174 40 134 105 82
internal_count=198 174 40 134 105 82
is_linear=0
shrinkage=0.144767


Tree=55
num_leaves=9
num_cat=0
split_feature=693 1488 780 352 1508 561 1617 191
split_gain=0.169189 0.250858 0.222708 0.273609 0.409934 0.82212 0.249754 0.0205558
threshold=1.0000000180025095e-35 1.0000000180025095e-35 1.0000000180025095e-35 1.0000000180025095e-35 1.0000000180025095e-35 1.0000000180025095e-35 1.0000000180025095e-35 1.0000000180025095e-35
decision_type=2 2 2 2 2 2 2 2
left_child=1 2 3 4 5 -1 -6 -4
right_child=-2 -3 7 -5 6 -7 -8 -9
leaf_value=-0.03308287893019108 -0.010911388203178527 0.013604960245615765 0.0020248531248432656 0.0099697707194226822 0.013230378813439421 0.0032641326726910447 -0.0072058693324734985 0.011443030626805038
leaf_weight=25 22 28 19 19 20 21 23 21
leaf_count=25 22 28 19 19 20 21 23 21
internal_value=6.13696e-05 0.00175571 -0.000539075 -0.00412257 -0.00767038 -0.0167788 0.00195179 0.00808739
internal_weight=198 176 148 108 89 46 43 40
internal_count=198 176 148 108 89 46 43 40
is_linear=0
shrinkage=0.144767


Tree=56
num_leaves=5
num_cat=0
split_feature=13 420 2009 1825
split_gain=0.124546 0.13977 0.261882 0.120347
threshold=1.0000000180025095e-35 1.0000000180025095e-35 1.0000000180025095e-35 1.0000000180025095e-35
decision_type=2 2 2 2
left_child=1 2 3 -1
right_child=-2 -3 -4 -5
leaf_value=0.010341497546642302 -0.0090810872827884193 -0.0063537511832881307 -0.0066005797381716858 0
leaf_weight=75 23 32 34 34
leaf_count=75 23 32 34 34
internal_value=9.77593e-05 0.00159924 0.00366754 0.00721351
internal_weight=198 175 143 109
internal_count=198 175 143 109
is_linear=0
shrinkage=0.144767


Tree=57
num_leaves=6
num_cat=0
split_feature=1951 216 1181 191 780
split_gain=0.1294 0.237117 0.149228 0.141188 0.213908
threshold=1.0000000180025095e-35 1.0000000180025095e-35 1.0000000180025095e-35 1.0000000180025095e-35 1.0000000180025095e-35
decision_type=2 2 2 2 2
left_child=1 2 3 -1 -5
right_child=-2 -3 -4 4 -6
leaf_value=0.007563092075612789 -0.01005120593591079 0.010880757328780013 -0.0079563126703482683 -0.010923706800952355 0.0072516563060272482
leaf_weight=45 20 40 45 29 19
leaf_count=45 20 40 45 29 19
internal_value=0 0.00143525 -0.00128751 0.0018054 -0.00318279
internal_weight=198 178 138 93 48
internal_count=198 178 138 93 48
is_linear=0
shrinkage=0.144767


Tree=58
num_leaves=7
num_cat=0
split_feature=693 926 1480 407 2009 401
split_gain=0.120678 0.151849 0.349453 0.299093 0.264899 0.101552
threshold=1.0000000180025095e-35 1.0000000180025095e-35 1.0000000180025095e-35 1.0000000180025095e-35 1.0000000180025095e-35 1.0000000180025095e-35
decision_type=2 2 2 2 2 2
left_child=1 -1 -3 4 -4 -5
right_child=-2 2 3 5 -6 -7
leaf_value=-0.0059749973921356062 -0.0092790990967921792 0.01733904113469447 0.00080381898761186607 0.0122060732525476 -0.018385627184649846 0
leaf_weight=39 22 28 29 31 23 26
leaf_count=39 22 28 29 31 23 26
internal_value=0 0.00142479 0.0038164 0 -0.0077455 0.00701458
internal_weight=198 176 137 109 52 57
internal_count=198 176 137 109 52 57
is_linear=0
shrinkage=0.144767


Tree=59
num_leaves=8
num_cat=0
split_feature=1171 650 1535 959 2009 1488 19
split_gain=0.121674 0.13012 0.167696 0.313681 0.0453735 0.061941 0.0127912
threshold=1.0000000180025095e-35 1.0000000180025095e-35 1.0000000180025095e-35 1.0000000180025095e-35 1.0000000180025095e-35 1.0000000180025095e-35 1.0000000180025095e-35
decision_type=2 2 2 2 2 2 2
left_child=1 -1 4 -4 5 -3 -5
right_child=-2 2 3 6 -6 -7 -8
leaf_value=-0.011684322248273756 0.0091095720058564575 -0.0043122000322276793 0.018217749072916647 0 -0.0087844974593808117 0.004411920555138415 -0.0040009154122825153
leaf_weight=19 24 46 23 20 25 21 20
leaf_count=19 24 46 23 20 25 21 20
internal_value=0 -0.00129477 1.0506e-05 0.00577648 -0.00370655 -0.00110654 -0.0015412
internal_weight=198 174 155 63 92 67 40
internal_count=198 174 155 63 92 67 40
is_linear=0
shrinkage=0.144767


Tree=60
num_leaves=6
num_cat=0
split_feature=13 693 216 1181 1535
split_gain=0.103123 0.127062 0.205329 0.263026 0.395776
threshold=1.0000000180025095e-35 1.0000000180025095e-35 1.0000000180025095e-35 1.0000000180025095e-35 1.0000000180025095e-35
decision_type=2 2 2 2 2
left_child=1 2 3 4 -1
right_child=-2 -3 -4 -5 -6
leaf_value=-0.0040841982856301036 -0.0084061472254067151 -0.0079645563675410785 0.011752948787508443 -0.0093940531823798364 0.015851003234989086
leaf_weight=42 23 22 38 39 34
leaf_count=42 23 22 38 39 34
internal_value=0 0.0013263 0.00297381 0 0.00475916
internal_weight=198 175 153 115 76
internal_count=198 175 153 115 76
is_linear=0
shrinkage=0.144767


Tree=61
num_leaves=6
num_cat=0
split_feature=1163 1058 718 926 119
split_gain=0.107281 0.276305 0.24106 0.374646 0.155622
threshold=1.0000000180025095e-35 1.0000000180025095e-35 1.0000000180025095e-35 1.0000000180025095e-35 1.0000000180025095e-35
decision_type=2 2 2 2 2
left_child=1 2 3 -1 -5
right_child=-2 -3 -4 4 -6
leaf_value=-0.0089722647991666224 0.0075621592229990243 -0.013843242664497456 -0.012559232094838738 0.012171184986116541 -0.00013462580640823737
leaf_weight=31 30 28 19 65 25
leaf_count=31 30 28 19 65 25
internal_value=0 -0.0014354 0.00110214 0.00373522 0.00856578
internal_weight=198 168 140 121 90
internal_count=198 168 140 121 90
is_linear=0
shrinkage=0.144767


Tree=62
num_leaves=6
num_cat=0
split_feature=961 1058 787 1617 1199
split_gain=0.102781 0.479646 0.106177 0.122842 0.0840251
threshold=1.0000000180025095e-35 1.0000000180025095e-35 1.0000000180025095e-35 1.0000000180025095e-35 1.0000000180025095e-35
decision_type=2 2 2 2 2
left_child=1 2 3 4 -1
right_child=-2 -3 -4 -5 -6
leaf_value=0.0025218142108636363 0.009028361204997469 -0.015994248251275139 -0.0065205350616025148 -0.0038408680710123998 0.012091325069937927
leaf_weight=64 20 34 19 26 35
leaf_count=64 20 34 19 26 35
internal_value=0 -0.00121419 0.00235446 0.00404729 0.00644537
internal_weight=198 178 144 125 99
internal_count=198 178 144 125 99
is_linear=0
shrinkage=0.144767


Tree=63
num_leaves=7
num_cat=0
split_feature=693 1488 352 1536 1236 959
split_gain=0.0850307 0.18283 0.106343 0.355565 0.679912 0.367536
threshold=1.0000000180025095e-35 1.0000000180025095e-35 1.0000000180025095e-35 1.0000000180025095e-35 1.0000000180025095e-35 1.0000000180025095e-35
decision_type=2 2 2 2 2 2
left_child=1 2 3 5 -5 -1
right_child=-2 -3 -4 4 -6 -7
leaf_value=-0.00025907083794819165 -0.007933184881722611 0.011210429613729684 0.0081388579077947779 0.017789334446448736 -0.0087314187726680124 -0.024415769704347844
leaf_weight=33 22 28 19 35 39 22
leaf_count=33 22 28 19 35 39 22
internal_value=0 0.00105452 -0.000876679 -0.00257705 0.00366635 -0.0111985
internal_weight=198 176 148 129 74 55
internal_count=198 176 148 129 74 55
is_linear=0
shrinkage=0.144767


Tree=64
num_leaves=7
num_cat=0
split_feature=1163 716 407 130 1224 1097
split_gain=0.0911133 0.216236 0.204417 0.131486 0.100858 0.0235801
threshold=1.0000000180025095e-35 1.0000000180025095e-35 1.0000000180025095e-35 1.0000000180025095e-35 1.0000000180025095e-35 1.0000000180025095e-35
decision_type=2 2 2 2 2 2
left_child=1 2 4 -4 5 -1
right_child=-2 -3 3 -5 -6 -7
leaf_value=0.002579499881889468 0.0068712080569032557 -0.014804344116397181 0.011809064294478255 -0.0010617790526705555 -0.010297760651677043 -0.0028237116007605338
leaf_weight=29 30 19 38 21 29 32
leaf_count=29 30 19 38 21 29 32
internal_value=0 -0.00141852 0.00037699 0.00695939 -0.00372939 0
internal_weight=198 168 149 59 90 61
internal_count=198 168 149 59 90 61
is_linear=0
shrinkage=0.144767


Tree=65
num_leaves=7
num_cat=0
split_feature=650 708 1536 959 780 496
split_gain=0.0879276 0.166093 0.30462 0.19075 0.0470246 0.0403257
threshold=1.0000000180025095e-35 1.0000000180025095e-35 1.0000000180025095e-35 1.0000000180025095e-35 1.0000000180025095e-35 1.0000000180025095e-35
decision_type=2 2 2 2 2 2
left_child=-1 3 4 -2 -3 -5
right_child=1 2 -4 5 -6 -7
leaf_value=-0.0077670913176918367 0.0043198430927969423 -0.0064076793270902831 0.014610912584516132 -0.0035802387388469232 0.0015729436264311084 -0.014202674768428524
leaf_weight=24 34 22 39 30 29 20
leaf_count=24 34 22 39 30 29 20
internal_value=0 0.00107536 0.00542421 -0.00329307 -0.00152924 -0.00894162
internal_weight=198 174 90 84 51 50
internal_count=198 174 90 84 51 50
is_linear=0
shrinkage=0.144767


Tree=66
num_leaves=6
num_cat=0
split_feature=13 1866 1696 1488 14
split_gain=0.0908471 0.182479 0.159545 0.0785149 0.0411837
threshold=1.0000000180025095e-35 1.0000000180025095e-35 1.0000000180025095e-35 1.0000000180025095e-35 1.0000000180025095e-35
decision_type=2 2 2 2 2
left_child=1 2 3 4 -1
right_child=-2 -3 -4 -5 -6
leaf_value=-0.0077940128041036998 -0.0080912602868545309 0.012275764771498878 0.0078488595855777943 0.0026292652407235413 -0.00062301364852121487
leaf_weight=56 23 23 31 28 37
leaf_count=56 23 23 31 28 37
internal_value=0 0.00103798 -0.000698146 -0.00325515 -0.00534375
internal_weight=198 175 152 121 93
internal_count=198 175 152 121 93
is_linear=0
shrinkage=0.144767


Tree=67
num_leaves=6
num_cat=0
split_feature=961 716 1946 1696 703
split_gain=0.102357 0.462875 0.0492838 0.0473788 0.0199783
threshold=1.0000000180025095e-35 1.0000000180025095e-35 1.0000000180025095e-35 1.0000000180025095e-35 1.0000000180025095e-35
decision_type=2 2 2 2 2
left_child=1 2 3 4 -1
right_child=-2 -3 -4 -5 -6
leaf_value=-0.0024580527555255961 0.0089626388412480992 -0.018778371460287567 0.0078614801810660256 0.0046704515505552463 0.0017961698248437348
leaf_weight=74 20 24 20 37 23
leaf_count=74 20 24 20 37 23
internal_value=0 -0.00125554 0.00162019 0.000327002 -0.00114724
internal_weight=198 178 154 134 97
internal_count=198 178 154 134 97
is_linear=0
shrinkage=0.144767


Tree=68
num_leaves=7
num_cat=0
split_feature=693 780 14 464 843 322
split_gain=0.0932312 0.12508 0.255135 0.425492 0.0590237 0.0348147
threshold=1.0000000180025095e-35 1.0000000180025095e-35 1.0000000180025095e-35 1.0000000180025095e-35 1.0000000180025095e-35 1.0000000180025095e-35
decision_type=2 2 2 2 2 2
left_child=1 2 3 -1 -3 -4
right_child=-2 4 5 -5 -6 -7
leaf_value=-0.015957301051282315 -0.0082928053526786817 0 0.0089922927479381964 0.0075249105994134912 0.0096957388287310011 0
leaf_weight=42 22 28 27 21 37 21
leaf_count=42 22 28 27 21 37 21
internal_value=0 0.00111901 -0.00164342 -0.00772444 0.00610184 0.00577913
internal_weight=198 176 111 63 65 48
internal_count=198 176 111 63 65 48
is_linear=0
shrinkage=0.144767


Tree=69
num_leaves=7
num_cat=0
split_feature=961 950 561 703 1465 1645
split_gain=0.0969645 0.186891 0.248781 0.243985 0.0592397 0.0145692
threshold=1.0000000180025095e-35 1.0000000180025095e-35 1.0000000180025095e-35 1.0000000180025095e-35 1.0000000180025095e-35 1.0000000180025095e-35
decision_type=2 2 2 2 2 2
left_child=1 2 3 -1 -3 -4
right_child=-2 4 5 -5 -6 -7
leaf_value=-0.0086374185102259873 0.0088484793829367806 -0.0022754795688850996 0.0043235825608692793 0.0066094197042281307 -0.013539031031079965 0.014335085518797861
leaf_weight=52 20 30 20 32 23 21
leaf_count=52 20 30 20 32 23 21
internal_value=0 -0.00110105 0.00179492 -0.00248146 -0.00814334 0.0107373
internal_weight=198 178 125 84 53 41
internal_count=198 178 125 84 53 41
is_linear=0
shrinkage=0.144767


Tree=70
num_leaves=6
num_cat=0
split_feature=961 716 1970 1696 1224
split_gain=0.0734797 0.328771 0.206671 0.0250297 0.0640212
threshold=1.0000000180025095e-35 1.0000000180025095e-35 1.0000000180025095e-35 1.0000000180025095e-35 1.0000000180025095e-35
decision_type=2 2 2 2 2
left_child=1 2 -1 4 -4
right_child=-2 -3 3 -5 -6
leaf_value=0.0091477602845688837 0.0077417966503903644 -0.015707678263638985 0.0025503014660630116 0.0012714921842067121 -0.0057096353819854357
leaf_weight=48 20 24 21 25 60
leaf_count=48 20 24 21 25 60
internal_value=0 -0.000917402 0.00147947 -0.00190229 -0.00322282
internal_weight=198 178 154 106 81
internal_count=198 178 154 106 81
is_linear=0
shrinkage=0.144767


Tree=71
num_leaves=7
num_cat=0
split_feature=13 1488 780 389 65 1696
split_gain=0.077289 0.129114 0.136937 0.141046 0.115858 0.0482967
threshold=1.0000000180025095e-35 1.0000000180025095e-35 1.0000000180025095e-35 1.0000000180025095e-35 1.0000000180025095e-35 1.0000000180025095e-35
decision_type=2 2 2 2 2 2
left_child=1 2 3 4 5 -1
right_child=-2 -3 -4 -5 -6 -7
leaf_value=-0.0040882239477124356 -0.0072531342716737734 0.009525654693552087 0.0078745077051054716 0.0072478296082764517 -0.012203453664220832 0.0034340858039340009
leaf_weight=46 23 29 28 19 31 22
leaf_count=46 23 29 28 19 31 22
internal_value=0 0.00117055 -0.00046893 -0.00283123 -0.00520131 -0.0012199
internal_weight=198 175 146 118 99 68
internal_count=198 175 146 118 99 68
is_linear=0
shrinkage=0.144767


Tree=72
num_leaves=8
num_cat=0
split_feature=13 959 888 1224 561 1325 708
split_gain=0.0594301 0.149028 0.230164 0.164766 0.128736 0.0430082 0.0232097
threshold=1.0000000180025095e-35 1.0000000180025095e-35 1.0000000180025095e-35 1.0000000180025095e-35 1.0000000180025095e-35 1.0000000180025095e-35 1.0000000180025095e-35
decision_type=2 2 2 2 2 2 2
left_child=1 2 4 -3 -1 -4 -5
right_child=-2 3 5 6 -6 -7 -8
leaf_value=0.0020150406208915639 -0.006329593221465344 0.0040318882393546559 -0.0052700357106014589 -0.011312953010440007 0.019801945257379099 0.0025641961921243819 -0.0024924470815748689
leaf_weight=20 23 34 26 28 22 22 23
leaf_count=20 23 34 26 28 22 22 23
internal_value=0 0.00105384 0.00518844 -0.00303788 0.0126786 -0.00119957 -0.00822433
internal_weight=198 175 90 85 42 48 51
internal_count=198 175 90 85 42 48 51
is_linear=0
shrinkage=0.144767


Tree=73
num_leaves=5
num_cat=0
split_feature=1163 407 950 1019
split_gain=0.0768587 0.163381 0.102879 0.0915146
threshold=1.0000000180025095e-35 1.0000000180025095e-35 1.0000000180025095e-35 1.0000000180025095e-35
decision_type=2 2 2 2
left_child=1 3 -3 -1
right_child=-2 2 -4 -5
leaf_value=0 0.0064758608292377461 0.0092472823091571277 -0.0016096983344612427 -0.008381046880791233
leaf_weight=48 30 36 26 58
leaf_count=48 30 36 26 58
internal_value=0 -0.00113523 0.00441034 -0.00466699
internal_weight=198 168 62 106
internal_count=198 168 62 106
is_linear=0
shrinkage=0.144767


Tree=74
num_leaves=8
num_cat=0
split_feature=1488 1457 1224 489 703 1645 708
split_gain=0.0565389 0.100938 0.0925312 0.390692 0.174858 0.163207 0.238346
threshold=1.0000000180025095e-35 1.0000000180025095e-35 1.0000000180025095e-35 1.0000000180025095e-35 1.0000000180025095e-35 1.0000000180025095e-35 1.0000000180025095e-35
decision_type=2 2 2 2 2 2 2
left_child=1 2 5 4 -4 6 -1
right_child=-2 -3 3 -5 -6 -7 -8
leaf_value=0.0060954773543138918 0.0053787507340647333 0.006854761464699031 -0.023919486204905534 0.0045047905600735473 -0.0028038141924026901 0.009355365846559582 -0.014111382256904658
leaf_weight=19 32 24 21 34 19 27 22
leaf_count=19 32 24 21 34 19 27 22
internal_value=0 -0.000996578 -0.00263486 -0.00612315 -0.01547 0.000873896 -0.00435134
internal_weight=198 166 142 74 40 68 41
internal_count=198 166 142 74 40 68 41
is_linear=0
shrinkage=0.144767


Tree=75
num_leaves=7
num_cat=0
split_feature=407 352 1163 216 888 950
split_gain=0.0733098 0.159516 0.251476 0.167142 0.261665 0.102082
threshold=1.0000000180025095e-35 1.0000000180025095e-35 1.0000000180025095e-35 1.0000000180025095e-35 1.0000000180025095e-35 1.0000000180025095e-35
decision_type=2 2 2 2 2 2
left_child=1 2 3 4 -1 -2
right_child=5 -3 -4 -5 -6 -7
leaf_value=-0.023104888640622219 0.0088168804571062357 0.0088570208306145322 0.0075414414156478472 0 -0.0020525370826617101 -0.0018620689352789844
leaf_weight=24 37 20 25 35 30 27
leaf_count=24 37 20 25 35 30 27
internal_value=0 -0.00181158 -0.00410814 -0.00782781 -0.0126528 0.00402207
internal_weight=198 134 114 89 54 64
internal_count=198 134 114 89 54 64
is_linear=0
shrinkage=0.144767


Tree=76
num_leaves=7
num_cat=0
split_feature=1951 1488 1171 1946 695 407
split_gain=0.0899934 0.300763 0.132933 0.111058 0.233493 0.185184
threshold=1.0000000180025095e-35 1.0000000180025095e-35 1.0000000180025095e-35 1.0000000180025095e-35 1.0000000180025095e-35 1.0000000180025095e-35
decision_type=2 2 2 2 2 2
left_child=1 2 3 4 -1 -6
right_child=-2 -3 -4 -5 5 -7
leaf_value=-0.0159115666436246 -0.0084080838624360065 0.014727492999989145 0.0077403542794471144 0.0054383591255641305 -0.0065111807522267411 0.0070594469639234086
leaf_weight=28 20 26 24 20 48 32
leaf_count=28 20 26 24 20 48 32
internal_value=0 0.00117346 -0.0012179 -0.00325489 -0.00522311 -0.000687126
internal_weight=198 178 152 128 108 80
internal_count=198 178 152 128 108 80
is_linear=0
shrinkage=0.144767


Tree=77
num_leaves=7
num_cat=0
split_feature=787 119 959 708 407 950
split_gain=0.063127 0.0958226 0.149044 0.331804 0.0519213 0.0244337
threshold=1.0000000180025095e-35 1.0000000180025095e-35 1.0000000180025095e-35 1.0000000180025095e-35 1.0000000180025095e-35 1.0000000180025095e-35
decision_type=2 2 2 2 2 2
left_child=1 2 4 -4 -1 -3
right_child=-2 5 3 -5 -6 -7
leaf_value=0.0036929274728181795 -0.0071874481210378437 -0.0067999829834526331 -0.0096357925743544501 0.012094255067970346 0.013620382185951158 0
leaf_weight=48 19 26 39 19 22 25
leaf_count=48 19 26 39 19 22 25
internal_value=0 0.000990599 0.0032097 -0.00180685 0.00764478 -0.00392875
internal_weight=198 179 128 58 70 51
internal_count=198 179 128 58 70 51
is_linear=0
shrinkage=0.144767


Tree=78
num_leaves=8
num_cat=0
split_feature=693 780 14 464 1617 1480 184
split_gain=0.0671447 0.11228 0.18087 0.319107 0.12515 0.0831197 0.0710328
threshold=1.0000000180025095e-35 1.0000000180025095e-35 1.0000000180025095e-35 1.0000000180025095e-35 1.0000000180025095e-35 1.0000000180025095e-35 1.0000000180025095e-35
decision_type=2 2 2 2 2 2 2
left_child=1 2 3 6 -4 -3 -1
right_child=-2 5 4 -5 -6 -7 -8
leaf_value=-0.019302102050692445 -0.0069088102764795975 0.011373380064042418 0.011846102633313449 0.006427891766027591 -0.0015397941180388668 0.00032728069129467623 -0.0041481271315298458
leaf_weight=23 22 28 23 21 25 37 19
leaf_count=23 22 28 23 21 25 37 19
internal_value=0 0.00107425 -0.00153277 -0.00667262 0.00466579 0.00579886 -0.0138295
internal_weight=198 176 111 63 48 65 42
internal_count=198 176 111 63 48 65 42
is_linear=0
shrinkage=0.144767


Tree=79
num_leaves=8
num_cat=0
split_feature=1171 926 881 950 555 1357 555
split_gain=0.0719559 0.116905 0.305575 0.0796537 0.190566 0.0261902 0.0152083
threshold=1.0000000180025095e-35 1.0000000180025095e-35 1.0000000180025095e-35 1.0000000180025095e-35 1.0000000180025095e-35 1.0000000180025095e-35 1.0000000180025095e-35
decision_type=2 2 2 2 2 2 2
left_child=1 2 -1 4 5 -3 -5
right_child=-2 3 -4 6 -6 -7 -8
leaf_value=-0.018754384207254966 0.0070113584418730682 0.0033052928751599172 0.0043426601444823167 0 0.014481354818116878 -0.0027412446315825604 -0.0057135867446129543
leaf_weight=21 24 19 19 33 22 38 22
leaf_count=21 24 19 19 33 22 38 22
internal_value=0 -0.000989231 -0.00762347 0.000918229 0.00395146 -0.000196458 -0.00293901
internal_weight=198 174 40 134 79 57 55
internal_count=198 174 40 134 79 57 55
is_linear=0
shrinkage=0.144767


Tree=80
num_leaves=5
num_cat=0
split_feature=1171 1163 1410 191
split_gain=0.0546594 0.0786175 0.202119 0.0386041
threshold=1.0000000180025095e-35 1.0000000180025095e-35 1.0000000180025095e-35 1.0000000180025095e-35
decision_type=2 2 2 2
left_child=1 2 3 -1
right_child=-2 -3 -4 -5
leaf_value=-0.00041581455831308552 0.0061140994448910828 0.0052761811896502395 0.010044432154004183 -0.0065540469367939775
leaf_weight=43 24 30 19 82
leaf_count=43 24 30 19 82
internal_value=0 -0.000858636 -0.00241104 -0.00472134
internal_weight=198 174 144 125
internal_count=198 174 144 125
is_linear=0
shrinkage=0.144767


Tree=81
num_leaves=5
num_cat=0
split_feature=1951 216 780 1946
split_gain=0.0784363 0.164695 0.141396 0.105688
threshold=1.0000000180025095e-35 1.0000000180025095e-35 1.0000000180025095e-35 1.0000000180025095e-35
decision_type=2 2 2 2
left_child=1 2 3 -1
right_child=-2 -3 -4 -5
leaf_value=-0.0062132240410066588 -0.0078187947457087105 0.0090117513756899428 0.0064709994079781962 0.0043472972381935629
leaf_weight=85 20 40 33 20
leaf_count=85 20 40 33 20
internal_value=0 0.00112336 -0.00111643 -0.00387687
internal_weight=198 178 138 105
internal_count=198 178 138 105
is_linear=0
shrinkage=0.144767


Tree=82
num_leaves=7
num_cat=0
split_feature=961 716 464 1810 1696 1019
split_gain=0.0695196 0.373621 0.0992087 0.0796589 0.06757 0.0170018
threshold=1.0000000180025095e-35 1.0000000180025095e-35 1.0000000180025095e-35 1.0000000180025095e-35 1.0000000180025095e-35 1.0000000180025095e-35
decision_type=2 2 2 2 2 2
left_child=1 2 3 4 5 -1
right_child=-2 -3 -4 -5 -6 -7
leaf_value=0.0030871226869245072 0.0075886184130471912 -0.016597845706530671 0.010283213300183202 -0.0042917314841745659 0.0088470103762592536 -0.0016835234166070207
leaf_weight=22 20 24 21 49 24 38
leaf_count=22 20 24 21 49 24 38
internal_value=0 -0.000826785 0.00173771 0 0.00285207 0
internal_weight=198 178 154 133 84 60
internal_count=198 178 154 133 84 60
is_linear=0
shrinkage=0.144767


Tree=83
num_leaves=7
num_cat=0
split_feature=693 1488 1866 843 959 1325
split_gain=0.0615077 0.141143 0.104333 0.0784951 0.0660229 0.106027
threshold=1.0000000180025095e-35 1.0000000180025095e-35 1.0000000180025095e-35 1.0000000180025095e-35 1.0000000180025095e-35 1.0000000180025095e-35
decision_type=2 2 2 2 2 2
left_child=1 2 3 4 -1 -6
right_child=-2 -3 -4 -5 5 -7
leaf_value=0 -0.0065488422900980064 0.010000649600734834 0.0075037422538604846 0.0024445057105724416 -0.0013232142437894002 -0.016064101447648586
leaf_weight=39 22 28 23 38 29 19
leaf_count=39 22 28 23 38 29 19
internal_value=8.43881e-06 0.00108385 -0.000592602 -0.00244687 -0.00490217 -0.00833101
internal_weight=198 176 148 125 87 48
internal_count=198 176 148 125 87 48
is_linear=0
shrinkage=0.144767


Tree=84
num_leaves=8
num_cat=0
split_feature=650 1405 401 119 959 1480 1266
split_gain=0.047714 0.139751 0.169392 0.161708 0.190154 0.0456576 0.0211934
threshold=1.0000000180025095e-35 1.0000000180025095e-35 1.0000000180025095e-35 1.0000000180025095e-35 1.0000000180025095e-35 1.0000000180025095e-35 1.0000000180025095e-35
decision_type=2 2 2 2 2 2 2
left_child=-1 2 3 4 -2 -5 -6
right_child=1 -3 -4 5 6 -7 -8
leaf_value=-0.0055418383903506254 0.012447233645240445 0.011775005463099527 -0.012269693962777301 0 0.0013605510570883158 -0.0093010079579958008 -0.0040925795787680021
leaf_weight=24 37 19 19 19 37 24 19
leaf_count=24 37 19 19 19 37 24 19
internal_value=0 0.000968435 -0.000388752 0.00131165 0.00482299 -0.0054917 -0.000139481
internal_weight=198 174 155 136 93 43 56
internal_count=198 174 155 136 93 43 56
is_linear=0
shrinkage=0.144767


Tree=85
num_leaves=7
num_cat=0
split_feature=787 950 555 1171 119 1236
split_gain=0.0619388 0.049653 0.157535 0.0579968 0.045859 0.0133523
